{"learner":{"attributes":{"scikit_learn":"{\"_estimator_type\": \"classifier\"}"},"feature_names":["slope_10","slope_10_pct","accel_10","body","wick_upper","wick_lower","range","body_pct","is_pinbar_bull","is_pinbar_bear","swing_high_20","swing_low_20","dist_sh_pct","dist_sl_pct","fvg_bull","fvg_bear","fvg_bull_size","fvg_bear_size","liq_sweep_bull","liq_sweep_bear","cvd_10","cvd_10_norm","div_bear","div_bull","atr_14_pct","rsi_14","bb_width","is_squeeze"],"feature_types":["float","float","float","float","float","float","float","float","i","i","float","float","float","float","int","int","float","float","int","int","float","float","int","int","float","float","float","int"],"gradient_booster":{"model":{"gbtree_model_param":{"num_parallel_tree":"1","num_trees":"200"},"iteration_indptr":[0,1,2,3,4,5,6,7,8,9,10,11,12,13,14,15,16,17,18,19,20,21,22,23,24,25,26,27,28,29,30,31,32,33,34,35,36,37,38,39,40,41,42,43,44,45,46,47,48,49,50,51,52,53,54,55,56,57,58,59,60,61,62,63,64,65,66,67,68,69,70,71,72,73,74,75,76,77,78,79,80,81,82,83,84,85,86,87,88,89,90,91,92,93,94,95,96,97,98,99,100,101,102,103,104,105,106,107,108,109,110,111,112,113,114,115,116,117,118,119,120,121,122,123,124,125,126,127,128,129,130,131,132,133,134,135,136,137,138,139,140,141,142,143,144,145,146,147,148,149,150,151,152,153,154,155,156,157,158,159,160,161,162,163,164,165,166,167,168,169,170,171,172,173,174,175,176,177,178,179,180,181,182,183,184,185,186,187,188,189,190,191,192,193,194,195,196,197,198,199,200],"tree_info":[0,0,0,0,0,0,0,0,0,0,0,0,0,0,0,0,0,0,0,0,0,0,0,0,0,0,0,0,0,0,0,0,0,0,0,0,0,0,0,0,0,0,0,0,0,0,0,0,0,0,0,0,0,0,0,0,0,0,0,0,0,0,0,0,0,0,0,0,0,0,0,0,0,0,0,0,0,0,0,0,0,0,0,0,0,0,0,0,0,0,0,0,0,0,0,0,0,0,0,0,0,0,0,0,0,0,0,0,0,0,0,0,0,0,0,0,0,0,0,0,0,0,0,0,0,0,0,0,0,0,0,0,0,0,0,0,0,0,0,0,0,0,0,0,0,0,0,0,0,0,0,0,0,0,0,0,0,0,0,0,0,0,0,0,0,0,0,0,0,0,0,0,0,0,0,0,0,0,0,0,0,0,0,0,0,0,0,0,0,0,0,0,0,0,0,0,0,0,0,0],"trees":[{"base_weights":[-8.871317E-3,1.7934233E-1,-4.309989E-1,5.1454365E-1,9.848E-2,-2.0122106E-1,-6.484344E-1,-6.517622E-2,6.3295686E-1,2.0976594E-1,-2.8343356E-1,1.4893944E-2,-3.961931E-1,-4.6513867E-1,-9.3041706E-1,7.1749105E-3,-4.437123E-2,4.3132105E-3,3.7107732E-2,8.235344E-3,3.143495E-2,5.6257225E-3,-2.1666689E-2,-6.146168E-3,4.605392E-2,-1.40523E-4,-2.8861988E-2,-3.0043816E-2,6.279816E-3,-8.20232E-2,-3.5791174E-2],"categories":[],"categories_nodes":[],"categories_segments":[],"categories_sizes":[],"default_left":[0,0,0,0,0,0,0,0,0,0,0,0,0,0,0,0,0,0,0,0,0,0,0,0,0,0,0,0,0,0,0],"id":0,"left_children":[1,3,5,7,9,11,13,15,17,19,21,23,25,27,29,-1,-1,-1,-1,-1,-1,-1,-1,-1,-1,-1,-1,-1,-1,-1,-1],"loss_changes":[7.8161804E2,1.8437651E2,1.5144049E2,9.08024E1,2.3309503E2,6.2218292E1,8.0108765E1,3.8761204E1,6.548334E1,8.005411E1,7.350423E1,8.768736E1,5.5282036E1,7.5962296E1,9.2211426E1,0E0,0E0,0E0,0E0,0E0,0E0,0E0,0E0,0E0,0E0,0E0,0E0,0E0,0E0,0E0,0E0],"parents":[2147483647,0,0,1,1,2,2,3,3,4,4,5,5,6,6,7,7,8,8,9,9,10,10,11,11,12,12,13,13,14,14],"right_children":[2,4,6,8,10,12,14,16,18,20,22,24,26,28,30,-1,-1,-1,-1,-1,-1,-1,-1,-1,-1,-1,-1,-1,-1,-1,-1],"split_conditions":[1.0366324E0,4.5796844E-1,1.2532094E0,4.4356094E1,4.49445E3,1.7818E2,1.9191E2,5.049572E-1,6.5677E2,3.29452E3,5.526801E-1,1.6104E2,1.3872688E0,1.6471E2,1.18276E3,7.1749105E-3,-4.437123E-2,4.3132105E-3,3.7107732E-2,8.235344E-3,3.143495E-2,5.6257225E-3,-2.1666689E-2,-6.146168E-3,4.605392E-2,-1.40523E-4,-2.8861988E-2,-3.0043816E-2,6.279816E-3,-8.20232E-2,-3.5791174E-2],"split_indices":[24,24,24,25,10,11,11,13,11,11,24,11,13,11,10,0,0,0,0,0,0,0,0,0,0,0,0,0,0,0,0],"split_type":[0,0,0,0,0,0,0,0,0,0,0,0,0,0,0,0,0,0,0,0,0,0,0,0,0,0,0,0,0,0,0],"sum_hessian":[9.835867E3,6.803135E3,3.0327324E3,1.3211526E3,5.481982E3,1.4754532E3,1.557279E3,2.2416238E2,1.0969902E3,4.245372E3,1.2366099E3,7.00222E2,7.7523126E2,9.4539703E2,6.11882E2,1.794469E2,4.471548E1,1.8293344E2,9.140568E2,3.8343547E3,4.110175E2,3.3966486E2,8.9694507E2,6.0853687E2,9.168514E1,2.446548E2,5.305765E2,7.6874054E2,1.766565E2,1.4046548E2,4.7141656E2],"tree_param":{"num_deleted":"0","num_feature":"28","num_nodes":"31","size_leaf_vector":"1"}},{"base_weights":[2.0572445E-3,1.14127316E-1,-5.797703E-1,3.7830225E-1,2.9028835E-2,-4.038168E-1,-8.7566274E-1,1.3128309E-2,4.6994144E-1,9.2918396E-2,-5.7078815E-1,-5.384709E-1,1.0434191E-1,-1.7593585E0,-6.8294525E-1,8.346946E-3,-6.572778E-2,4.108312E-2,1.3319293E-2,1.0159797E-2,-6.570257E-3,-8.581368E-3,-3.537235E-2,-1.9759929E-2,-7.311512E-2,3.2961305E-2,-1.456251E-2,-9.193255E-2,-4.2322963E-2,-3.8176797E-2,2.4785608E-2],"categories":[],"categories_nodes":[],"categories_segments":[],"categories_sizes":[],"default_left":[0,0,0,0,0,0,0,0,0,0,0,0,0,0,0,0,0,0,0,0,0,0,0,0,0,0,0,0,0,0,0],"id":1,"left_children":[1,3,5,7,9,11,13,15,17,19,21,23,25,27,29,-1,-1,-1,-1,-1,-1,-1,-1,-1,-1,-1,-1,-1,-1,-1,-1],"loss_changes":[6.421016E2,1.8561182E2,8.24494E1,6.7312805E1,2.3942206E2,6.842757E1,9.965607E1,8.283954E1,1.14911804E2,1.3969249E2,3.268509E1,1.03993866E2,4.6321102E1,6.0728455E0,4.6716644E1,0E0,0E0,0E0,0E0,0E0,0E0,0E0,0E0,0E0,0E0,0E0,0E0,0E0,0E0,0E0,0E0],"parents":[2147483647,0,0,1,1,2,2,3,3,4,4,5,5,6,6,7,7,8,8,9,9,10,10,11,11,12,12,13,13,14,14],"right_children":[2,4,6,8,10,12,14,16,18,20,22,24,26,28,30,-1,-1,-1,-1,-1,-1,-1,-1,-1,-1,-1,-1,-1,-1,-1,-1],"split_conditions":[1.2459444E0,5.3793764E-1,1.9581E2,6.6206E2,8.6789E4,1.6471E2,1.09353E3,6.6488E2,4.35607E3,9.867824E-1,7.473907E-1,1.4356E2,1.7818E2,1.6258348E6,2.5010874E0,8.346946E-3,-6.572778E-2,4.108312E-2,1.3319293E-2,1.0159797E-2,-6.570257E-3,-8.581368E-3,-3.537235E-2,-1.9759929E-2,-7.311512E-2,3.2961305E-2,-1.456251E-2,-9.193255E-2,-4.2322963E-2,-3.8176797E-2,2.4785608E-2],"split_indices":[24,24,11,11,11,11,10,10,10,24,13,10,11,20,24,0,0,0,0,0,0,0,0,0,0,0,0,0,0,0,0],"split_type":[0,0,0,0,0,0,0,0,0,0,0,0,0,0,0,0,0,0,0,0,0,0,0,0,0,0,0,0,0,0,0],"sum_hessian":[9.845346E3,8.255917E3,1.589429E3,2.010668E3,6.245249E3,9.982065E2,5.912224E2,4.0358032E2,1.6070876E3,5.6448345E3,6.004149E2,7.890586E2,2.0914787E2,1.04395096E2,4.8682733E2,3.624636E2,4.1116714E1,5.880198E2,1.0190678E3,3.7844775E3,1.8603568E3,1.53709E2,4.4670593E2,6.8435345E2,1.0470516E2,8.677083E1,1.2237705E2,9.511917E1,9.275918E0,4.560005E2,3.0826815E1],"tree_param":{"num_deleted":"0","num_feature":"28","num_nodes":"31","size_leaf_vector":"1"}},{"base_weights":[-4.557902E-3,1.5123701E-1,-3.9516225E-1,5.824597E-1,1.0171606E-1,1.2442713E0,-4.2539242E-1,6.7965466E-1,7.6031014E-2,1.9604827E-1,-1.8348151E-1,-7.045844E-2,1.4102371E0,-1.3759524E0,-3.9032435E-1,3.8042925E-2,3.7395887E-3,-6.771039E-2,3.8277354E-2,-3.1123214E-4,1.3997391E-2,5.2741063E-3,-1.8711286E-2,7.548978E-2,-2.1564396E-2,-7.711547E-2,7.513989E-2,4.001093E-2,-2.1495802E-2],"categories":[],"categories_nodes":[],"categories_segments":[],"categories_sizes":[],"default_left":[0,0,0,0,0,0,0,0,0,0,0,0,0,0,0,0,0,0,0,0,0,0,0,0,0,0,0,0,0],"id":2,"left_children":[1,3,5,7,9,11,13,15,17,19,21,-1,23,25,27,-1,-1,-1,-1,-1,-1,-1,-1,-1,-1,-1,-1,-1,-1],"loss_changes":[5.9757654E2,1.498478E2,1.3929437E2,3.553128E1,1.6947327E2,2.4424133E1,9.113129E1,2.9726532E1,1.1693882E2,8.032565E1,8.634827E1,0E0,9.533867E0,4.8984833E1,1.2541965E2,0E0,0E0,0E0,0E0,0E0,0E0,0E0,0E0,0E0,0E0,0E0,0E0,0E0,0E0],"parents":[2147483647,0,0,1,1,2,2,3,3,4,4,5,5,6,6,7,7,8,8,9,9,10,10,12,12,13,13,14,14],"right_children":[2,4,6,8,10,12,14,16,18,20,22,-1,24,26,28,-1,-1,-1,-1,-1,-1,-1,-1,-1,-1,-1,-1,-1,-1],"split_conditions":[1.0625927E0,3.8576087E-1,1.4252E0,1.140556E5,4.49445E3,2.9730144E0,1.8779E0,2.212E1,1.156781E5,4.6254444E1,5.4300946E-1,-7.045844E-2,6.173073E1,8.041329E1,2.1112E0,3.8042925E-2,3.7395887E-3,-6.771039E-2,3.8277354E-2,-3.1123214E-4,1.3997391E-2,5.2741063E-3,-1.8711286E-2,7.548978E-2,-2.1564396E-2,-7.711547E-2,7.513989E-2,4.001093E-2,-2.1495802E-2],"split_indices":[24,24,10,11,10,26,10,2,11,25,24,0,25,25,10,0,0,0,0,0,0,0,0,0,0,0,0,0,0],"split_type":[0,0,0,0,0,0,0,0,0,0,0,0,0,0,0,0,0,0,0,0,0,0,0,0,0,0,0,0,0],"sum_hessian":[9.817831E3,7.0189097E3,2.7989216E3,7.219027E2,6.297007E3,4.994885E1,2.7489727E3,6.053755E2,1.165272E2,4.732119E3,1.5648877E3,2.4993198E0,4.7449528E1,9.6446365E1,2.6525264E3,5.3349506E2,7.188044E1,3.759052E1,7.893668E1,1.3876259E3,3.3444932E3,6.2241736E2,9.424703E2,4.5186733E1,2.2627966E0,9.1616295E1,4.8300705E0,8.4752846E1,2.5677734E3],"tree_param":{"num_deleted":"0","num_feature":"28","num_nodes":"29","size_leaf_vector":"1"}},{"base_weights":[-8.388851E-4,1.00384526E-1,-5.252013E-1,5.7666206E-1,5.40281E-2,-3.4072238E-1,-8.242035E-1,-1.2724E-1,6.7074335E-1,1.2086433E-1,-1.8213505E-1,-4.783932E-1,2.1470396E-1,-1.5086489E0,-6.324641E-1,3.6711976E-2,-2.5327144E-2,3.6501806E-2,-1.7003424E-2,1.3718203E-2,-6.4924854E-4,7.558539E-3,-1.934841E-2,-1.760072E-2,-6.4561605E-2,-5.379889E-4,6.477387E-2,6.293302E-2,-7.861525E-2,4.4619825E-2,-3.723648E-2],"categories":[],"categories_nodes":[],"categories_segments":[],"categories_sizes":[],"default_left":[0,0,0,0,0,0,0,0,0,0,0,0,0,0,0,0,0,0,0,0,0,0,0,0,0,0,0,0,0,0,0],"id":3,"left_children":[1,3,5,7,9,11,13,15,17,19,21,23,25,27,29,-1,-1,-1,-1,-1,-1,-1,-1,-1,-1,-1,-1,-1,-1,-1,-1],"loss_changes":[5.227467E2,1.8222989E2,8.762027E1,4.856842E1,1.1878308E2,7.55922E1,7.875101E1,2.8850893E1,3.8962677E1,1.20503975E2,1.13394455E2,8.084711E1,4.796556E1,2.5264404E1,8.217801E1,0E0,0E0,0E0,0E0,0E0,0E0,0E0,0E0,0E0,0E0,0E0,0E0,0E0,0E0,0E0,0E0],"parents":[2147483647,0,0,1,1,2,2,3,3,4,4,5,5,6,6,7,7,8,8,9,9,10,10,11,11,12,12,13,13,14,14],"right_children":[2,4,6,8,10,12,14,16,18,20,22,24,26,28,30,-1,-1,-1,-1,-1,-1,-1,-1,-1,-1,-1,-1,-1,-1,-1,-1],"split_conditions":[1.2459444E0,3.8576087E-1,2.0995E2,4.3281994E1,4.49445E3,1.6471E2,1.18276E3,8.6058E2,7.536424E1,1.2770642E0,5.4300946E-1,1.4356E2,7.2617265E6,-5.1753335E0,1.14279E3,3.6711976E-2,-2.5327144E-2,3.6501806E-2,-1.7003424E-2,1.3718203E-2,-6.4924854E-4,7.558539E-3,-1.934841E-2,-1.760072E-2,-6.4561605E-2,-5.379889E-4,6.477387E-2,6.293302E-2,-7.861525E-2,4.4619825E-2,-3.723648E-2],"split_indices":[24,24,10,25,10,11,10,10,0,12,24,10,20,2,11,0,0,0,0,0,0,0,0,0,0,0,0,0,0,0,0],"split_type":[0,0,0,0,0,0,0,0,0,0,0,0,0,0,0,0,0,0,0,0,0,0,0,0,0,0,0,0,0,0,0],"sum_hessian":[9.846704E3,8.254128E3,1.592576E3,7.311075E2,7.523021E3,9.862296E2,6.063464E2,8.615517E1,6.4495233E2,5.863958E3,1.659063E3,7.9044464E2,1.9578497E2,1.3118648E2,4.751599E2,2.6051275E1,6.010389E1,6.0947894E2,3.5473392E1,2.730986E3,3.132972E3,6.3159296E2,1.0274701E3,6.8532465E2,1.0512005E2,1.6281056E2,3.2974407E1,2.5276935E0,1.2865878E2,3.2107426E1,4.430525E2],"tree_param":{"num_deleted":"0","num_feature":"28","num_nodes":"31","size_leaf_vector":"1"}},{"base_weights":[1.7549856E-4,1.4308417E-1,-3.5449782E-1,4.2527935E-1,8.49073E-2,-1.70884E-1,-5.47082E-1,-1.060417E-1,5.093967E-1,1.757007E-1,-2.2630809E-1,5.831125E-2,-3.9991456E-1,-8.3699524E-2,-6.251381E-1,-1.7611912E-2,2.5171448E-2,1.7540393E-3,3.0278279E-2,-1.1460845E-2,1.0611556E-2,5.2940333E-3,-1.8294847E-2,-2.4973073E-3,5.8230318E-2,1.0665119E-2,-2.5652975E-2,1.0289612E-2,-6.7305E-2,-3.9124917E-2,-1.8275343E-2],"categories":[],"categories_nodes":[],"categories_segments":[],"categories_sizes":[],"default_left":[0,0,0,0,0,0,0,0,0,0,0,0,0,0,0,0,0,0,0,0,0,0,0,0,0,0,0,0,0,0,0],"id":4,"left_children":[1,3,5,7,9,11,13,15,17,19,21,23,25,27,29,-1,-1,-1,-1,-1,-1,-1,-1,-1,-1,-1,-1,-1,-1,-1,-1],"loss_changes":[4.9838336E2,1.15028076E2,9.976767E1,5.358293E1,1.6426682E2,7.5987724E1,4.978589E1,2.4864542E1,4.7151733E1,6.661128E1,6.092627E1,8.678975E1,5.033941E1,7.329402E1,4.788672E1,0E0,0E0,0E0,0E0,0E0,0E0,0E0,0E0,0E0,0E0,0E0,0E0,0E0,0E0,0E0,0E0],"parents":[2147483647,0,0,1,1,2,2,3,3,4,4,5,5,6,6,7,7,8,8,9,9,10,10,11,11,12,12,13,13,14,14],"right_children":[2,4,6,8,10,12,14,16,18,20,22,24,26,28,30,-1,-1,-1,-1,-1,-1,-1,-1,-1,-1,-1,-1,-1,-1,-1,-1],"split_conditions":[1.0582592E0,4.4248942E-1,1.2901162E0,4.343174E1,4.49445E3,1.7818E2,-5.07922E-1,1.6760563E0,6.5677E2,2.1007E0,5.4300946E-1,5.253901E-1,8.0510134E-1,2.8382788E0,7.467824E5,-1.7611912E-2,2.5171448E-2,1.7540393E-3,3.0278279E-2,-1.1460845E-2,1.0611556E-2,5.2940333E-3,-1.8294847E-2,-2.4973073E-3,5.8230318E-2,1.0665119E-2,-2.5652975E-2,1.0289612E-2,-6.7305E-2,-3.9124917E-2,-1.8275343E-2],"split_indices":[24,24,24,25,10,11,1,12,11,11,24,21,13,13,20,0,0,0,0,0,0,0,0,0,0,0,0,0,0,0,0],"split_type":[0,0,0,0,0,0,0,0,0,0,0,0,0,0,0,0,0,0,0,0,0,0,0,0,0,0,0,0,0,0,0],"sum_hessian":[9.830782E3,7.0077446E3,2.823037E3,1.1966951E3,5.81105E3,1.446142E3,1.376895E3,1.6352707E2,1.033168E3,4.4989653E3,1.3120844E3,7.2318365E2,7.229583E2,1.9879778E2,1.1780973E3,1.16776924E2,4.6750145E1,1.743953E2,8.587727E2,3.7185898E2,4.1271064E3,3.8828903E2,9.2379535E2,6.5959344E2,6.3590195E1,1.1247688E2,6.104814E2,1.6239467E2,3.6403114E1,7.322643E2,4.45833E2],"tree_param":{"num_deleted":"0","num_feature":"28","num_nodes":"31","size_leaf_vector":"1"}},{"base_weights":[1.0606358E-3,1.38437E-1,-3.3457997E-1,4.9178818E-1,9.689799E-2,1.1272031E0,-3.5751495E-1,2.9721662E-1,7.610956E-1,1.7266415E-1,-1.281653E-1,-6.697111E-1,1.2741294E0,-1.2656344E0,-3.242565E-1,1.747897E-2,-8.3811544E-2,4.4942867E-2,1.3048199E-2,1.4182314E-2,2.8511516E-3,6.2448075E-3,-1.5034567E-2,-6.358205E-2,2.8001977E-2,8.785765E-2,3.9622463E-2,-7.475837E-2,3.671529E-2,4.141195E-2,-1.8254062E-2],"categories":[],"categories_nodes":[],"categories_segments":[],"categories_sizes":[],"default_left":[0,0,0,0,0,0,0,0,0,0,0,0,0,0,0,0,0,0,0,0,0,0,0,0,0,0,0,0,0,0,0],"id":5,"left_children":[1,3,5,7,9,11,13,15,17,19,21,23,25,27,29,-1,-1,-1,-1,-1,-1,-1,-1,-1,-1,-1,-1,-1,-1,-1,-1],"loss_changes":[4.5304065E2,1.02284164E2,9.6071045E1,3.8189606E1,1.0642294E2,1.2554565E1,8.4466064E1,4.473746E1,2.0908325E1,5.9901398E1,6.867468E1,3.677113E0,8.220047E0,4.651645E1,1.2791669E2,0E0,0E0,0E0,0E0,0E0,0E0,0E0,0E0,0E0,0E0,0E0,0E0,0E0,0E0,0E0,0E0],"parents":[2147483647,0,0,1,1,2,2,3,3,4,4,5,5,6,6,7,7,8,8,9,9,10,10,11,11,12,12,13,13,14,14],"right_children":[2,4,6,8,10,12,14,16,18,20,22,24,26,28,30,-1,-1,-1,-1,-1,-1,-1,-1,-1,-1,-1,-1,-1,-1,-1,-1],"split_conditions":[1.0582592E0,3.8576087E-1,1.4252E0,1E0,4.49445E3,2.9730144E0,1.8779E0,1.171216E5,1.132857E5,1.2770642E0,5.4300946E-1,1.6618181E-3,4.8020234E0,6.3163E1,2.1112E0,1.747897E-2,-8.3811544E-2,4.4942867E-2,1.3048199E-2,1.4182314E-2,2.8511516E-3,6.2448075E-3,-1.5034567E-2,-6.358205E-2,2.8001977E-2,8.785765E-2,3.9622463E-2,-7.475837E-2,3.671529E-2,4.141195E-2,-1.8254062E-2],"split_indices":[24,24,10,27,10,26,10,11,11,12,24,2,26,25,10,0,0,0,0,0,0,0,0,0,0,0,0,0,0,0,0],"split_type":[0,0,0,0,0,0,0,0,0,0,0,0,0,0,0,0,0,0,0,0,0,0,0,0,0,0,0,0,0,0,0],"sum_hessian":[9.823404E3,6.9708506E3,2.8525535E3,7.321325E2,6.238718E3,4.3320637E1,2.809233E3,4.2626468E2,3.0586783E2,4.667624E3,1.5710939E3,3.0054708E0,4.0315166E1,9.7939766E1,2.7112932E3,4.1604825E2,1.0216426E1,2.3918643E2,6.668137E1,2.3810498E3,2.2865742E3,6.37007E2,9.340868E2,1.9949383E0,1.0105325E0,1.8807373E1,2.1507793E1,8.808289E1,9.856877E0,9.209633E1,2.6191968E3],"tree_param":{"num_deleted":"0","num_feature":"28","num_nodes":"31","size_leaf_vector":"1"}},{"base_weights":[-1.6629942E-3,1.1985818E-1,-3.5858065E-1,4.146635E-1,6.821032E-2,1.0968819E0,-3.84532E-1,-3.767999E-1,4.7646055E-1,1.4208446E-1,-2.5142592E-1,1.2432086E0,-6.596672E-2,-4.426777E-1,1.7517312E-1,-2.9408392E-3,-7.726607E-2,6.2965326E-2,2.118028E-2,-1.4969348E-2,8.515974E-3,-6.985175E-2,-9.714297E-3,-6.168241E-2,6.985292E-2,-7.415914E-2,-2.0058084E-2,1.7494254E-2,-2.9370228E-2],"categories":[],"categories_nodes":[],"categories_segments":[],"categories_sizes":[],"default_left":[0,0,0,0,0,0,0,0,0,0,0,0,0,0,0,0,0,0,0,0,0,0,0,0,0,0,0,0,0],"id":6,"left_children":[1,3,5,7,9,11,13,15,17,19,21,23,-1,25,27,-1,-1,-1,-1,-1,-1,-1,-1,-1,-1,-1,-1,-1,-1],"loss_changes":[4.263595E2,1.11628685E2,9.472839E1,5.3639206E1,1.4740968E2,1.7196056E1,7.993475E1,2.9530632E1,4.14355E1,6.325097E1,7.6450424E1,1.7728386E1,0E0,9.543964E1,3.1067457E1,0E0,0E0,0E0,0E0,0E0,0E0,0E0,0E0,0E0,0E0,0E0,0E0,0E0,0E0],"parents":[2147483647,0,0,1,1,2,2,3,3,4,4,5,5,6,6,7,7,8,8,9,9,10,10,11,11,13,13,14,14],"right_children":[2,4,6,8,10,12,14,16,18,20,22,24,-1,26,28,-1,-1,-1,-1,-1,-1,-1,-1,-1,-1,-1,-1,-1,-1],"split_conditions":[1.1048287E0,4.3271205E-1,1.4252E0,4.0043373E1,6.64081E4,6.005718E1,6.7121056E1,3.6209127E-1,-4.256056E-1,-2.3829204E-1,7.5644E4,2.9730144E0,-6.596672E-2,1.8779E0,1.5126555E0,-2.9408392E-3,-7.726607E-2,6.2965326E-2,2.118028E-2,-1.4969348E-2,8.515974E-3,-6.985175E-2,-9.714297E-3,-6.168241E-2,6.985292E-2,-7.415914E-2,-2.0058084E-2,1.7494254E-2,-2.9370228E-2],"split_indices":[24,24,10,25,11,25,25,13,21,1,11,26,0,10,24,0,0,0,0,0,0,0,0,0,0,0,0,0,0],"split_type":[0,0,0,0,0,0,0,0,0,0,0,0,0,0,0,0,0,0,0,0,0,0,0,0,0,0,0,0,0],"sum_hessian":[9.828064E3,7.3322783E3,2.495786E3,1.0920192E3,6.2402593E3,4.2998146E1,2.4527876E3,7.871987E1,1.0132993E3,5.069219E3,1.1710398E3,4.100061E1,1.9975353E0,2.222146E3,2.3064154E2,6.27063E1,1.6013575E1,6.2643753E1,9.506555E2,3.0414365E2,4.7650757E3,5.4519535E1,1.1165201E3,1.987351E0,3.901326E1,8.392907E1,2.138217E3,1.8808998E2,4.2551567E1],"tree_param":{"num_deleted":"0","num_feature":"28","num_nodes":"29","size_leaf_vector":"1"}},{"base_weights":[-3.7831778E-3,8.9824E-2,-5.09876E-1,3.8569966E-1,3.8004868E-2,-3.4557056E-1,-7.962819E-1,-2.8847935E-2,4.6762994E-1,9.609028E-2,-1.9960873E-1,-4.6812463E-1,6.687455E-2,-1.5784051E0,-6.2383705E-1,9.719717E-3,-4.598218E-2,8.049814E-4,2.8879613E-2,3.7897192E-3,3.8162127E-2,-4.7468056E-5,-2.0036243E-2,-1.7150804E-2,-6.582785E-2,-3.984757E-3,6.6616684E-2,3.795293E-2,-8.1716776E-2,4.3417696E-2,-3.662187E-2],"categories":[],"categories_nodes":[],"categories_segments":[],"categories_sizes":[],"default_left":[0,0,0,0,0,0,0,0,0,0,0,0,0,0,0,0,0,0,0,0,0,0,0,0,0,0,0,0,0,0,0],"id":7,"left_children":[1,3,5,7,9,11,13,15,17,19,21,23,25,27,29,-1,-1,-1,-1,-1,-1,-1,-1,-1,-1,-1,-1,-1,-1,-1,-1],"loss_changes":[4.645111E2,1.2685391E2,7.174689E1,4.1895462E1,9.722059E1,4.928026E1,7.41626E1,4.0833656E1,5.1116226E1,7.6579544E1,5.5284878E1,7.92914E1,4.166559E1,1.4314163E1,7.4883514E1,0E0,0E0,0E0,0E0,0E0,0E0,0E0,0E0,0E0,0E0,0E0,0E0,0E0,0E0,0E0,0E0],"parents":[2147483647,0,0,1,1,2,2,3,3,4,4,5,5,6,6,7,7,8,8,9,9,10,10,11,11,12,12,13,13,14,14],"right_children":[2,4,6,8,10,12,14,16,18,20,22,24,26,28,30,-1,-1,-1,-1,-1,-1,-1,-1,-1,-1,-1,-1,-1,-1,-1,-1],"split_conditions":[1.2532094E0,4.4778362E-1,2.1615E2,4.422801E1,4.49445E3,1.6471E2,1.18276E3,4.7796687E-1,6.6206E2,4.31399E3,1.336291E0,1.4356E2,9.76592E6,-5.1753335E0,1.14279E3,9.719717E-3,-4.598218E-2,8.049814E-4,2.8879613E-2,3.7897192E-3,3.8162127E-2,-4.7468056E-5,-2.0036243E-2,-1.7150804E-2,-6.582785E-2,-3.984757E-3,6.6616684E-2,3.795293E-2,-8.1716776E-2,4.3417696E-2,-3.662187E-2],"split_indices":[24,24,10,25,10,11,10,13,11,10,13,10,20,2,11,0,0,0,0,0,0,0,0,0,0,0,0,0,0,0,0],"split_type":[0,0,0,0,0,0,0,0,0,0,0,0,0,0,0,0,0,0,0,0,0,0,0,0,0,0,0,0,0,0,0],"sum_hessian":[9.80324E3,8.273747E3,1.5294937E3,1.2321279E3,7.041619E3,9.733235E2,5.561701E2,2.0343637E2,1.0286915E3,5.6588823E3,1.3827366E3,7.5025696E2,2.2306654E2,9.9000496E1,4.5716962E2,1.6329483E2,4.0141544E1,2.0168274E2,8.270088E2,5.492893E3,1.659895E2,6.961224E2,6.8661414E2,6.550662E2,9.519076E1,2.0075183E2,2.231472E1,2.0197327E0,9.698077E1,3.054053E1,4.266291E2],"tree_param":{"num_deleted":"0","num_feature":"28","num_nodes":"31","size_leaf_vector":"1"}},{"base_weights":[-5.434595E-3,1.1964694E-1,-3.0985555E-1,3.8988534E-1,6.830687E-2,1.1195858E0,-3.3539477E-1,2.2320436E-1,6.361359E-1,1.4950953E-1,-2.0953506E-1,-5.355371E-1,1.2258589E0,-3.8803774E-1,2.0353037E-1,1.3361742E-2,-6.6342525E-2,3.296786E-2,-8.3878145E-2,5.4484815E-3,2.6975721E-2,4.04947E-3,-1.6637353E-2,-5.7282206E-2,2.8020471E-2,6.771382E-2,5.4330398E-5,-9.840846E-3,-3.0902162E-2,1.9126574E-2,-4.1397404E-2],"categories":[],"categories_nodes":[],"categories_segments":[],"categories_sizes":[],"default_left":[0,0,0,0,0,0,0,0,0,0,0,0,0,0,0,0,0,0,0,0,0,0,0,0,0,0,0,0,0,0,0],"id":8,"left_children":[1,3,5,7,9,11,13,15,17,19,21,23,25,27,29,-1,-1,-1,-1,-1,-1,-1,-1,-1,-1,-1,-1,-1,-1,-1,-1],"loss_changes":[3.7368356E2,9.6478516E1,1.047121E2,4.5429855E1,1.3193758E2,9.521065E0,7.9760925E1,4.564876E1,2.5155884E1,7.148227E1,4.7373856E1,3.140512E0,7.494644E0,1.1242865E2,4.6584743E1,0E0,0E0,0E0,0E0,0E0,0E0,0E0,0E0,0E0,0E0,0E0,0E0,0E0,0E0,0E0,0E0],"parents":[2147483647,0,0,1,1,2,2,3,3,4,4,5,5,6,6,7,7,8,8,9,9,10,10,11,11,12,12,13,13,14,14],"right_children":[2,4,6,8,10,12,14,16,18,20,22,24,26,28,30,-1,-1,-1,-1,-1,-1,-1,-1,-1,-1,-1,-1,-1,-1,-1,-1],"split_conditions":[1.0582592E0,4.3271205E-1,1.4252E0,1E0,4.49445E3,2.9730144E0,6.7121056E1,1.171216E5,1.8371073E0,3.29452E3,5.3793764E-1,1.0155914E8,6.005718E1,2.6053953E0,1.5465279E0,1.3361742E-2,-6.6342525E-2,3.296786E-2,-8.3878145E-2,5.4484815E-3,2.6975721E-2,4.04947E-3,-1.6637353E-2,-5.7282206E-2,2.8020471E-2,6.771382E-2,5.4330398E-5,-9.840846E-3,-3.0902162E-2,1.9126574E-2,-4.1397404E-2],"split_indices":[24,24,10,27,10,26,25,11,12,11,24,20,25,13,24,0,0,0,0,0,0,0,0,0,0,0,0,0,0,0,0],"split_type":[0,0,0,0,0,0,0,0,0,0,0,0,0,0,0,0,0,0,0,0,0,0,0,0,0,0,0,0,0,0,0],"sum_hessian":[9.811805E3,6.9548E3,2.857005E3,1.1092823E3,5.8455176E3,4.9396942E1,2.8076082E3,6.6265436E2,4.4662808E2,4.523834E3,1.3216833E3,2.7366376E0,4.6660305E1,2.5580173E3,2.4959082E2,6.451558E2,1.749854E1,4.4289798E2,3.7300997E0,4.099031E3,4.248033E2,3.937035E2,9.279799E2,1.7288504E0,1.0077872E0,4.2136547E1,4.5237565E0,1.3977875E3,1.1602297E3,2.1321838E2,3.637243E1],"tree_param":{"num_deleted":"0","num_feature":"28","num_nodes":"31","size_leaf_vector":"1"}},{"base_weights":[-1.0131556E-2,6.734018E-2,-4.2396548E-1,1.7536943E-1,-5.4945234E-2,-2.7310976E-1,-6.6369075E-1,2.2220527E-1,-1.376796E-1,2.816433E-2,-1.9851458E-1,-3.8328E-1,1.9926067E-1,-1.3047068E0,-4.793111E-1,2.6881505E-2,8.874382E-3,-2.8548227E-3,-3.886787E-2,-1.2256426E-2,4.7666384E-3,-1.5192503E-2,1.653074E-2,-1.2483436E-2,-6.356223E-2,9.1922126E-4,5.638227E-2,4.1709166E-2,-6.806827E-2,3.7380166E-2,-2.8573116E-2],"categories":[],"categories_nodes":[],"categories_segments":[],"categories_sizes":[],"default_left":[0,0,0,0,0,0,0,0,0,0,0,0,0,0,0,0,0,0,0,0,0,0,0,0,0,0,0,0,0,0,0],"id":9,"left_children":[1,3,5,7,9,11,13,15,17,19,21,23,25,27,29,-1,-1,-1,-1,-1,-1,-1,-1,-1,-1,-1,-1,-1,-1,-1,-1],"loss_changes":[3.1342252E2,1.0879166E2,5.5566437E1,6.413805E1,4.610116E1,4.9402878E1,6.966138E1,5.3556458E1,2.9319195E1,4.4954357E1,7.905206E1,9.090931E1,3.019075E1,1.716417E1,5.2823174E1,0E0,0E0,0E0,0E0,0E0,0E0,0E0,0E0,0E0,0E0,0E0,0E0,0E0,0E0,0E0,0E0],"parents":[2147483647,0,0,1,1,2,2,3,3,4,4,5,5,6,6,7,7,8,8,9,9,10,10,11,11,12,12,13,13,14,14],"right_children":[2,4,6,8,10,12,14,16,18,20,22,24,26,28,30,-1,-1,-1,-1,-1,-1,-1,-1,-1,-1,-1,-1,-1,-1,-1,-1],"split_conditions":[1.2532094E0,1.3316187E0,1.9191E2,4.071E2,1.4819804E0,1.6471E2,1.18276E3,3.6122584E-1,3.4521713E0,3.238E0,5.874135E1,1.4356E2,7.2617265E6,-5.1753335E0,1.14279E3,2.6881505E-2,8.874382E-3,-2.8548227E-3,-3.886787E-2,-1.2256426E-2,4.7666384E-3,-1.5192503E-2,1.653074E-2,-1.2483436E-2,-6.356223E-2,9.1922126E-4,5.638227E-2,4.1709166E-2,-6.806827E-2,3.7380166E-2,-2.8573116E-2],"split_indices":[24,12,11,6,13,11,10,24,13,10,25,10,20,2,11,0,0,0,0,0,0,0,0,0,0,0,0,0,0,0,0],"split_type":[0,0,0,0,0,0,0,0,0,0,0,0,0,0,0,0,0,0,0,0,0,0,0,0,0,0,0,0,0,0,0],"sum_hessian":[9.774101E3,8.233573E3,1.5405278E3,4.3713794E3,3.8621936E3,9.468364E2,5.936914E2,3.8027354E3,5.68644E2,2.4466677E3,1.4155258E3,7.679234E2,1.7891301E2,1.3126343E2,4.62428E2,4.708037E2,3.3319316E3,5.059912E2,6.2652786E1,4.8217197E2,1.9644958E3,1.1808716E3,2.3465411E2,6.6860077E2,9.932266E1,1.5059294E2,2.8320068E1,3.0332596E0,1.2823016E2,3.1808762E1,4.3061923E2],"tree_param":{"num_deleted":"0","num_feature":"28","num_nodes":"31","size_leaf_vector":"1"}},{"base_weights":[-1.8734564E-3,1.2574282E-1,-2.3577228E-1,-2.7924731E-2,2.0266424E-1,1.0018353E0,-2.5608182E-1,6.734845E-2,-3.5640645E-1,2.608651E-1,-1.5492329E-1,1.071714E0,-5.737207E-2,-1.4051498E-1,-4.110938E-1,-2.9752353E-2,5.132144E-3,-1.4826888E-2,-8.194994E-2,-2.1766694E-2,1.414852E-2,9.987239E-3,-2.6630122E-2,-6.444042E-3,6.0107708E-2,-8.009161E-3,7.089626E-2,-6.421821E-2,-1.8341038E-2],"categories":[],"categories_nodes":[],"categories_segments":[],"categories_sizes":[],"default_left":[0,0,0,0,0,0,0,0,0,0,0,0,0,0,0,0,0,0,0,0,0,0,0,0,0,0,0,0,0],"id":10,"left_children":[1,3,5,7,9,11,13,15,17,19,21,23,-1,25,27,-1,-1,-1,-1,-1,-1,-1,-1,-1,-1,-1,-1,-1,-1],"loss_changes":[2.9099377E2,7.4561424E1,8.675577E1,6.589948E1,8.75226E1,9.605061E0,6.061032E1,3.8227867E1,3.5866287E1,5.5763947E1,7.900563E1,8.694103E0,0E0,5.974239E1,5.543167E1,0E0,0E0,0E0,0E0,0E0,0E0,0E0,0E0,0E0,0E0,0E0,0E0,0E0,0E0],"parents":[2147483647,0,0,1,1,2,2,3,3,4,4,5,5,6,6,7,7,8,8,9,9,10,10,11,11,13,13,14,14],"right_children":[2,4,6,8,10,12,14,16,18,20,22,24,-1,26,28,-1,-1,-1,-1,-1,-1,-1,-1,-1,-1,-1,-1,-1,-1],"split_conditions":[9.867824E-1,4.7229324E1,1.4252E0,1.0982678E0,3.959E2,1.29E-2,1.2676096E0,2.1001E0,1.129319E5,1.9825E0,5.614008E-1,3.1901364E0,-5.737207E-2,8.7383585E0,1.8898E0,-2.9752353E-2,5.132144E-3,-1.4826888E-2,-8.194994E-2,-2.1766694E-2,1.414852E-2,9.987239E-3,-2.6630122E-2,-6.444042E-3,6.0107708E-2,-8.009161E-3,7.089626E-2,-6.421821E-2,-1.8341038E-2],"split_indices":[24,25,10,13,6,5,24,10,10,11,24,26,0,12,10,0,0,0,0,0,0,0,0,0,0,0,0,0,0],"split_type":[0,0,0,0,0,0,0,0,0,0,0,0,0,0,0,0,0,0,0,0,0,0,0,0,0,0,0,0,0],"sum_hessian":[9.7467705E3,6.306421E3,3.44035E3,2.1039504E3,4.20247E3,5.4765472E1,3.3855845E3,1.6315337E3,4.724168E2,3.6144534E3,5.880169E2,5.3526543E1,1.2389287E0,1.9406605E3,1.444924E3,8.1733E1,1.5498008E3,4.525251E2,1.989171E1,1.10657074E2,3.5037964E3,3.0348947E2,2.8452747E2,5.24672E0,4.8279823E1,1.9173599E3,2.3300732E1,6.836853E1,1.3765554E3],"tree_param":{"num_deleted":"0","num_feature":"28","num_nodes":"29","size_leaf_vector":"1"}},{"base_weights":[-1.5515815E-3,7.000884E-2,-3.793146E-1,-7.833646E-2,1.4288591E-1,-2.1287633E-1,-6.6730857E-1,-5.5341866E-2,-1.7132366E0,3.925908E-1,8.72942E-2,-3.304269E-1,2.321004E-1,-1.3347423E0,-4.9912354E-1,2.177594E-3,-1.3793132E-2,2.4259347E-2,-9.342345E-2,-4.213613E-2,2.1594688E-2,6.033719E-3,-1.3519272E-2,-1.0796228E-2,-5.4327827E-2,4.1352427E-3,6.482845E-2,4.0701102E-2,-7.003196E-2,4.6324402E-2,-2.7929632E-2],"categories":[],"categories_nodes":[],"categories_segments":[],"categories_sizes":[],"default_left":[0,0,0,0,0,0,0,0,0,0,0,0,0,0,0,0,0,0,0,0,0,0,0,0,0,0,0,0,0,0,0],"id":11,"left_children":[1,3,5,7,9,11,13,15,17,19,21,23,25,27,29,-1,-1,-1,-1,-1,-1,-1,-1,-1,-1,-1,-1,-1,-1,-1,-1],"loss_changes":[2.650049E2,8.911322E1,7.469417E1,1.0200032E2,7.6689964E1,5.190842E1,6.3469315E1,5.843829E1,1.3749542E1,4.921376E1,5.4021843E1,6.766487E1,3.2915684E1,1.7338623E1,3.934269E1,0E0,0E0,0E0,0E0,0E0,0E0,0E0,0E0,0E0,0E0,0E0,0E0,0E0,0E0,0E0,0E0],"parents":[2147483647,0,0,1,1,2,2,3,3,4,4,5,5,6,6,7,7,8,8,9,9,10,10,11,11,12,12,13,13,14,14],"right_children":[2,4,6,8,10,12,14,16,18,20,22,24,26,28,30,-1,-1,-1,-1,-1,-1,-1,-1,-1,-1,-1,-1,-1,-1,-1,-1],"split_conditions":[1.2459444E0,4.6377506E1,1.9581E2,3.1623545E0,1.3776491E0,1.6471E2,1.18276E3,1.0631868E0,5E-4,2.1488E0,1.958E2,1.4356E2,9.76592E6,-5.1753335E0,1.10501E3,2.177594E-3,-1.3793132E-2,2.4259347E-2,-9.342345E-2,-4.213613E-2,2.1594688E-2,6.033719E-3,-1.3519272E-2,-1.0796228E-2,-5.4327827E-2,4.1352427E-3,6.482845E-2,4.0701102E-2,-7.003196E-2,4.6324402E-2,-2.7929632E-2],"split_indices":[24,25,11,13,26,11,10,13,4,10,3,10,20,2,11,0,0,0,0,0,0,0,0,0,0,0,0,0,0,0,0],"split_type":[0,0,0,0,0,0,0,0,0,0,0,0,0,0,0,0,0,0,0,0,0,0,0,0,0,0,0,0,0,0,0],"sum_hessian":[9.801076E3,8.240816E3,1.5602599E3,2.7147393E3,5.5260767E3,9.8990857E2,5.703514E2,2.678106E3,3.663326E1,1.005144E3,4.5209326E3,7.832523E2,2.0665623E2,1.1339863E2,4.569528E2,1.8494932E3,8.286128E2,2.275913E0,3.4357346E1,3.0363443E1,9.747806E2,4.13564E3,3.8529285E2,6.813583E2,1.0189401E2,1.821672E2,2.4489027E1,3.0363493E0,1.10362274E2,1.771456E1,4.3923822E2],"tree_param":{"num_deleted":"0","num_feature":"28","num_nodes":"31","size_leaf_vector":"1"}},{"base_weights":[4.1808123E-3,1.2468206E-1,-1.7789963E-1,-4.259484E-2,2.0459725E-1,1.0963745E0,-1.9737001E-1,4.441818E-2,-3.414515E-1,5.055036E-1,1.64801E-1,3.9031535E-2,1.2214801E0,-2.5396538E-1,1.7787513E-1,-3.0129207E-2,3.979809E-3,-1.3840145E-2,-7.926949E-2,4.0806457E-2,1.6690336E-2,1.2389813E-2,-3.7554756E-3,7.472437E-2,-6.8770744E-2,8.1872724E-2,3.998911E-2,-7.5739548E-3,-3.0407188E-2,-2.1815035E-2,1.6017674E-2],"categories":[],"categories_nodes":[],"categories_segments":[],"categories_sizes":[],"default_left":[0,0,0,0,0,0,0,0,0,0,0,0,0,0,0,0,0,0,0,0,0,0,0,0,0,0,0,0,0,0,0],"id":12,"left_children":[1,3,5,7,9,11,13,15,17,19,21,23,25,27,29,-1,-1,-1,-1,-1,-1,-1,-1,-1,-1,-1,-1,-1,-1,-1,-1],"loss_changes":[2.1460558E2,7.868985E1,9.686004E1,4.9518684E1,4.7614532E1,7.7270203E0,8.15423E1,3.362549E1,3.4091972E1,2.4515495E1,7.0094246E1,1.6983948E1,7.903778E0,1.20961975E2,4.420062E1,0E0,0E0,0E0,0E0,0E0,0E0,0E0,0E0,0E0,0E0,0E0,0E0,0E0,0E0,0E0,0E0],"parents":[2147483647,0,0,1,1,2,2,3,3,4,4,5,5,6,6,7,7,8,8,9,9,10,10,11,11,12,12,13,13,14,14],"right_children":[2,4,6,8,10,12,14,16,18,20,22,24,26,28,30,-1,-1,-1,-1,-1,-1,-1,-1,-1,-1,-1,-1,-1,-1,-1,-1],"split_conditions":[9.454165E-1,4.6981064E1,1.4252E0,1.0516354E0,1.0155456E0,2.9730144E0,6.45156E1,2.1001E0,1.09548E5,-9.396183E-2,4.63312E3,2.6258311E0,4.84008E0,3.7305024E0,5.162848E5,-3.0129207E-2,3.979809E-3,-1.3840145E-2,-7.926949E-2,4.0806457E-2,1.6690336E-2,1.2389813E-2,-3.7554756E-3,7.472437E-2,-6.8770744E-2,8.1872724E-2,3.998911E-2,-7.5739548E-3,-3.0407188E-2,-2.1815035E-2,1.6017674E-2],"split_indices":[24,25,10,13,26,26,25,10,11,21,10,26,26,13,20,0,0,0,0,0,0,0,0,0,0,0,0,0,0,0,0],"split_type":[0,0,0,0,0,0,0,0,0,0,0,0,0,0,0,0,0,0,0,0,0,0,0,0,0,0,0,0,0,0,0],"sum_hessian":[9.779054E3,5.8847974E3,3.8942568E3,1.9026578E3,3.9821394E3,5.7774727E1,3.836482E3,1.4742709E3,4.2838705E2,4.637724E2,3.518367E3,6.251502E0,5.1523224E1,3.3339683E3,5.0251382E2,7.519198E1,1.3990789E3,4.083854E2,2.0001633E1,1.6375734E2,3.0001508E2,2.61403E3,9.04337E2,3.0531962E0,3.198306E0,2.4486277E1,2.7036947E1,2.5868547E3,7.471135E2,9.423526E1,4.0827856E2],"tree_param":{"num_deleted":"0","num_feature":"28","num_nodes":"31","size_leaf_vector":"1"}},{"base_weights":[1.2733738E-2,1.118698E-1,-2.1376258E-1,-1.1090377E-1,1.6532715E-1,-5.3231314E-2,-3.850208E-1,-6.117742E-2,-1.1503327E0,5.0562304E-1,1.3608183E-1,-1.6053909E-1,7.2854227E-1,-6.50213E-1,-2.3385058E-1,1.9589135E-2,-5.7084686E-3,-9.1079794E-2,-4.2377032E-2,5.6502324E-2,2.1458711E-2,9.476877E-3,-2.5108836E-3,4.7845688E-2,-1.02501E-2,3.8135927E-2,-6.537469E-2,-4.1854795E-2,-1.6739232E-3,1.9884909E-2,-1.7339902E-2],"categories":[],"categories_nodes":[],"categories_segments":[],"categories_sizes":[],"default_left":[0,0,0,0,0,0,0,0,0,0,0,0,0,0,0,0,0,0,0,0,0,0,0,0,0,0,0,0,0,0,0],"id":13,"left_children":[1,3,5,7,9,11,13,15,17,19,21,23,25,27,29,-1,-1,-1,-1,-1,-1,-1,-1,-1,-1,-1,-1,-1,-1,-1,-1],"loss_changes":[2.2108685E2,8.157686E1,8.239105E1,6.8464386E1,5.4902298E1,1.3001529E2,5.798497E1,3.0444248E1,1.0749199E1,2.0364662E1,5.067797E1,6.788534E1,1.4014252E1,6.059323E1,6.613612E1,0E0,0E0,0E0,0E0,0E0,0E0,0E0,0E0,0E0,0E0,0E0,0E0,0E0,0E0,0E0,0E0],"parents":[2147483647,0,0,1,1,2,2,3,3,4,4,5,5,6,6,7,7,8,8,9,9,10,10,11,11,12,12,13,13,14,14],"right_children":[2,4,6,8,10,12,14,16,18,20,22,24,26,28,30,-1,-1,-1,-1,-1,-1,-1,-1,-1,-1,-1,-1,-1,-1,-1,-1],"split_conditions":[1.0366324E0,4.2435905E1,1.7818E2,1.6670244E0,8.9566284E-1,1.6104E2,1.18276E3,-3.3040413E-1,2.7419356E-1,-3.8918296E-1,6.64081E4,1.4252E0,7.217267E-1,1.1194776E6,1.90122E3,1.9589135E-2,-5.7084686E-3,-9.1079794E-2,-4.2377032E-2,5.6502324E-2,2.1458711E-2,9.476877E-3,-2.5108836E-3,4.7845688E-2,-1.02501E-2,3.8135927E-2,-6.537469E-2,-4.1854795E-2,-1.6739232E-3,1.9884909E-2,-1.7339902E-2],"split_indices":[24,25,11,13,26,11,10,1,7,21,11,10,17,20,11,0,0,0,0,0,0,0,0,0,0,0,0,0,0,0,0],"split_type":[0,0,0,0,0,0,0,0,0,0,0,0,0,0,0,0,0,0,0,0,0,0,0,0,0,0,0,0,0,0,0],"sum_hessian":[9.844168E3,6.8475454E3,2.9966228E3,1.3249573E3,5.522588E3,1.5474292E3,1.4491935E3,1.2654757E3,5.948158E1,4.3576593E2,5.0868223E3,1.3613607E3,1.8606842E2,5.249654E2,9.242281E2,1.3187263E2,1.133603E3,1.6931019E1,4.255056E1,4.602865E1,3.8973727E2,3.952653E3,1.1341688E3,5.1309746E1,1.310051E3,1.8361176E2,2.4566617E0,4.0260938E2,1.22356026E2,1.3983208E2,7.8439606E2],"tree_param":{"num_deleted":"0","num_feature":"28","num_nodes":"31","size_leaf_vector":"1"}},{"base_weights":[8.61773E-3,6.649905E-2,-3.501124E-1,2.3018885E-1,2.3197636E-3,-2.2786396E-2,-4.8195034E-1,3.206976E-1,-6.3115455E-2,9.532045E-1,-6.6011874E-3,1.4739251E-1,-7.740922E-1,-7.004106E-1,-2.1291414E-1,7.991322E-3,2.2311425E-2,2.2427537E-2,-9.848706E-3,6.246568E-2,4.805853E-3,-1.8306669E-2,8.8291004E-4,1.5620253E-2,-1.5425272E-2,-5.2489948E-2,9.497739E-3,-3.8672805E-2,3.120764E-2,8.698641E-4,-3.138708E-2],"categories":[],"categories_nodes":[],"categories_segments":[],"categories_sizes":[],"default_left":[0,0,0,0,0,0,0,0,0,0,0,0,0,0,0,0,0,0,0,0,0,0,0,0,0,0,0,0,0,0,0],"id":14,"left_children":[1,3,5,7,9,11,13,15,17,19,21,23,25,27,29,-1,-1,-1,-1,-1,-1,-1,-1,-1,-1,-1,-1,-1,-1,-1,-1],"loss_changes":[2.0341307E2,8.861692E1,5.87247E1,6.3089775E1,5.141663E1,5.0214474E1,5.6874496E1,3.659581E1,3.8517593E1,1.4177719E1,5.2384033E1,2.419389E1,1.9476475E1,5.2246124E1,4.168713E1,0E0,0E0,0E0,0E0,0E0,0E0,0E0,0E0,0E0,0E0,0E0,0E0,0E0,0E0,0E0,0E0],"parents":[2147483647,0,0,1,1,2,2,3,3,4,4,5,5,6,6,7,7,8,8,9,9,10,10,11,11,12,12,13,13,14,14],"right_children":[2,4,6,8,10,12,14,16,18,20,22,24,26,28,30,-1,-1,-1,-1,-1,-1,-1,-1,-1,-1,-1,-1,-1,-1,-1,-1],"split_conditions":[1.2901162E0,6.745362E-1,-2.9376704E-1,9.883697E0,1.3721E0,2.8634E0,5.957456E5,6.6206E2,9.599125E-1,4.203152E0,2.1007E0,3.7124382E1,1.8263613E1,2.5010874E0,1.5670432E0,7.991322E-3,2.2311425E-2,2.2427537E-2,-9.848706E-3,6.246568E-2,4.805853E-3,-1.8306669E-2,8.8291004E-4,1.5620253E-2,-1.5425272E-2,-5.2489948E-2,9.497739E-3,-3.8672805E-2,3.120764E-2,8.698641E-4,-3.138708E-2],"split_indices":[24,12,1,0,11,13,20,11,13,12,11,25,26,24,24,0,0,0,0,0,0,0,0,0,0,0,0,0,0,0,0],"split_type":[0,0,0,0,0,0,0,0,0,0,0,0,0,0,0,0,0,0,0,0,0,0,0,0,0,0,0,0,0,0,0],"sum_hessian":[9.794415E3,8.434344E3,1.3600718E3,2.374803E3,6.0595405E3,3.9084885E2,9.692229E2,1.814718E3,5.6008484E2,5.5336807E1,6.004204E3,3.1932263E2,7.152622E1,5.3400323E2,4.3521967E2,7.963926E2,1.01832544E3,1.15653984E2,4.4443088E2,4.078772E1,1.4549087E1,3.7863376E2,5.6255703E3,2.3469087E2,8.463175E1,5.555045E1,1.5975768E1,5.0648807E2,2.7515162E1,2.8046442E2,1.5475526E2],"tree_param":{"num_deleted":"0","num_feature":"28","num_nodes":"31","size_leaf_vector":"1"}},{"base_weights":[9.984323E-4,6.021091E-2,-3.2466877E-1,-1.8125476E-1,9.432438E-2,3.8279343E-2,-3.9133382E-1,-1.2627295E-1,-1.6923875E0,3.0324945E-1,5.2090626E-2,3.2121354E-1,-7.2376496E-1,-5.6737626E-1,-1.2233681E-1,-9.769523E-3,1.6528314E-2,-3.23988E-3,-8.870415E-2,-7.103828E-3,2.0451255E-2,4.6457346E-3,-1.6147E-2,-1.9411724E-2,2.4021057E-2,-6.538291E-2,4.4331206E-3,-3.0930167E-2,2.6215041E-2,3.6457896E-3,-2.5172025E-2],"categories":[],"categories_nodes":[],"categories_segments":[],"categories_sizes":[],"default_left":[0,0,0,0,0,0,0,0,0,0,0,0,0,0,0,0,0,0,0,0,0,0,0,0,0,0,0,0,0,0,0],"id":15,"left_children":[1,3,5,7,9,11,13,15,17,19,21,23,25,27,29,-1,-1,-1,-1,-1,-1,-1,-1,-1,-1,-1,-1,-1,-1,-1,-1],"loss_changes":[1.8830013E2,6.8077255E1,3.636418E1,8.479397E1,6.3870903E1,5.0690697E1,6.003607E1,3.1270878E1,4.6504517E0,5.739859E1,9.226004E1,1.9541035E1,3.0319908E1,4.3212418E1,3.749168E1,0E0,0E0,0E0,0E0,0E0,0E0,0E0,0E0,0E0,0E0,0E0,0E0,0E0,0E0,0E0,0E0],"parents":[2147483647,0,0,1,1,2,2,3,3,4,4,5,5,6,6,7,7,8,8,9,9,10,10,11,11,12,12,13,13,14,14],"right_children":[2,4,6,8,10,12,14,16,18,20,22,24,26,28,30,-1,-1,-1,-1,-1,-1,-1,-1,-1,-1,-1,-1,-1,-1,-1,-1],"split_conditions":[1.2532094E0,3.817591E1,-4.826939E-1,2.14653E0,4.5796844E-1,2.189036E0,5.957456E5,1.1577891E0,6E-4,6.6206E2,9.308E4,-6.95066E-1,2.320105E0,2.5010874E0,1.5670432E0,-9.769523E-3,1.6528314E-2,-3.23988E-3,-8.870415E-2,-7.103828E-3,2.0451255E-2,4.6457346E-3,-1.6147E-2,-1.9411724E-2,2.4021057E-2,-6.538291E-2,4.4331206E-3,-3.0930167E-2,2.6215041E-2,3.6457896E-3,-2.5172025E-2],"split_indices":[24,25,1,13,24,13,20,24,4,11,10,21,24,24,24,0,0,0,0,0,0,0,0,0,0,0,0,0,0,0,0],"split_type":[0,0,0,0,0,0,0,0,0,0,0,0,0,0,0,0,0,0,0,0,0,0,0,0,0,0,0,0,0,0,0],"sum_hessian":[9.762787E3,8.261504E3,1.5012832E3,1.0221435E3,7.2393604E3,2.3302713E2,1.268256E3,9.8730444E2,3.483902E1,1.2162996E3,6.023061E3,1.7035548E2,6.267164E1,7.659067E2,5.0234933E2,8.58057E2,1.2924745E2,1.750838E0,3.308818E1,2.333845E2,9.8291504E2,5.432461E3,5.9059985E2,3.0959171E1,1.3939632E2,3.6109848E1,2.6561789E1,7.319913E2,3.3915443E1,3.3270282E2,1.696465E2],"tree_param":{"num_deleted":"0","num_feature":"28","num_nodes":"31","size_leaf_vector":"1"}},{"base_weights":[9.134338E-3,1.1389329E-1,-1.5488735E-1,-1.0809967E-1,1.636005E-1,9.4653326E-1,-1.7204018E-1,-6.9299094E-2,-1.0860255E0,2.1081646E-1,-6.571245E-2,1.0228232E0,-3.4545388E-2,-2.14632E-1,1.9917569E-1,-7.906076E-3,1.0453227E-2,-7.321858E-2,-1.2997557E-2,2.7875084E-2,8.353046E-3,-4.3496275E-3,7.0884734E-2,5.5443533E-2,-1.4482182E-3,-6.300231E-2,-9.186112E-3,1.49785895E-2,-3.3567946E-2],"categories":[],"categories_nodes":[],"categories_segments":[],"categories_sizes":[],"default_left":[0,0,0,0,0,0,0,0,0,0,0,0,0,0,0,0,0,0,0,0,0,0,0,0,0,0,0,0,0],"id":16,"left_children":[1,3,5,7,9,11,13,15,17,19,21,23,-1,25,27,-1,-1,-1,-1,-1,-1,-1,-1,-1,-1,-1,-1,-1,-1],"loss_changes":[1.6766713E2,6.5725006E1,7.201508E1,4.1283615E1,5.2695236E1,8.011326E0,5.926581E1,2.5981052E1,1.2598736E1,6.111676E1,2.6372782E1,5.125168E0,0E0,1.0836412E2,3.3941704E1,0E0,0E0,0E0,0E0,0E0,0E0,0E0,0E0,0E0,0E0,0E0,0E0,0E0,0E0],"parents":[2147483647,0,0,1,1,2,2,3,3,4,4,5,5,6,6,7,7,8,8,9,9,10,10,11,11,13,13,14,14],"right_children":[2,4,6,8,10,12,14,16,18,20,22,24,-1,26,28,-1,-1,-1,-1,-1,-1,-1,-1,-1,-1,-1,-1,-1,-1],"split_conditions":[9.531587E-1,4.228428E1,1.4252E0,1.6670244E0,9.883697E0,7.889908E-1,6.679805E1,4.1144342E0,6.195652E-1,3.792901E-1,2.8023033E0,6.173073E1,-3.4545388E-2,1.8898E0,1.5465279E0,-7.906076E-3,1.0453227E-2,-7.321858E-2,-1.2997557E-2,2.7875084E-2,8.353046E-3,-4.3496275E-3,7.0884734E-2,5.5443533E-2,-1.4482182E-3,-6.300231E-2,-9.186112E-3,1.49785895E-2,-3.3567946E-2],"split_indices":[24,25,10,13,0,7,25,26,7,24,12,25,0,10,24,0,0,0,0,0,0,0,0,0,0,0,0,0,0],"split_type":[0,0,0,0,0,0,0,0,0,0,0,0,0,0,0,0,0,0,0,0,0,0,0,0,0,0,0,0,0],"sum_hessian":[9.755854E3,5.9536343E3,3.802219E3,1.0889952E3,4.864639E3,5.7474483E1,3.7447444E3,1.0484667E3,4.0528522E1,4.0340928E3,8.305462E2,5.5274544E1,2.199942E0,3.359689E3,3.8505545E2,7.9516974E2,2.5329697E2,2.726729E1,1.3261231E1,4.5077292E2,3.58332E3,8.197282E2,1.0817986E1,5.10443E1,4.2302403E0,9.534122E1,3.264348E3,3.4582803E2,3.9227417E1],"tree_param":{"num_deleted":"0","num_feature":"28","num_nodes":"29","size_leaf_vector":"1"}},{"base_weights":[-1.5980935E-2,4.0844433E-2,-3.138223E-1,9.208929E-2,-1.1150274E-1,-1.6359416E-1,-5.7898146E-1,7.5249866E-2,6.623876E-1,8.614291E-2,-3.0876383E-1,-2.6733682E-1,2.2953911E-1,-1.2848914E0,-4.2622575E-1,1.1904563E-2,2.8513305E-4,5.8657218E-2,1.0776056E-2,1.0120862E-3,5.1996946E-2,-9.766884E-3,-3.7270766E-2,-8.17494E-3,-4.79667E-2,-2.7474386E-3,3.263063E-2,-8.179768E-3,-6.657829E-2,-1.756537E-2,-7.475455E-2],"categories":[],"categories_nodes":[],"categories_segments":[],"categories_sizes":[],"default_left":[0,0,0,0,0,0,0,0,0,0,0,0,0,0,0,0,0,0,0,0,0,0,0,0,0,0,0,0,0,0,0],"id":17,"left_children":[1,3,5,7,9,11,13,15,17,19,21,23,25,27,29,-1,-1,-1,-1,-1,-1,-1,-1,-1,-1,-1,-1,-1,-1,-1,-1],"loss_changes":[1.645509E2,6.3753704E1,6.195659E1,5.8630478E1,8.016942E1,4.067314E1,6.0158722E1,6.7227E1,3.9716286E1,6.456847E1,5.0818993E1,5.648819E1,2.512387E1,4.997757E0,3.665615E1,0E0,0E0,0E0,0E0,0E0,0E0,0E0,0E0,0E0,0E0,0E0,0E0,0E0,0E0,0E0,0E0],"parents":[2147483647,0,0,1,1,2,2,3,3,4,4,5,5,6,6,7,7,8,8,9,9,10,10,11,11,12,12,13,13,14,14],"right_children":[2,4,6,8,10,12,14,16,18,20,22,24,26,28,30,-1,-1,-1,-1,-1,-1,-1,-1,-1,-1,-1,-1,-1,-1,-1,-1],"split_conditions":[1.2459444E0,4.49445E3,1.9581E2,4.31399E3,5.4300946E-1,1.6471E2,1.09353E3,6.812894E-1,1.3735497E0,1.201465E5,1.074114E5,1.4356E2,5.5530334E1,1.2532094E0,6.24017E4,1.1904563E-2,2.8513305E-4,5.8657218E-2,1.0776056E-2,1.0120862E-3,5.1996946E-2,-9.766884E-3,-3.7270766E-2,-8.17494E-3,-4.79667E-2,-2.7474386E-3,3.263063E-2,-8.179768E-3,-6.657829E-2,-1.756537E-2,-7.475455E-2],"split_indices":[24,10,11,10,24,11,10,24,13,10,11,10,25,24,11,0,0,0,0,0,0,0,0,0,0,0,0,0,0,0,0],"split_type":[0,0,0,0,0,0,0,0,0,0,0,0,0,0,0,0,0,0,0,0,0,0,0,0,0,0,0,0,0,0,0],"sum_hessian":[9.720632E3,8.1638984E3,1.5567332E3,6.1093115E3,2.054587E3,9.947604E2,5.6197284E2,5.935193E3,1.7411877E2,1.0265746E3,1.0280125E3,7.873177E2,2.0744269E2,9.865591E1,4.633169E2,1.7755068E3,4.159686E3,8.0492584E1,9.362619E1,9.611841E2,6.5390434E1,8.1718494E2,2.1082755E2,6.8566595E2,1.016517E2,1.2455686E2,8.2885826E1,4.1225214E0,9.453338E1,4.342111E2,2.910583E1],"tree_param":{"num_deleted":"0","num_feature":"28","num_nodes":"31","size_leaf_vector":"1"}},{"base_weights":[4.5124916E-3,5.4521397E-2,-3.0946356E-1,2.049305E-1,4.2356285E-3,-1.771726E-1,-5.3012305E-1,-1.2315544E-1,2.844438E-1,4.3601234E-2,-3.9444146E-1,-2.85647E-1,2.7775645E-1,-1.1696713E0,-3.518706E-1,1.5307982E-3,-7.040569E-2,3.067002E-2,8.618843E-3,-1.13401264E-4,1.0855036E-2,-6.4144306E-2,-1.4969488E-2,-8.535014E-3,-5.6338895E-2,8.5614406E-4,3.5666604E-2,-6.683727E-2,-7.820813E-3,4.8303675E-2,-2.4053458E-2],"categories":[],"categories_nodes":[],"categories_segments":[],"categories_sizes":[],"default_left":[0,0,0,0,0,0,0,0,0,0,0,0,0,0,0,0,0,0,0,0,0,0,0,0,0,0,0,0,0,0,0],"id":18,"left_children":[1,3,5,7,9,11,13,15,17,19,21,23,25,27,29,-1,-1,-1,-1,-1,-1,-1,-1,-1,-1,-1,-1,-1,-1,-1,-1],"loss_changes":[1.5332016E2,6.3705635E1,3.90688E1,5.5089973E1,9.910287E1,4.154389E1,5.6856354E1,8.1527725E1,6.252922E1,4.573726E1,4.753842E1,6.545328E1,1.8411049E1,1.8254211E1,6.7601654E1,0E0,0E0,0E0,0E0,0E0,0E0,0E0,0E0,0E0,0E0,0E0,0E0,0E0,0E0,0E0,0E0],"parents":[2147483647,0,0,1,1,2,2,3,3,4,4,5,5,6,6,7,7,8,8,9,9,10,10,11,11,12,12,13,13,14,14],"right_children":[2,4,6,8,10,12,14,16,18,20,22,24,26,28,30,-1,-1,-1,-1,-1,-1,-1,-1,-1,-1,-1,-1,-1,-1,-1,-1],"split_conditions":[1.2901162E0,5.526801E-1,1.9191E2,6.6206E2,8.6789E4,1.6471E2,1.18276E3,6.6488E2,9.4185E2,6.1194313E1,8.8765E4,1.4356E2,5.5530334E1,1E0,1.14279E3,1.5307982E-3,-7.040569E-2,3.067002E-2,8.618843E-3,-1.13401264E-4,1.0855036E-2,-6.4144306E-2,-1.4969488E-2,-8.535014E-3,-5.6338895E-2,8.5614406E-4,3.5666604E-2,-6.683727E-2,-7.820813E-3,4.8303675E-2,-2.4053458E-2],"split_indices":[24,24,11,11,11,11,10,10,10,25,11,10,25,23,11,0,0,0,0,0,0,0,0,0,0,0,0,0,0,0,0],"split_type":[0,0,0,0,0,0,0,0,0,0,0,0,0,0,0,0,0,0,0,0,0,0,0,0,0,0,0,0,0,0,0],"sum_hessian":[9.762548E3,8.421957E3,1.3405907E3,2.1094207E3,6.312536E3,8.39245E2,5.013457E2,4.1139267E2,1.698028E3,5.7460576E3,5.6647845E2,6.779621E2,1.6128285E2,1.0806384E2,3.9328186E2,3.6829486E2,4.3097794E1,4.303431E2,1.2676848E3,4.545357E3,1.2007007E3,5.3540504E1,5.129379E2,5.975108E2,8.04513E1,1.0155508E2,5.972778E1,9.249346E1,1.5570383E1,3.4533264E1,3.587486E2],"tree_param":{"num_deleted":"0","num_feature":"28","num_nodes":"31","size_leaf_vector":"1"}},{"base_weights":[5.220435E-5,1.0544884E-1,-1.531005E-1,-3.3078316E-1,1.2841322E-1,-2.4754064E-2,-2.5935513E-1,-5.972274E-1,4.912894E-1,2.0749283E-1,-2.494908E-2,-3.3931136E-2,1.7971818E0,-3.8245603E-1,1.356912E-1,-4.8024096E-2,-2.0201334E-3,3.0355427E-2,-8.055216E-2,1.5388319E-2,4.6487027E-3,6.7701745E-3,-1.1033625E-2,-7.4213755E-4,-7.853286E-2,1.9720778E-2,9.8481864E-2,-1.7381491E-2,-6.9330834E-2,-5.375872E-2,9.678549E-3],"categories":[],"categories_nodes":[],"categories_segments":[],"categories_sizes":[],"default_left":[0,0,0,0,0,0,0,0,0,0,0,0,0,0,0,0,0,0,0,0,0,0,0,0,0,0,0,0,0,0,0],"id":19,"left_children":[1,3,5,7,9,11,13,15,17,19,21,23,25,27,29,-1,-1,-1,-1,-1,-1,-1,-1,-1,-1,-1,-1,-1,-1,-1,-1],"loss_changes":[1.5685977E2,5.7707634E1,5.4016113E1,6.340885E1,6.633376E1,3.0077894E1,1.0543851E2,4.4069817E1,1.8285702E1,4.140927E1,5.8454346E1,5.2403194E1,1.404232E0,5.730748E1,3.6343227E1,0E0,0E0,0E0,0E0,0E0,0E0,0E0,0E0,0E0,0E0,0E0,0E0,0E0,0E0,0E0,0E0],"parents":[2147483647,0,0,1,1,2,2,3,3,4,4,5,5,6,6,7,7,8,8,9,9,10,10,11,11,12,12,13,13,14,14],"right_children":[2,4,6,8,10,12,14,16,18,20,22,24,26,28,30,-1,-1,-1,-1,-1,-1,-1,-1,-1,-1,-1,-1,-1,-1,-1,-1],"split_conditions":[9.3357533E-1,2.1007E0,2.2077363E0,5.676523E1,4.49445E3,1.085597E5,6.45156E1,7.8922707E-1,2.1753E0,7.1431506E-1,5.3793764E-1,9.0155E4,4.875E2,6.5081E4,3.4385889E0,-4.8024096E-2,-2.0201334E-3,3.0355427E-2,-8.055216E-2,1.5388319E-2,4.6487027E-3,6.7701745E-3,-1.1033625E-2,-7.4213755E-4,-7.853286E-2,1.9720778E-2,9.8481864E-2,-1.7381491E-2,-6.9330834E-2,-5.375872E-2,9.678549E-3],"split_indices":[24,11,13,25,10,11,25,24,10,24,24,11,6,11,26,0,0,0,0,0,0,0,0,0,0,0,0,0,0,0,0],"split_type":[0,0,0,0,0,0,0,0,0,0,0,0,0,0,0,0,0,0,0,0,0,0,0,0,0,0,0,0,0,0,0],"sum_hessian":[9.715624E3,5.7552725E3,3.9603518E3,2.871504E2,5.468122E3,1.7942659E3,2.1660862E3,2.1706905E2,7.008134E1,3.6075662E3,1.8605557E3,1.7862499E3,8.015945E0,1.6514938E3,5.145923E2,1.3092976E2,8.613928E1,6.7096176E1,2.9851594E0,1.9225123E3,1.685054E3,1.02285657E3,8.376991E2,1.7653315E3,2.0918343E1,1.2374537E0,6.7784915E0,1.5974379E3,5.4055984E1,2.2673733E1,4.9191858E2],"tree_param":{"num_deleted":"0","num_feature":"28","num_nodes":"31","size_leaf_vector":"1"}},{"base_weights":[1.0279041E-3,4.6837747E-2,-2.904983E-1,2.6483327E-1,1.4620739E-2,-4.456155E-2,-3.969355E-1,-3.8956553E-1,3.0628017E-1,4.6436984E-2,-2.3705487E-1,9.788545E-2,-6.9589895E-1,-5.8804727E-1,-1.7624462E-1,3.473399E-2,-3.818227E-2,4.589769E-2,1.2140944E-2,-9.062754E-3,3.7959514E-3,-1.8009558E-2,1.4726417E-2,1.4098848E-2,-9.01518E-3,-5.667935E-2,-3.3344522E-3,-3.2752614E-2,3.4563318E-2,-2.3118139E-4,-2.542129E-2],"categories":[],"categories_nodes":[],"categories_segments":[],"categories_sizes":[],"default_left":[0,0,0,0,0,0,0,0,0,0,0,0,0,0,0,0,0,0,0,0,0,0,0,0,0,0,0,0,0,0,0],"id":20,"left_children":[1,3,5,7,9,11,13,15,17,19,21,23,25,27,29,-1,-1,-1,-1,-1,-1,-1,-1,-1,-1,-1,-1,-1,-1,-1,-1],"loss_changes":[1.2959135E2,5.889219E1,3.4477028E1,2.9404007E1,5.852301E1,3.7103107E1,3.8681732E1,2.6793182E1,3.9214104E1,4.3566643E1,5.379781E1,1.686949E1,1.9685497E1,4.2661118E1,2.4408905E1,0E0,0E0,0E0,0E0,0E0,0E0,0E0,0E0,0E0,0E0,0E0,0E0,0E0,0E0,0E0,0E0],"parents":[2147483647,0,0,1,1,2,2,3,3,4,4,5,5,6,6,7,7,8,8,9,9,10,10,11,11,12,12,13,13,14,14],"right_children":[2,4,6,8,10,12,14,16,18,20,22,24,26,28,30,-1,-1,-1,-1,-1,-1,-1,-1,-1,-1,-1,-1,-1,-1,-1,-1],"split_conditions":[1.2901162E0,4.3271205E-1,-2.63526E-1,3.9178886E1,9.308E4,2.8634E0,5.957456E5,6.4712E2,-3.7710133E-1,2.2263E0,6.189712E1,1.9191E2,6.4327274E-3,2.5010874E0,1.5858598E0,3.473399E-2,-3.818227E-2,4.589769E-2,1.2140944E-2,-9.062754E-3,3.7959514E-3,-1.8009558E-2,1.4726417E-2,1.4098848E-2,-9.01518E-3,-5.667935E-2,-3.3344522E-3,-3.2752614E-2,3.4563318E-2,-2.3118139E-4,-2.542129E-2],"split_indices":[24,24,1,25,10,13,20,11,21,11,25,11,2,24,24,0,0,0,0,0,0,0,0,0,0,0,0,0,0,0,0],"split_type":[0,0,0,0,0,0,0,0,0,0,0,0,0,0,0,0,0,0,0,0,0,0,0,0,0,0,0,0,0,0,0],"sum_hessian":[9.701732E3,8.384974E3,1.3167587E3,1.0787075E3,7.306266E3,3.9816547E2,9.1859326E2,6.3751137E1,1.01495636E3,6.4870093E3,8.192571E2,3.274107E2,7.075476E1,4.9139508E2,4.2719815E2,1.6133175E1,4.761796E1,9.413819E1,9.208182E2,7.4307056E2,5.7439385E3,6.654372E2,1.5381992E2,1.970195E2,1.303912E2,4.125532E1,2.9499435E1,4.674025E2,2.3992601E1,2.8234094E2,1.4485721E2],"tree_param":{"num_deleted":"0","num_feature":"28","num_nodes":"31","size_leaf_vector":"1"}},{"base_weights":[2.850428E-3,9.914752E-2,-1.4651436E-1,1.5981412E-1,-3.121277E-2,9.970717E-1,-1.6313191E-1,-2.3035064E-1,1.916254E-1,3.8895488E-1,-9.402742E-2,1.1326361E0,4.1293278E-1,-2.4684146E-1,1.162868E-2,3.2495797E-2,-2.318095E-2,9.990371E-3,-4.8482124E-2,3.120101E-2,-7.4385195E-3,-2.3683539E-2,-8.4837776E-4,1.8592857E-2,6.22016E-2,-9.589123E-3,6.843041E-2,-6.546948E-3,-3.1677175E-2,4.553503E-3,-2.423949E-2],"categories":[],"categories_nodes":[],"categories_segments":[],"categories_sizes":[],"default_left":[0,0,0,0,0,0,0,0,0,0,0,0,0,0,0,0,0,0,0,0,0,0,0,0,0,0,0,0,0,0,0],"id":21,"left_children":[1,3,5,7,9,11,13,15,17,19,21,23,25,27,29,-1,-1,-1,-1,-1,-1,-1,-1,-1,-1,-1,-1,-1,-1,-1,-1],"loss_changes":[1.389755E2,4.646517E1,7.2138824E1,4.9804504E1,4.92994E1,3.8392715E0,5.462973E1,6.2455414E1,3.5420364E1,3.0801624E1,4.7519638E1,3.229885E0,7.0925303E0,1.1307829E2,4.777398E1,0E0,0E0,0E0,0E0,0E0,0E0,0E0,0E0,0E0,0E0,0E0,0E0,0E0,0E0,0E0,0E0],"parents":[2147483647,0,0,1,1,2,2,3,3,4,4,5,5,6,6,7,7,8,8,9,9,10,10,11,11,12,12,13,13,14,14],"right_children":[2,4,6,8,10,12,14,16,18,20,22,24,26,28,30,-1,-1,-1,-1,-1,-1,-1,-1,-1,-1,-1,-1,-1,-1,-1,-1],"split_conditions":[9.454165E-1,4.49445E3,1.4252E0,2.1007E0,3.2968935E-1,7.1E-3,5.957456E5,1.8253E0,8.041329E1,1.129319E5,2.456E2,2.9730144E0,1E0,3.229745E0,1.5465279E0,3.2495797E-2,-2.318095E-2,9.990371E-3,-4.8482124E-2,3.120101E-2,-7.4385195E-3,-2.3683539E-2,-8.4837776E-4,1.8592857E-2,6.22016E-2,-9.589123E-3,6.843041E-2,-6.546948E-3,-3.1677175E-2,4.553503E-3,-2.423949E-2],"split_indices":[24,10,10,11,24,4,20,11,25,10,6,26,27,13,24,0,0,0,0,0,0,0,0,0,0,0,0,0,0,0,0],"split_type":[0,0,0,0,0,0,0,0,0,0,0,0,0,0,0,0,0,0,0,0,0,0,0,0,0,0,0,0,0,0,0],"sum_hessian":[9.660207E3,5.873703E3,3.786504E3,4.0081697E3,1.8655336E3,5.3388855E1,3.733115E3,3.016912E2,3.7064785E3,2.419482E2,1.6235853E3,4.2570335E1,1.0818517E1,2.523809E3,1.209306E3,6.2825474E1,2.3886574E2,3.6813684E3,2.5110075E1,1.682414E2,7.370681E1,2.7308032E2,1.350505E3,5.991249E0,3.6579086E1,7.1154513E0,3.7030659E0,1.9428391E3,5.8097E2,1.043183E3,1.6612303E2],"tree_param":{"num_deleted":"0","num_feature":"28","num_nodes":"31","size_leaf_vector":"1"}},{"base_weights":[7.940478E-3,4.6667393E-2,-2.4984273E-1,1.6263193E-1,-1.999659E-3,-1.0052836E-1,-4.9958375E-1,2.4218926E-1,-1.01082884E-1,8.617156E-1,-1.0159858E-2,-2.0902662E-1,3.1907618E-1,-5.6386735E-2,-6.9345117E-1,4.3102866E-3,1.8117776E-2,6.3996585E-3,-2.0190198E-2,6.094941E-2,2.5376314E-4,-5.65299E-2,-1.5230522E-4,-4.7545405E-3,-5.6764364E-2,7.1763224E-3,6.494521E-2,1.0677739E-2,-4.66815E-2,-4.028948E-2,5.1048793E-2],"categories":[],"categories_nodes":[],"categories_segments":[],"categories_sizes":[],"default_left":[0,0,0,0,0,0,0,0,0,0,0,0,0,0,0,0,0,0,0,0,0,0,0,0,0,0,0,0,0,0,0],"id":22,"left_children":[1,3,5,7,9,11,13,15,17,19,21,23,25,27,29,-1,-1,-1,-1,-1,-1,-1,-1,-1,-1,-1,-1,-1,-1,-1,-1],"loss_changes":[9.6806076E1,4.7577805E1,4.7177994E1,5.2309837E1,4.186852E1,3.6208946E1,4.065667E1,3.5860077E1,4.015307E1,1.7009956E1,4.6899624E1,6.652408E1,2.7936409E1,3.4588917E1,6.426683E1,0E0,0E0,0E0,0E0,0E0,0E0,0E0,0E0,0E0,0E0,0E0,0E0,0E0,0E0,0E0,0E0],"parents":[2147483647,0,0,1,1,2,2,3,3,4,4,5,5,6,6,7,7,8,8,9,9,10,10,11,11,12,12,13,13,14,14],"right_children":[2,4,6,8,10,12,14,16,18,20,22,24,26,28,30,-1,-1,-1,-1,-1,-1,-1,-1,-1,-1,-1,-1,-1,-1,-1,-1],"split_conditions":[1.3062742E0,7.1357656E-1,1.9191E2,9.883697E0,1.3721E0,1.6471E2,-5.8318787E0,6.6206E2,5.060464E-1,4.203152E0,1.5416E0,1.4356E2,9.76592E6,5.043E1,2.5010874E0,4.3102866E-3,1.8117776E-2,6.3996585E-3,-2.0190198E-2,6.094941E-2,2.5376314E-4,-5.65299E-2,-1.5230522E-4,-4.7545405E-3,-5.6764364E-2,7.1763224E-3,6.494521E-2,1.0677739E-2,-4.66815E-2,-4.028948E-2,5.1048793E-2],"split_indices":[24,12,11,0,11,11,0,11,24,12,10,10,20,3,24,0,0,0,0,0,0,0,0,0,0,0,0,0,0,0,0],"split_type":[0,0,0,0,0,0,0,0,0,0,0,0,0,0,0,0,0,0,0,0,0,0,0,0,0,0,0,0,0,0,0],"sum_hessian":[9.694779E3,8.429265E3,1.2655142E3,2.4910986E3,5.938166E3,7.9287506E2,4.7263916E2,1.9138201E3,5.7727856E2,5.459846E1,5.883568E3,6.303783E2,1.6249675E2,1.4422339E2,3.2841574E2,8.335438E2,1.0802762E3,3.2893958E2,2.4833902E2,3.8230827E1,1.6367636E1,3.612318E1,5.8474443E3,5.62313E2,6.806534E1,1.3877905E2,2.3717705E1,1.10865036E2,3.3358353E1,3.0871698E2,1.9698784E1],"tree_param":{"num_deleted":"0","num_feature":"28","num_nodes":"31","size_leaf_vector":"1"}},{"base_weights":[2.0068693E-3,7.509394E-2,-1.657752E-1,1.8324612E-2,1.8303837E-1,8.8259137E-1,-1.8578862E-1,-4.4024777E-2,1.855855E-1,4.7434324E-1,1.21512644E-1,-5.162683E-1,1.0074111E0,-8.773796E-1,-1.6193752E-1,-3.196883E-2,-4.156556E-4,4.5503777E-2,3.3631087E-3,7.026396E-2,2.0783816E-2,5.3856834E-3,5.0259095E-2,5.276082E-2,-7.1616955E-2,5.639738E-2,-1.1677592E-2,-6.0627222E-2,3.8612247E-2,4.8536893E-2,-1.02669215E-2],"categories":[],"categories_nodes":[],"categories_segments":[],"categories_sizes":[],"default_left":[0,0,0,0,0,0,0,0,0,0,0,0,0,0,0,0,0,0,0,0,0,0,0,0,0,0,0,0,0,0,0],"id":23,"left_children":[1,3,5,7,9,11,13,15,17,19,21,23,25,27,29,-1,-1,-1,-1,-1,-1,-1,-1,-1,-1,-1,-1,-1,-1,-1,-1],"loss_changes":[1.1966805E2,4.165185E1,6.229187E1,4.6476875E1,4.1930153E1,1.023558E1,4.780043E1,6.902326E1,1.0367882E2,2.1708214E1,2.3493174E1,9.025236E0,7.9553795E0,5.4383583E1,1.3837497E2,0E0,0E0,0E0,0E0,0E0,0E0,0E0,0E0,0E0,0E0,0E0,0E0,0E0,0E0,0E0,0E0],"parents":[2147483647,0,0,1,1,2,2,3,3,4,4,5,5,6,6,7,7,8,8,9,9,10,10,11,11,12,12,13,13,14,14],"right_children":[2,4,6,8,10,12,14,16,18,20,22,24,26,28,30,-1,-1,-1,-1,-1,-1,-1,-1,-1,-1,-1,-1,-1,-1,-1,-1],"split_conditions":[1.0366324E0,1E0,1.4252E0,6.0588448E1,4.2225295E-1,3.1901364E0,1.8779E0,2.1007E0,2.9777E0,-5.258701E-1,1.201465E5,2.6258311E0,6.005718E1,6.173073E1,2.1112E0,-3.196883E-2,-4.156556E-4,4.5503777E-2,3.3631087E-3,7.026396E-2,2.0783816E-2,5.3856834E-3,5.0259095E-2,5.276082E-2,-7.1616955E-2,5.639738E-2,-1.1677592E-2,-6.0627222E-2,3.8612247E-2,4.8536893E-2,-1.02669215E-2],"split_indices":[24,27,10,25,24,26,10,11,10,21,10,26,25,25,10,0,0,0,0,0,0,0,0,0,0,0,0,0,0,0,0],"split_type":[0,0,0,0,0,0,0,0,0,0,0,0,0,0,0,0,0,0,0,0,0,0,0,0,0,0,0,0,0,0,0],"sum_hessian":[9.756688E3,6.796595E3,2.9600933E3,4.454885E3,2.3417102E3,5.464257E1,2.9054507E3,3.2457224E3,1.2091624E3,4.071716E2,1.9345387E3,4.219405E0,5.0423164E1,9.566768E1,2.809783E3,1.8271774E2,3.0630046E3,1.68816E2,1.0403463E3,2.277772E1,3.8439386E2,1.9058989E3,2.8639761E1,1.4979074E0,2.7214978E0,4.60421E1,4.381064E0,7.97328E1,1.5934874E1,1.0290128E2,2.7068816E3],"tree_param":{"num_deleted":"0","num_feature":"28","num_nodes":"31","size_leaf_vector":"1"}},{"base_weights":[-6.5347627E-3,7.440396E-2,-1.3499415E-1,-2.9606408E-2,1.3592517E-1,1.1196504E-3,-2.6909736E-1,8.265492E-2,-2.1510462E-1,1.7092173E-1,-1.1870497E-1,-8.431279E-2,7.8096575E-1,-4.7081533E-1,-3.7418664E-2,3.672569E-2,2.4861142E-3,-7.626522E-3,-5.5471607E-2,9.39988E-3,-1.3422593E-2,6.377143E-3,-2.3010293E-2,4.0476974E-2,-5.8395066E-3,6.1145123E-2,3.032115E-2,-1.7268661E-2,-5.8486696E-2,2.997236E-2,-6.6310503E-3],"categories":[],"categories_nodes":[],"categories_segments":[],"categories_sizes":[],"default_left":[0,0,0,0,0,0,0,0,0,0,0,0,0,0,0,0,0,0,0,0,0,0,0,0,0,0,0,0,0,0,0],"id":24,"left_children":[1,3,5,7,9,11,13,15,17,19,21,23,25,27,29,-1,-1,-1,-1,-1,-1,-1,-1,-1,-1,-1,-1,-1,-1,-1,-1],"loss_changes":[1.0039565E2,3.790857E1,6.812671E1,4.588112E1,3.3189972E1,1.2353712E2,8.784323E1,2.9433363E1,4.631411E1,2.4605957E1,3.7931423E1,4.8608643E1,1.3380333E1,8.770047E1,5.3199497E1,0E0,0E0,0E0,0E0,0E0,0E0,0E0,0E0,0E0,0E0,0E0,0E0,0E0,0E0,0E0,0E0],"parents":[2147483647,0,0,1,1,2,2,3,3,4,4,5,5,6,6,7,7,8,8,9,9,10,10,11,11,12,12,13,13,14,14],"right_children":[2,4,6,8,10,12,14,16,18,20,22,24,26,28,30,-1,-1,-1,-1,-1,-1,-1,-1,-1,-1,-1,-1,-1,-1,-1,-1],"split_conditions":[9.531587E-1,4.839809E1,1.7818E2,8.4846526E-1,1.864E2,1.6471E2,2.78334E3,5.857817E-1,1.129319E5,5.3210304E1,5.614008E-1,1.4252E0,1.8248E2,1.90122E3,2.855E3,3.672569E-2,2.4861142E-3,-7.626522E-3,-5.5471607E-2,9.39988E-3,-1.3422593E-2,6.377143E-3,-2.3010293E-2,4.0476974E-2,-5.8395066E-3,6.1145123E-2,3.032115E-2,-1.7268661E-2,-5.8486696E-2,2.997236E-2,-6.6310503E-3],"split_indices":[24,25,11,13,3,11,10,26,10,2,24,10,10,11,11,0,0,0,0,0,0,0,0,0,0,0,0,0,0,0,0],"split_type":[0,0,0,0,0,0,0,0,0,0,0,0,0,0,0,0,0,0,0,0,0,0,0,0,0,0,0,0,0,0,0],"sum_hessian":[9.653934E3,5.922654E3,3.73128E3,2.2013975E3,3.721256E3,1.8522506E3,1.8790294E3,1.3717717E3,8.296257E2,3.2718936E3,4.4936258E2,1.6701742E3,1.8207634E2,1.00391156E3,8.7511786E2,6.494603E1,1.3068257E3,7.764684E2,5.3157288E1,3.150042E3,1.2185151E2,2.6145813E2,1.8790446E2,5.771785E1,1.6124564E3,4.9850418E1,1.3222592E2,8.524141E2,1.5149742E2,1.1311654E2,7.620013E2],"tree_param":{"num_deleted":"0","num_feature":"28","num_nodes":"31","size_leaf_vector":"1"}},{"base_weights":[2.0620278E-3,7.594768E-2,-1.1090707E-1,-3.1838313E-1,9.238363E-2,7.1901665E-3,-2.2711785E-1,-5.2614856E-1,1.0153552E0,2.0656814E-1,9.886159E-3,-8.416894E-2,7.1342677E-1,-4.561026E-1,-8.8871285E-2,-3.7756592E-2,1.5116471E-2,8.009323E-2,-9.8304385E-3,3.8452677E-3,2.7590243E-2,-1.5961427E-2,2.6201585E-3,3.758773E-2,-5.56327E-3,8.3030485E-2,3.154779E-2,-8.705112E-3,-4.0134646E-2,2.7388558E-2,-9.047236E-3],"categories":[],"categories_nodes":[],"categories_segments":[],"categories_sizes":[],"default_left":[0,0,0,0,0,0,0,0,0,0,0,0,0,0,0,0,0,0,0,0,0,0,0,0,0,0,0,0,0,0,0],"id":25,"left_children":[1,3,5,7,9,11,13,15,17,19,21,23,25,27,29,-1,-1,-1,-1,-1,-1,-1,-1,-1,-1,-1,-1,-1,-1,-1,-1],"loss_changes":[8.02611E1,3.7708046E1,5.218454E1,6.5055466E1,5.257706E1,1.2179818E2,6.0627876E1,3.85714E1,2.2865124E1,1.047583E2,4.537523E1,3.794563E1,1.5842667E1,7.03517E1,7.022037E1,0E0,0E0,0E0,0E0,0E0,0E0,0E0,0E0,0E0,0E0,0E0,0E0,0E0,0E0,0E0,0E0],"parents":[2147483647,0,0,1,1,2,2,3,3,4,4,5,5,6,6,7,7,8,8,9,9,10,10,11,11,12,12,13,13,14,14],"right_children":[2,4,6,8,10,12,14,16,18,20,22,24,26,28,30,-1,-1,-1,-1,-1,-1,-1,-1,-1,-1,-1,-1,-1,-1,-1,-1],"split_conditions":[9.454165E-1,2.1001E0,1.7818E2,4.5255475E0,8.9158E2,1.6104E2,1.18276E3,5.6925327E1,1.9224E0,6.7459E2,9.6306E2,1.4252E0,2.4548614E0,6.2631E2,1.90122E3,-3.7756592E-2,1.5116471E-2,8.009323E-2,-9.8304385E-3,3.8452677E-3,2.7590243E-2,-1.5961427E-2,2.6201585E-3,3.758773E-2,-5.56327E-3,8.3030485E-2,3.154779E-2,-8.705112E-3,-4.0134646E-2,2.7388558E-2,-9.047236E-3],"split_indices":[24,10,11,26,10,11,10,25,10,10,11,10,26,10,11,0,0,0,0,0,0,0,0,0,0,0,0,0,0,0,0],"split_type":[0,0,0,0,0,0,0,0,0,0,0,0,0,0,0,0,0,0,0,0,0,0,0,0,0,0,0,0,0,0,0],"sum_hessian":[9.613789E3,5.812526E3,3.8012627E3,2.3184062E2,5.580685E3,1.8857943E3,1.9154685E3,2.011168E2,3.0723816E1,2.3401653E3,3.24052E3,1.6705695E3,2.1522484E2,7.2022473E2,1.1952438E3,1.5763622E2,4.348059E1,2.048752E1,1.0236296E1,1.702114E3,6.380512E2,3.6999133E2,2.8705286E3,5.1611607E1,1.6189579E3,1.5705933E1,1.995189E2,3.9794354E2,3.2228122E2,1.5039403E2,1.0448497E3],"tree_param":{"num_deleted":"0","num_feature":"28","num_nodes":"31","size_leaf_vector":"1"}},{"base_weights":[4.278414E-3,5.649338E-2,-1.5529788E-1,-9.729257E-2,9.523222E-2,1.6010347E-1,-2.0074078E-1,-7.161169E-2,-1.3174472E0,1.2777025E0,9.025959E-2,-1.7524302E-2,5.8435774E-1,-8.014981E-2,-3.7962252E-1,2.1886758E-3,-1.1935875E-2,-7.5201385E-2,6.668341E-2,7.737296E-2,-7.67451E-3,-2.1883437E-2,5.207345E-3,-1.2204331E-2,2.0353694E-2,4.749414E-2,-1.10085E-2,-1.731277E-2,1.7577204E-3,-4.7941636E-2,-1.0646151E-2],"categories":[],"categories_nodes":[],"categories_segments":[],"categories_sizes":[],"default_left":[0,0,0,0,0,0,0,0,0,0,0,0,0,0,0,0,0,0,0,0,0,0,0,0,0,0,0,0,0,0,0],"id":26,"left_children":[1,3,5,7,9,11,13,15,17,19,21,23,25,27,29,-1,-1,-1,-1,-1,-1,-1,-1,-1,-1,-1,-1,-1,-1,-1,-1],"loss_changes":[8.0516785E1,4.338462E1,3.4178234E1,4.582664E1,3.4084484E1,2.266186E1,4.4898758E1,2.7705486E1,1.6920177E1,9.611706E0,4.2517193E1,2.0574574E1,2.6304438E1,3.8224E1,8.0749596E1,0E0,0E0,0E0,0E0,0E0,0E0,0E0,0E0,0E0,0E0,0E0,0E0,0E0,0E0,0E0,0E0],"parents":[2147483647,0,0,1,1,2,2,3,3,4,4,5,5,6,6,7,7,8,8,9,9,10,10,11,11,12,12,13,13,14,14],"right_children":[2,4,6,8,10,12,14,16,18,20,22,24,26,28,30,-1,-1,-1,-1,-1,-1,-1,-1,-1,-1,-1,-1,-1,-1,-1,-1],"split_conditions":[1.1048287E0,4.2435905E1,7.711808E-1,2.4403899E0,1.3721E0,8.9476086E-2,1.9581E2,2.9821E3,2.42963E-1,2.1029142E-1,2.0476E0,9.2484E2,3.3591045E1,2.6012E0,1.18276E3,2.1886758E-3,-1.1935875E-2,-7.5201385E-2,6.668341E-2,7.737296E-2,-7.67451E-3,-2.1883437E-2,5.207345E-3,-1.2204331E-2,2.0353694E-2,4.749414E-2,-1.10085E-2,-1.731277E-2,1.7577204E-3,-4.7941636E-2,-1.0646151E-2],"split_indices":[24,25,13,13,11,17,11,10,1,1,10,10,25,11,10,0,0,0,0,0,0,0,0,0,0,0,0,0,0,0,0],"split_type":[0,0,0,0,0,0,0,0,0,0,0,0,0,0,0,0,0,0,0,0,0,0,0,0,0,0,0,0,0,0,0],"sum_hessian":[9.661193E3,7.279812E3,2.3813816E3,1.4645017E3,5.81531E3,2.9958145E2,2.0818003E3,1.4353502E3,2.9151468E1,2.3280813E1,5.7920293E3,2.1184457E2,8.773689E1,1.2443707E3,8.3742944E2,8.4950916E2,5.8584106E2,2.7638973E1,1.5124961E0,1.9520311E1,3.760502E0,1.4767366E2,5.6443555E3,1.3841338E2,7.343118E1,6.0203617E1,2.7533276E1,3.755809E2,8.687898E2,1.8609082E2,6.513386E2],"tree_param":{"num_deleted":"0","num_feature":"28","num_nodes":"31","size_leaf_vector":"1"}},{"base_weights":[-4.355093E-3,4.697282E-2,-1.6240323E-1,8.8574894E-2,-6.568252E-2,-4.17657E-2,-3.0306455E-1,6.015336E-2,3.859487E-1,-6.7620647E-1,-2.4138657E-2,-1.1887493E-1,6.367552E-1,2.9107956E-2,-4.094175E-1,9.063586E-3,-1.0766932E-3,6.6617124E-2,6.991014E-3,-1.4803833E-2,-8.298039E-2,4.447109E-2,-2.908837E-3,3.769212E-2,-7.6316306E-3,2.1874543E-2,6.499802E-2,3.8809143E-2,-1.1568727E-2,-1.893106E-2,-7.604459E-2],"categories":[],"categories_nodes":[],"categories_segments":[],"categories_sizes":[],"default_left":[0,0,0,0,0,0,0,0,0,0,0,0,0,0,0,0,0,0,0,0,0,0,0,0,0,0,0,0,0,0,0],"id":27,"left_children":[1,3,5,7,9,11,13,15,17,19,21,23,25,27,29,-1,-1,-1,-1,-1,-1,-1,-1,-1,-1,-1,-1,-1,-1,-1,-1],"loss_changes":[7.8192764E1,3.4106E1,4.008382E1,4.489066E1,4.9768333E1,6.668758E1,3.8545883E1,4.8005802E1,1.0775651E2,4.6242767E1,5.7231617E1,3.3820675E1,1.6621544E1,5.1839993E1,2.7707596E1,0E0,0E0,0E0,0E0,0E0,0E0,0E0,0E0,0E0,0E0,0E0,0E0,0E0,0E0,0E0,0E0],"parents":[2147483647,0,0,1,1,2,2,3,3,4,4,5,5,6,6,7,7,8,8,9,9,10,10,11,11,12,12,13,13,14,14],"right_children":[2,4,6,8,10,12,14,16,18,20,22,24,26,28,30,-1,-1,-1,-1,-1,-1,-1,-1,-1,-1,-1,-1,-1,-1,-1,-1],"split_conditions":[1.1048287E0,4.49445E3,1.7818E2,3.29452E3,4.768E3,1.6471E2,-5.3589697E0,7.1431506E-1,3.735E3,4.63312E3,6.822E4,1.4252E0,8.291029E6,3.7884934E0,6.24017E4,9.063586E-3,-1.0766932E-3,6.6617124E-2,6.991014E-3,-1.4803833E-2,-8.298039E-2,4.447109E-2,-2.908837E-3,3.769212E-2,-7.6316306E-3,2.1874543E-2,6.499802E-2,3.8809143E-2,-1.1568727E-2,-1.893106E-2,-7.604459E-2],"split_indices":[24,10,11,11,10,11,0,24,10,10,10,10,20,12,11,0,0,0,0,0,0,0,0,0,0,0,0,0,0,0,0],"split_type":[0,0,0,0,0,0,0,0,0,0,0,0,0,0,0,0,0,0,0,0,0,0,0,0,0,0,0,0,0,0,0],"sum_hessian":[9.636874E3,7.2749536E3,2.3619204E3,5.313109E3,1.9618445E3,1.2721575E3,1.089763E3,4.8507046E3,4.624043E2,1.2401769E2,1.8378268E3,1.1430792E3,1.2907828E2,2.6446985E2,8.252931E2,1.9533046E3,2.8974001E3,9.452624E1,3.6787805E2,9.038198E1,3.363571E1,6.5112724E1,1.7727141E3,4.1774586E1,1.1013046E3,1.0053234E2,2.8545935E1,6.7861206E1,1.9660863E2,8.043472E2,2.0945896E1],"tree_param":{"num_deleted":"0","num_feature":"28","num_nodes":"31","size_leaf_vector":"1"}},{"base_weights":[-2.6462157E-3,1.5581594E-1,-4.36231E-2,-1.7931493E-1,2.3665875E-1,-2.532796E-2,-6.996381E-1,-1.9571526E-2,-1.242824E0,6.7032564E-1,1.4329101E-1,-5.5923123E-2,1.7670709E-1,1.0246495E0,-7.6732105E-1,7.294764E-2,-5.0892867E-3,-7.461356E-2,-2.6979763E-3,3.6500048E-2,-8.2899295E-2,5.049276E-3,4.688415E-2,-6.9981127E-4,-2.4124837E-2,2.698539E-2,1.1337848E-3,4.4801733E-3,8.040275E-2,2.3900976E-2,-4.2456713E-2],"categories":[],"categories_nodes":[],"categories_segments":[],"categories_sizes":[],"default_left":[0,0,0,0,0,0,0,0,0,0,0,0,0,0,0,0,0,0,0,0,0,0,0,0,0,0,0,0,0,0,0],"id":28,"left_children":[1,3,5,7,9,11,13,15,17,19,21,23,25,27,29,-1,-1,-1,-1,-1,-1,-1,-1,-1,-1,-1,-1,-1,-1,-1,-1],"loss_changes":[6.2277946E1,5.3431847E1,9.1442406E1,6.513606E1,6.420513E1,4.5842705E1,2.491127E1,4.0806046E1,1.4768524E1,4.0261932E1,4.386322E1,1.1517819E2,5.4526802E1,4.348728E0,2.0730225E1,0E0,0E0,0E0,0E0,0E0,0E0,0E0,0E0,0E0,0E0,0E0,0E0,0E0,0E0,0E0,0E0],"parents":[2147483647,0,0,1,1,2,2,3,3,4,4,5,5,6,6,7,7,8,8,9,9,10,10,11,11,12,12,13,13,14,14],"right_children":[2,4,6,8,10,12,14,16,18,20,22,24,26,28,30,-1,-1,-1,-1,-1,-1,-1,-1,-1,-1,-1,-1,-1,-1,-1,-1],"split_conditions":[5.3793764E-1,6.7459E2,1.074114E5,6.6488E2,8.7616E2,6.45156E1,2.8397566E-2,1.8779E0,4.07E0,2.5103848E0,1.201465E5,4.2902207E0,1.2666E2,3.902606E0,1.66E0,7.294764E-2,-5.0892867E-3,-7.461356E-2,-2.6979763E-3,3.6500048E-2,-8.2899295E-2,5.049276E-3,4.688415E-2,-6.9981127E-4,-2.4124837E-2,2.698539E-2,1.1337848E-3,4.4801733E-3,8.040275E-2,2.3900976E-2,-4.2456713E-2],"split_indices":[24,10,11,10,11,25,7,10,6,13,10,13,11,26,4,0,0,0,0,0,0,0,0,0,0,0,0,0,0,0,0],"split_type":[0,0,0,0,0,0,0,0,0,0,0,0,0,0,0,0,0,0,0,0,0,0,0,0,0,0,0,0,0,0,0],"sum_hessian":[9.589083E3,1.9696039E3,7.6194795E3,3.8254782E2,1.587056E3,7.4137607E3,2.0571852E2,3.3347668E2,4.9071156E1,2.8006293E2,1.306993E3,6.439343E3,9.744182E2,7.235977E0,1.9848254E2,1.668427E1,3.1679242E2,4.034977E1,8.721383E0,2.7373355E2,6.329398E0,1.2419784E3,6.501466E1,5.864015E3,5.753272E2,2.8954745E2,6.848708E2,3.2233608E0,4.0126166E0,1.1937033E1,1.8654552E2],"tree_param":{"num_deleted":"0","num_feature":"28","num_nodes":"31","size_leaf_vector":"1"}},{"base_weights":[-1.9318542E-3,6.4275764E-2,-1.2149051E-1,1.18391275E-1,-6.0567964E-2,7.1808887E-3,-2.2517896E-1,-2.4383363E-1,1.4880377E-1,1.3615787E-1,-1.8607372E-1,9.842472E-1,-1.403794E-2,-4.3584505E-1,-1.4289043E-2,-3.5620317E-2,1.300884E-2,2.9192796E-2,6.3132057E-3,-7.5133055E-2,7.716261E-3,-2.9034361E-2,-4.5453804E-3,-2.4529217E-2,6.459757E-2,5.207684E-3,-7.8498265E-3,-3.124117E-2,-9.9958535E-3,-6.0135475E-3,1.21107185E-2],"categories":[],"categories_nodes":[],"categories_segments":[],"categories_sizes":[],"default_left":[0,0,0,0,0,0,0,0,0,0,0,0,0,0,0,0,0,0,0,0,0,0,0,0,0,0,0,0,0,0,0],"id":29,"left_children":[1,3,5,7,9,11,13,15,17,19,21,23,25,27,29,-1,-1,-1,-1,-1,-1,-1,-1,-1,-1,-1,-1,-1,-1,-1,-1],"loss_changes":[7.621117E1,4.1870483E1,4.578231E1,4.765987E1,4.630509E1,3.1779596E1,8.441438E1,7.935521E1,3.9040497E1,2.1985313E1,4.2937855E1,1.5419584E1,2.5371477E1,4.225641E1,2.587165E1,0E0,0E0,0E0,0E0,0E0,0E0,0E0,0E0,0E0,0E0,0E0,0E0,0E0,0E0,0E0,0E0],"parents":[2147483647,0,0,1,1,2,2,3,3,4,4,5,5,6,6,7,7,8,8,9,9,10,10,11,11,12,12,13,13,14,14],"right_children":[2,4,6,8,10,12,14,16,18,20,22,24,26,28,30,-1,-1,-1,-1,-1,-1,-1,-1,-1,-1,-1,-1,-1,-1,-1,-1],"split_conditions":[9.79029E-1,4.49445E3,2.2077363E0,2.1007E0,7.9447323E-1,-1.583612E2,6.4560275E5,7.9344517E-1,8.9566284E-1,2.4E0,4.735517E1,-6.7966984E4,1.9581E2,1.18276E3,6.7121056E1,-3.5620317E-2,1.300884E-2,2.9192796E-2,6.3132057E-3,-7.5133055E-2,7.716261E-3,-2.9034361E-2,-4.5453804E-3,-2.4529217E-2,6.459757E-2,5.207684E-3,-7.8498265E-3,-3.124117E-2,-9.9958535E-3,-6.0135475E-3,1.21107185E-2],"split_indices":[24,10,13,11,13,2,20,24,26,3,25,20,11,10,25,0,0,0,0,0,0,0,0,0,0,0,0,0,0,0,0],"split_type":[0,0,0,0,0,0,0,0,0,0,0,0,0,0,0,0,0,0,0,0,0,0,0,0,0,0,0,0,0,0,0],"sum_hessian":[9.62587E3,6.1954805E3,3.4303892E3,4.3220645E3,1.8734163E3,1.531195E3,1.8991943E3,3.3423035E2,3.987834E3,7.296425E2,1.1437738E3,3.1581293E1,1.4996136E3,9.495676E2,9.4962665E2,1.7299002E2,1.6124031E2,1.9520259E2,3.7926313E3,7.1039658E0,7.225386E2,2.2124846E2,9.2252527E2,5.349017E0,2.6232275E1,8.210656E2,6.785481E2,5.263294E2,4.2323825E2,6.723547E2,2.7727194E2],"tree_param":{"num_deleted":"0","num_feature":"28","num_nodes":"31","size_leaf_vector":"1"}},{"base_weights":[1.533974E-3,3.4718283E-2,-1.7691755E-1,-2.674188E-2,1.5126573E-1,-1.5686324E-1,-1.2186658E0,-9.392729E-2,1.6642693E-1,2.8700763E-1,-7.578688E-4,-1.6940956E-1,1.4530824E0,3.1432103E-2,-1.318724E0,-5.463057E-4,-1.7469725E-2,4.1929945E-2,2.468893E-3,4.6728123E-2,1.2636989E-2,6.9113816E-3,-8.869642E-3,9.489974E-3,-1.1276826E-2,9.603386E-2,-4.666484E-2,2.984156E-2,-7.127809E-2],"categories":[],"categories_nodes":[],"categories_segments":[],"categories_sizes":[],"default_left":[0,0,0,0,0,0,0,0,0,0,0,0,0,0,0,0,0,0,0,0,0,0,0,0,0,0,0,0,0],"id":30,"left_children":[1,3,5,7,9,11,13,15,17,19,21,23,25,-1,27,-1,-1,-1,-1,-1,-1,-1,-1,-1,-1,-1,-1,-1,-1],"loss_changes":[5.692585E1,5.8064697E1,3.1298702E1,6.890165E1,5.775512E1,3.0140125E1,6.0637703E0,8.351444E1,1.0775201E2,3.2573334E1,3.2459473E1,2.966851E1,1.467931E1,0E0,6.4150276E0,0E0,0E0,0E0,0E0,0E0,0E0,0E0,0E0,0E0,0E0,0E0,0E0,0E0,0E0],"parents":[2147483647,0,0,1,1,2,2,3,3,4,4,5,5,6,6,7,7,8,8,9,9,10,10,11,11,12,12,14,14],"right_children":[2,4,6,8,10,12,14,16,18,20,22,24,26,-1,28,-1,-1,-1,-1,-1,-1,-1,-1,-1,-1,-1,-1,-1,-1],"split_conditions":[1.2459444E0,1E0,6.24017E4,6.1194313E1,2.8824436E-2,2.192E2,3.389849E0,2.0340462E0,2.9777E0,5.857817E-1,9.207464E-1,-5.07922E-1,1.0776032E1,3.1432103E-2,1.411E1,-5.463057E-4,-1.7469725E-2,4.1929945E-2,2.468893E-3,4.6728123E-2,1.2636989E-2,6.9113816E-3,-8.869642E-3,9.489974E-3,-1.1276826E-2,9.603386E-2,-4.666484E-2,2.984156E-2,-7.127809E-2],"split_indices":[24,27,11,25,21,6,26,13,10,26,12,1,13,0,5,0,0,0,0,0,0,0,0,0,0,0,0,0,0],"split_type":[0,0,0,0,0,0,0,0,0,0,0,0,0,0,0,0,0,0,0,0,0,0,0,0,0,0,0,0,0],"sum_hessian":[9.610908E3,8.1046055E3,1.5063026E3,5.3068564E3,2.7977488E3,1.4789818E3,2.7320753E1,3.937783E3,1.3690736E3,1.4775532E3,1.3201956E3,1.4684331E3,1.0548726E1,1.1323406E0,2.6188412E1,2.9729238E3,9.648589E2,2.0213252E2,1.166941E3,7.2940186E1,1.404613E3,7.389607E2,5.812349E2,1.9811679E2,1.2703163E3,8.9836E0,1.5651262E0,1.1411822E0,2.504723E1],"tree_param":{"num_deleted":"0","num_feature":"28","num_nodes":"29","size_leaf_vector":"1"}},{"base_weights":[-1.9842575E-3,5.131243E-2,-1.0107938E-1,5.756663E-2,-9.455309E-1,1.0179141E-2,-2.16873E-1,-3.9289176E-2,1.0636646E-1,6.902907E-2,-1.1778919E0,-6.303097E-2,5.678092E-1,-3.908879E-1,-1.4244022E-2,1.6842568E-3,-1.3174899E-2,1.9688329E-2,3.6614256E-3,-6.866246E-2,5.137865E-2,9.3835266E-4,-2.6766455E-2,2.1456894E-2,5.471727E-2,-1.3583945E-2,-5.0828394E-2,3.0117458E-2,-5.3891665E-3],"categories":[],"categories_nodes":[],"categories_segments":[],"categories_sizes":[],"default_left":[0,0,0,0,0,0,0,0,0,0,0,0,0,0,0,0,0,0,0,0,0,0,0,0,0,0,0,0,0],"id":31,"left_children":[1,3,5,7,9,11,13,15,17,-1,19,21,23,25,27,-1,-1,-1,-1,-1,-1,-1,-1,-1,-1,-1,-1,-1,-1],"loss_changes":[5.1009895E1,3.9209938E1,4.3519062E1,2.9508635E1,2.2822102E1,7.040079E1,5.8358704E1,3.4239037E1,3.9506268E1,0E0,1.7005276E1,5.8905495E1,1.4142822E1,6.61398E1,4.4231777E1,0E0,0E0,0E0,0E0,0E0,0E0,0E0,0E0,0E0,0E0,0E0,0E0,0E0,0E0],"parents":[2147483647,0,0,1,1,2,2,3,3,4,4,5,5,6,6,7,7,8,8,10,10,11,11,12,12,13,13,14,14],"right_children":[2,4,6,8,10,12,14,16,18,-1,20,22,24,26,28,-1,-1,-1,-1,-1,-1,-1,-1,-1,-1,-1,-1,-1,-1],"split_conditions":[9.867824E-1,8.041329E1,1.7818E2,4.7229324E1,2.4165726E0,1.6104E2,2.78334E3,1.0631868E0,9.878166E-1,6.902907E-2,1.0393132E0,1.444E2,4.7745818E-1,1.90122E3,2.855E3,1.6842568E-3,-1.3174899E-2,1.9688329E-2,3.6614256E-3,-6.866246E-2,5.137865E-2,9.3835266E-4,-2.6766455E-2,2.1456894E-2,5.471727E-2,-1.3583945E-2,-5.0828394E-2,3.0117458E-2,-5.3891665E-3],"split_indices":[24,25,11,25,26,11,10,13,26,0,16,10,21,11,11,0,0,0,0,0,0,0,0,0,0,0,0,0,0],"split_type":[0,0,0,0,0,0,0,0,0,0,0,0,0,0,0,0,0,0,0,0,0,0,0,0,0,0,0,0,0],"sum_hessian":[9.656346E3,6.279501E3,3.3768445E3,6.2412856E3,3.8215595E1,1.7226116E3,1.6542329E3,2.0911187E3,4.150167E3,3.0219543E0,3.519364E1,1.5234835E3,1.9912807E2,8.894536E2,7.647793E2,1.5782784E3,5.128401E2,4.279287E2,3.7222383E3,3.2676537E1,2.5171046E0,1.2993989E3,2.2408461E2,1.5905382E2,4.007425E1,7.483137E2,1.411399E2,1.0002093E2,6.6475836E2],"tree_param":{"num_deleted":"0","num_feature":"28","num_nodes":"29","size_leaf_vector":"1"}},{"base_weights":[-3.7621972E-4,3.8106944E-2,-1.1998005E-1,-9.339819E-2,7.148826E-2,2.5132936E-1,-1.7306949E-1,-4.932894E-2,-7.7539337E-1,1.0219282E-1,-9.9415906E-2,1.5218103E-1,7.514548E-1,-5.1424664E-2,-3.56879E-1,2.5068156E-3,-9.891304E-3,-2.3637816E-2,-7.095163E-2,1.8431036E-2,3.748117E-3,-6.1132796E-3,5.7630207E-2,1.630466E-2,-1.2192308E-2,4.6930473E-2,-6.1390102E-2,-1.5307518E-2,2.8293827E-3,-4.1907348E-2,-1.075038E-2],"categories":[],"categories_nodes":[],"categories_segments":[],"categories_sizes":[],"default_left":[0,0,0,0,0,0,0,0,0,0,0,0,0,0,0,0,0,0,0,0,0,0,0,0,0,0,0,0,0,0,0],"id":32,"left_children":[1,3,5,7,9,11,13,15,17,19,21,23,25,27,29,-1,-1,-1,-1,-1,-1,-1,-1,-1,-1,-1,-1,-1,-1,-1,-1],"loss_changes":[4.4412617E1,3.205358E1,4.634649E1,4.4394455E1,3.0566078E1,1.44759865E1,4.594519E1,2.0536436E1,1.6794678E1,3.5787086E1,2.552569E1,1.7078459E1,1.9091211E1,3.4083984E1,5.5704323E1,0E0,0E0,0E0,0E0,0E0,0E0,0E0,0E0,0E0,0E0,0E0,0E0,0E0,0E0,0E0,0E0],"parents":[2147483647,0,0,1,1,2,2,3,3,4,4,5,5,6,6,7,7,8,8,9,9,10,10,11,11,12,12,13,13,14,14],"right_children":[2,4,6,8,10,12,14,16,18,20,22,24,26,28,30,-1,-1,-1,-1,-1,-1,-1,-1,-1,-1,-1,-1,-1,-1,-1,-1],"split_conditions":[1.1048287E0,4.2435905E1,7.580966E-1,1.6670244E0,9.883697E0,-1.5606412E5,1.9581E2,3.03E3,2.95984E3,3.8576087E-1,2.8023033E0,3.5240536E1,1.4806612E0,2.6012E0,1.18276E3,2.5068156E-3,-9.891304E-3,-2.3637816E-2,-7.095163E-2,1.8431036E-2,3.748117E-3,-6.1132796E-3,5.7630207E-2,1.630466E-2,-1.2192308E-2,4.6930473E-2,-6.1390102E-2,-1.5307518E-2,2.8293827E-3,-4.1907348E-2,-1.075038E-2],"split_indices":[24,25,13,13,0,20,11,10,10,24,12,25,24,11,10,0,0,0,0,0,0,0,0,0,0,0,0,0,0,0,0],"split_type":[0,0,0,0,0,0,0,0,0,0,0,0,0,0,0,0,0,0,0,0,0,0,0,0,0,0,0,0,0,0,0],"sum_hessian":[9.647188E3,7.299286E3,2.3479026E3,1.4773789E3,5.821907E3,2.9323962E2,2.0546628E3,1.3887151E3,8.866383E1,4.935585E3,8.8632263E2,2.4581236E2,4.742727E1,1.2371793E3,8.1748346E2,8.320559E2,5.566592E2,6.1487244E1,2.7176588E1,4.5650644E2,4.479078E3,8.713231E2,1.499953E1,1.709275E2,7.488485E1,4.3810413E1,3.6168523E0,3.6784808E2,8.693313E2,1.8500075E2,6.324827E2],"tree_param":{"num_deleted":"0","num_feature":"28","num_nodes":"31","size_leaf_vector":"1"}},{"base_weights":[-2.9621675E-4,3.497993E-2,-1.9550177E-1,-1.5844706E-2,1.3318855E-1,-2.3080909E-1,4.7465423E-1,-8.118144E-2,1.629517E-1,2.5767305E-1,-1.0088541E-2,-2.0132922E-1,-1.1186104E0,-9.1674227E-1,7.3187804E-1,2.1067846E-5,-1.7140698E-2,3.8971607E-2,2.8087986E-3,-1.166932E-2,1.5194635E-2,6.5218024E-3,-9.075116E-3,-1.113726E-2,8.370089E-2,-6.210041E-2,5.611653E-2,-5.619472E-2,2.6368473E-2,5.3080697E-2,-4.1447017E-2],"categories":[],"categories_nodes":[],"categories_segments":[],"categories_sizes":[],"default_left":[0,0,0,0,0,0,0,0,0,0,0,0,0,0,0,0,0,0,0,0,0,0,0,0,0,0,0,0,0,0,0],"id":33,"left_children":[1,3,5,7,9,11,13,15,17,19,21,23,25,27,29,-1,-1,-1,-1,-1,-1,-1,-1,-1,-1,-1,-1,-1,-1,-1,-1],"loss_changes":[6.613385E1,4.0602524E1,3.4890038E1,6.264022E1,4.9479946E1,3.6338257E1,2.7117836E1,8.383951E1,9.44207E1,3.376198E1,3.1112427E1,5.472673E1,1.3748821E1,4.174512E0,3.326297E1,0E0,0E0,0E0,0E0,0E0,0E0,0E0,0E0,0E0,0E0,0E0,0E0,0E0,0E0,0E0,0E0],"parents":[2147483647,0,0,1,1,2,2,3,3,4,4,5,5,6,6,7,7,8,8,9,9,10,10,11,11,12,12,13,13,14,14],"right_children":[2,4,6,8,10,12,14,16,18,20,22,24,26,28,30,-1,-1,-1,-1,-1,-1,-1,-1,-1,-1,-1,-1,-1,-1,-1,-1],"split_conditions":[1.2459444E0,1E0,2.5010874E0,6.0588448E1,2.8824436E-2,4.35661E3,-4.5190346E-1,2.0340462E0,2.9777E0,2.2336E0,9.0941304E-1,4.63312E3,2.320105E0,-1.286E-2,4.8311886E1,2.1067846E-5,-1.7140698E-2,3.8971607E-2,2.8087986E-3,-1.166932E-2,1.5194635E-2,6.5218024E-3,-9.075116E-3,-1.113726E-2,8.370089E-2,-6.210041E-2,5.611653E-2,-5.619472E-2,2.6368473E-2,5.3080697E-2,-4.1447017E-2],"split_indices":[24,27,24,25,21,11,21,13,10,10,12,10,24,0,25,0,0,0,0,0,0,0,0,0,0,0,0,0,0,0,0],"split_type":[0,0,0,0,0,0,0,0,0,0,0,0,0,0,0,0,0,0,0,0,0,0,0,0,0,0,0,0,0,0,0],"sum_hessian":[9.60197E3,8.133045E3,1.4689247E3,5.359995E3,2.77305E3,1.3960302E3,7.289458E1,3.9259128E3,1.434082E3,1.4834097E3,1.2896404E3,1.3523513E3,4.367872E1,1.0973237E1,6.1921337E1,2.9933042E3,9.3260876E2,2.1078629E2,1.2232957E3,1.2726256E2,1.3561471E3,7.0880383E2,5.808365E2,1.3379535E3,1.4397865E1,4.182157E1,1.8571466E0,9.79056E0,1.1826773E0,5.1385548E1,1.053579E1],"tree_param":{"num_deleted":"0","num_feature":"28","num_nodes":"31","size_leaf_vector":"1"}},{"base_weights":[1.4855553E-2,4.75652E-2,-1.649095E-1,3.702596E-2,4.3559918E-1,-7.7613765E-1,-1.2813812E-1,9.670485E-2,-3.9748315E-2,6.685583E-1,-1.1561157E0,5.929493E-1,-1.2607113E0,1.2905256E0,-1.8831798E-1,-2.7088458E-2,5.497921E-3,-5.3930184E-4,-3.759805E-2,1.0967677E-2,5.121066E-2,-6.638071E-2,5.523929E-2,-2.3556396E-2,5.7625156E-2,-6.777256E-2,6.441935E-2,7.907899E-2,-8.388216E-3,-4.711455E-2,-6.315621E-3],"categories":[],"categories_nodes":[],"categories_segments":[],"categories_sizes":[],"default_left":[0,0,0,0,0,0,0,0,0,0,0,0,0,0,0,0,0,0,0,0,0,0,0,0,0,0,0,0,0,0,0],"id":34,"left_children":[1,3,5,7,9,11,13,15,17,19,21,23,25,27,29,-1,-1,-1,-1,-1,-1,-1,-1,-1,-1,-1,-1,-1,-1,-1,-1],"loss_changes":[5.6735207E1,3.3367226E1,3.3286125E1,3.6421223E1,8.077662E1,5.6536945E1,1.1996559E2,3.7904575E1,7.171189E1,2.9945503E1,1.2289539E1,1.4036896E1,1.6823227E1,2.4540367E1,6.2812862E1,0E0,0E0,0E0,0E0,0E0,0E0,0E0,0E0,0E0,0E0,0E0,0E0,0E0,0E0,0E0,0E0],"parents":[2147483647,0,0,1,1,2,2,3,3,4,4,5,5,6,6,7,7,8,8,9,9,10,10,11,11,12,12,13,13,14,14],"right_children":[2,4,6,8,10,12,14,16,18,20,22,24,26,28,30,-1,-1,-1,-1,-1,-1,-1,-1,-1,-1,-1,-1,-1,-1,-1,-1],"split_conditions":[1.2459444E0,9.088881E7,1.8898E0,1.6285652E0,3.0235E0,1.4457E0,2.1112E0,-1.2400663E8,3.7884934E0,2.2263E0,1E0,3.0796447E0,1.3278182E-2,6.4084044E7,2.2955E0,-2.7088458E-2,5.497921E-3,-5.3930184E-4,-3.759805E-2,1.0967677E-2,5.121066E-2,-6.638071E-2,5.523929E-2,-2.3556396E-2,5.7625156E-2,-6.777256E-2,6.441935E-2,7.907899E-2,-8.388216E-3,-4.711455E-2,-6.315621E-3],"split_indices":[24,20,10,13,10,10,10,20,12,11,9,12,2,20,11,0,0,0,0,0,0,0,0,0,0,0,0,0,0,0,0],"split_type":[0,0,0,0,0,0,0,0,0,0,0,0,0,0,0,0,0,0,0,0,0,0,0,0,0,0,0,0,0,0,0],"sum_hessian":[9.646428E3,8.1620205E3,1.4844075E3,7.9472637E3,2.1475708E2,8.309319E1,1.4013142E3,4.471318E3,3.4759458E3,1.8784462E2,2.691246E1,2.1663296E1,6.1429893E1,5.6192932E1,1.3451213E3,9.0118E1,4.3811997E3,3.3410947E3,1.3485117E2,8.372003E1,1.04124596E2,2.5398664E1,1.5137973E0,7.5203085E0,1.4142987E1,5.9680088E1,1.7498085E0,4.6773132E1,9.419804E0,1.01135895E2,1.2439854E3],"tree_param":{"num_deleted":"0","num_feature":"28","num_nodes":"31","size_leaf_vector":"1"}},{"base_weights":[2.402732E-3,3.3328544E-2,-1.2764366E-1,-4.9339497E-1,4.1581564E-2,-3.7427586E-1,4.7508784E-2,7.763168E-1,-1.0853283E0,-1.0720598E-2,1.3213076E-1,-4.363132E-1,6.3281006E-1,-1.274697E-1,2.1111934E-1,4.6724703E-2,-7.2830185E-2,6.5843366E-2,-6.1971433E-2,-3.2618784E-3,8.662809E-3,1.2663426E-2,-9.222704E-4,-3.755926E-2,-8.689742E-3,-5.53599E-3,6.0490277E-2,-7.759394E-4,-3.142505E-2,5.6653302E-2,7.6979673E-3],"categories":[],"categories_nodes":[],"categories_segments":[],"categories_sizes":[],"default_left":[0,0,0,0,0,0,0,0,0,0,0,0,0,0,0,0,0,0,0,0,0,0,0,0,0,0,0,0,0,0,0],"id":35,"left_children":[1,3,5,7,9,11,13,15,17,19,21,23,25,27,29,-1,-1,-1,-1,-1,-1,-1,-1,-1,-1,-1,-1,-1,-1,-1,-1],"loss_changes":[3.8355606E1,3.3513123E1,7.916698E1,9.0233475E1,3.593151E1,4.7819496E1,3.0723852E1,1.4924084E1,3.181514E1,4.8254116E1,5.0673046E1,5.9170364E1,1.9252808E1,2.9087528E1,2.9047142E1,0E0,0E0,0E0,0E0,0E0,0E0,0E0,0E0,0E0,0E0,0E0,0E0,0E0,0E0,0E0,0E0],"parents":[2147483647,0,0,1,1,2,2,3,3,4,4,5,5,6,6,7,7,8,8,9,9,10,10,11,11,12,12,13,13,14,14],"right_children":[2,4,6,8,10,12,14,16,18,20,22,24,26,28,30,-1,-1,-1,-1,-1,-1,-1,-1,-1,-1,-1,-1,-1,-1,-1,-1],"split_conditions":[3.414919E0,1.7975E0,4.845414E5,1.4252E0,1E0,2.5010874E0,6.476443E1,1.3611994E0,1.337E0,5.6634666E1,2.1509513E-2,5.938E1,7.536E2,5.935561E0,2.0045E0,4.6724703E-2,-7.2830185E-2,6.5843366E-2,-6.1971433E-2,-3.2618784E-3,8.662809E-3,1.2663426E-2,-9.222704E-4,-3.755926E-2,-8.689742E-3,-5.53599E-3,6.0490277E-2,-7.759394E-4,-3.142505E-2,5.6653302E-2,7.6979673E-3],"split_indices":[13,11,20,10,27,24,25,24,11,25,21,25,10,13,10,0,0,0,0,0,0,0,0,0,0,0,0,0,0,0,0],"split_type":[0,0,0,0,0,0,0,0,0,0,0,0,0,0,0,0,0,0,0,0,0,0,0,0,0,0,0,0,0,0,0],"sum_hessian":[9.534891E3,7.7036587E3,1.8312324E3,1.1793658E2,7.585722E3,7.5997485E2,1.0712577E3,3.7400368E1,8.053621E1,4.808921E3,2.7768013E3,7.1641016E2,4.3564724E1,5.1775214E2,5.535055E2,3.546926E1,1.9311042E0,4.400069E0,7.613614E1,3.7101538E3,1.098767E3,1.5384467E3,1.2383546E3,3.2487927E2,3.9153085E2,1.9388437E1,2.4176289E1,4.2403607E2,9.371605E1,3.1214638E1,5.2229083E2],"tree_param":{"num_deleted":"0","num_feature":"28","num_nodes":"31","size_leaf_vector":"1"}},{"base_weights":[5.9982613E-3,2.8184646E-1,-7.6749213E-3,3.859322E-1,-1.6518888E-1,2.478704E-2,-1.4172001E-1,2.2652335E-1,1.1115836E0,-1.5788922E0,6.513164E-1,-8.486302E-3,3.4832627E-1,-5.65967E-1,-6.0399663E-2,1.4318741E-2,-1.0856908E-1,1.52810635E-2,6.948752E-2,4.4144075E-2,-9.2199735E-2,4.4909827E-2,-6.7156434E-2,2.2705997E-4,-3.533041E-2,5.4594576E-2,7.5532543E-3,-4.1087296E-2,-9.304973E-3,4.5466676E-2,-4.7921757E-3],"categories":[],"categories_nodes":[],"categories_segments":[],"categories_sizes":[],"default_left":[0,0,0,0,0,0,0,0,0,0,0,0,0,0,0,0,0,0,0,0,0,0,0,0,0,0,0,0,0,0,0],"id":36,"left_children":[1,3,5,7,9,11,13,15,17,19,21,23,25,27,29,-1,-1,-1,-1,-1,-1,-1,-1,-1,-1,-1,-1,-1,-1,-1,-1],"loss_changes":[3.6010307E1,2.1043907E1,3.958778E1,4.208973E1,1.0013294E2,7.885066E1,6.115766E1,4.3873383E1,1.4298271E1,2.2332687E1,2.8352676E1,6.0413197E1,1.00018936E2,2.7555428E1,5.1283028E1,0E0,0E0,0E0,0E0,0E0,0E0,0E0,0E0,0E0,0E0,0E0,0E0,0E0,0E0,0E0,0E0],"parents":[2147483647,0,0,1,1,2,2,3,3,4,4,5,5,6,6,7,7,8,8,9,9,10,10,11,11,12,12,13,13,14,14],"right_children":[2,4,6,8,10,12,14,16,18,20,22,24,26,28,30,-1,-1,-1,-1,-1,-1,-1,-1,-1,-1,-1,-1,-1,-1,-1,-1],"split_conditions":[3.4735954E-1,1.1472E5,4.35661E3,1.085597E5,1.156781E5,3.29452E3,2.456E2,1.080675E5,2.5771493E-1,-8.455697E1,1.1159247E0,3.22766E3,3.735E3,1E0,6.5081E4,1.4318741E-2,-1.0856908E-1,1.52810635E-2,6.948752E-2,4.4144075E-2,-9.2199735E-2,4.4909827E-2,-6.7156434E-2,2.2705997E-4,-3.533041E-2,5.4594576E-2,7.5532543E-3,-4.1087296E-2,-9.304973E-3,4.5466676E-2,-4.7921757E-3],"split_indices":[24,10,11,11,11,11,6,11,12,2,26,10,10,27,11,0,0,0,0,0,0,0,0,0,0,0,0,0,0,0,0],"split_type":[0,0,0,0,0,0,0,0,0,0,0,0,0,0,0,0,0,0,0,0,0,0,0,0,0,0,0,0,0,0,0],"sum_hessian":[9.545869E3,4.4989505E2,9.095975E3,3.650379E2,8.485715E1,7.323293E3,1.7726812E3,3.003665E2,6.4671425E1,3.0725342E1,5.4131805E1,6.641267E3,6.820258E2,2.8417657E2,1.4885046E3,2.9391107E2,6.455418E0,1.713194E1,4.7539486E1,2.760515E0,2.7964827E1,4.865834E1,5.4734664E0,6.5205815E3,1.20685646E2,1.4204807E2,5.399777E2,1.691311E2,1.1504547E2,5.1617214E1,1.4368873E3],"tree_param":{"num_deleted":"0","num_feature":"28","num_nodes":"31","size_leaf_vector":"1"}},{"base_weights":[-7.1980227E-3,1.7928949E-2,-2.1092531E-1,-1.502064E-1,4.8420385E-2,-8.156387E-2,-4.309665E-1,-9.178846E-2,-1.3012211E0,8.5930187E-1,4.336205E-2,-2.0106906E-1,3.782386E-1,-5.19702E-1,5.4081637E-1,-1.3537961E-2,1.4850203E-3,-6.910934E-2,1.0500821E-2,5.0518986E-2,-8.432578E-2,-1.09343575E-2,3.2413937E-3,-4.821792E-3,-5.237784E-2,-6.2502027E-3,3.6465064E-2,-2.0909659E-3,-3.706036E-2,5.1167514E-2,-1.0888168E-2],"categories":[],"categories_nodes":[],"categories_segments":[],"categories_sizes":[],"default_left":[0,0,0,0,0,0,0,0,0,0,0,0,0,0,0,0,0,0,0,0,0,0,0,0,0,0,0,0,0,0,0],"id":37,"left_children":[1,3,5,7,9,11,13,15,17,19,21,23,25,27,29,-1,-1,-1,-1,-1,-1,-1,-1,-1,-1,-1,-1,-1,-1,-1,-1],"loss_changes":[4.903541E1,4.372535E1,2.9901917E1,8.791897E1,2.9573923E1,3.6538376E1,3.383824E1,2.7124786E1,8.019241E0,1.8897045E1,4.0377247E1,4.6605404E1,2.433636E1,3.7769325E1,1.2320874E1,0E0,0E0,0E0,0E0,0E0,0E0,0E0,0E0,0E0,0E0,0E0,0E0,0E0,0E0,0E0,0E0],"parents":[2147483647,0,0,1,1,2,2,3,3,4,4,5,5,6,6,7,7,8,8,9,9,10,10,11,11,12,12,13,13,14,14],"right_children":[2,4,6,8,10,12,14,16,18,20,22,24,26,28,30,-1,-1,-1,-1,-1,-1,-1,-1,-1,-1,-1,-1,-1,-1,-1,-1],"split_conditions":[1.3523748E0,3.9361366E1,1.9191E2,1.9830884E0,1.3721E0,1.6471E2,2.5010874E0,3.434282E0,3.9178886E1,4.203152E0,2.1873E0,1.4356E2,5.4E-1,-5.8318787E0,4.378E1,-1.3537961E-2,1.4850203E-3,-6.910934E-2,1.0500821E-2,5.0518986E-2,-8.432578E-2,-1.09343575E-2,3.2413937E-3,-4.821792E-3,-5.237784E-2,-6.2502027E-3,3.6465064E-2,-2.0909659E-3,-3.706036E-2,5.1167514E-2,-1.0888168E-2],"split_indices":[24,25,11,13,11,11,24,12,25,12,11,10,4,0,6,0,0,0,0,0,0,0,0,0,0,0,0,0,0,0,0],"split_type":[0,0,0,0,0,0,0,0,0,0,0,0,0,0,0,0,0,0,0,0,0,0,0,0,0,0,0,0,0,0,0],"sum_hessian":[9.577268E3,8.526547E3,1.0507207E3,1.3083177E3,7.218229E3,6.625693E2,3.881515E2,1.2461511E3,6.2166687E1,4.370173E1,7.1745273E3,5.2633466E2,1.3623459E2,3.5610043E2,3.2051064E1,5.033762E2,7.427749E2,5.908648E1,3.080205E0,4.182293E1,1.878799E0,5.425107E2,6.6320166E3,4.6942374E2,5.691093E1,5.624797E1,7.998662E1,1.1315811E2,2.4294232E2,1.9376564E1,1.26745E1],"tree_param":{"num_deleted":"0","num_feature":"28","num_nodes":"31","size_leaf_vector":"1"}},{"base_weights":[-6.0199117E-3,3.2201108E-2,-1.0521703E-1,4.391744E-2,-5.168566E-1,-3.2889538E-2,-3.5696664E-1,7.172751E-2,-1.2780127E-1,3.3750948E-1,-7.62545E-1,2.931133E-1,-7.900582E-2,-4.4919518E-1,4.931332E-1,1.3904353E-2,2.180979E-3,-1.1256321E-2,6.777284E-3,7.6318346E-2,-3.7144445E-2,-4.2024825E-2,5.854593E-2,1.6962318E-3,4.955158E-2,-1.726443E-2,-7.6431147E-4,-4.9682613E-2,-1.3784358E-2,-4.637864E-2,3.4595292E-2],"categories":[],"categories_nodes":[],"categories_segments":[],"categories_sizes":[],"default_left":[0,0,0,0,0,0,0,0,0,0,0,0,0,0,0,0,0,0,0,0,0,0,0,0,0,0,0,0,0,0,0],"id":38,"left_children":[1,3,5,7,9,11,13,15,17,19,21,23,25,27,29,-1,-1,-1,-1,-1,-1,-1,-1,-1,-1,-1,-1,-1,-1,-1,-1],"loss_changes":[3.6142677E1,4.429084E1,4.826602E1,3.218951E1,3.0453438E1,3.1004713E1,4.6607918E1,3.363008E1,2.4112217E1,4.3291565E1,1.786924E1,4.6202496E1,3.0640625E1,5.0195908E1,1.7128727E1,0E0,0E0,0E0,0E0,0E0,0E0,0E0,0E0,0E0,0E0,0E0,0E0,0E0,0E0,0E0,0E0],"parents":[2147483647,0,0,1,1,2,2,3,3,4,4,5,5,6,6,7,7,8,8,9,9,10,10,11,11,12,12,13,13,14,14],"right_children":[2,4,6,8,10,12,14,16,18,20,22,24,26,28,30,-1,-1,-1,-1,-1,-1,-1,-1,-1,-1,-1,-1,-1,-1,-1,-1],"split_conditions":[2.544588E0,1.5465279E0,2.2077363E0,9.883697E0,4.9425037E1,-4.826939E-1,2.5010874E0,3.210423E-1,6.679805E1,1E0,1.9435245E0,-3.5541204E-1,1.94E-2,3.951405E1,2.4726969E1,1.3904353E-2,2.180979E-3,-1.1256321E-2,6.777284E-3,7.6318346E-2,-3.7144445E-2,-4.2024825E-2,5.854593E-2,1.6962318E-3,4.955158E-2,-1.726443E-2,-7.6431147E-4,-4.9682613E-2,-1.3784358E-2,-4.637864E-2,3.4595292E-2],"split_indices":[12,24,13,0,25,1,24,12,25,27,16,21,3,25,25,0,0,0,0,0,0,0,0,0,0,0,0,0,0,0,0],"split_type":[0,0,0,0,0,0,0,0,0,0,0,0,0,0,0,0,0,0,0,0,0,0,0,0,0,0,0,0,0,0,0],"sum_hessian":[9.530874E3,6.880476E3,2.6503977E3,6.737622E3,1.4285396E2,2.0597605E3,5.906372E2,5.799042E3,9.3857996E2,3.1821817E1,1.1103214E2,2.5459995E2,1.8051605E3,5.332552E2,5.738201E1,6.941222E2,5.10492E3,6.854159E2,2.5316411E2,1.495392E1,1.6867897E1,1.0727252E2,3.7596202E0,1.8641783E2,6.818212E1,3.4770215E2,1.4574584E3,1.2772752E2,4.0552765E2,6.59297E0,5.078904E1],"tree_param":{"num_deleted":"0","num_feature":"28","num_nodes":"31","size_leaf_vector":"1"}},{"base_weights":[-1.8079596E-3,6.195009E-2,-8.093094E-2,-1.1540754E-1,9.7172566E-2,-1.9503514E-1,7.115309E-2,-2.7810415E-2,-8.2069176E-1,3.420636E-1,4.6814803E-2,-7.242597E-2,-3.6373672E-1,1.0345101E-1,-5.9319687E-1,-4.4932878E-3,4.684241E-2,-1.972462E-2,-9.32023E-2,7.841832E-3,3.1153893E-2,-1.3058758E-2,4.2000664E-3,2.6797506E-3,-2.282886E-2,-2.130456E-2,4.5053154E-2,3.6139076E-3,4.777467E-2,-6.4223394E-2,-1.6985292E-2],"categories":[],"categories_nodes":[],"categories_segments":[],"categories_sizes":[],"default_left":[0,0,0,0,0,0,0,0,0,0,0,0,0,0,0,0,0,0,0,0,0,0,0,0,0,0,0,0,0,0,0],"id":39,"left_children":[1,3,5,7,9,11,13,15,17,19,21,23,25,27,29,-1,-1,-1,-1,-1,-1,-1,-1,-1,-1,-1,-1,-1,-1,-1,-1],"loss_changes":[4.8198074E1,3.3062717E1,7.399768E1,5.4164673E1,5.44269E1,5.0362694E1,3.92906E1,4.6850124E1,4.2338524E1,3.9087425E1,4.1973324E1,6.838192E1,8.1227356E1,4.6261963E1,1.4442554E1,0E0,0E0,0E0,0E0,0E0,0E0,0E0,0E0,0E0,0E0,0E0,0E0,0E0,0E0,0E0,0E0],"parents":[2147483647,0,0,1,1,2,2,3,3,4,4,5,5,6,6,7,7,8,8,9,9,10,10,11,11,12,12,13,13,14,14],"right_children":[2,4,6,8,10,12,14,16,18,20,22,24,26,28,30,-1,-1,-1,-1,-1,-1,-1,-1,-1,-1,-1,-1,-1,-1,-1,-1],"split_conditions":[1.8072411E0,3.238E0,5.989053E1,2.9455E0,1.9191E2,8.1417E2,1.4941266E0,2.893E0,-2.7214828E5,1.4567E2,6.5677E2,3.7305024E0,9.7684806E5,2.0919213E0,3.0577E0,-4.4932878E-3,4.684241E-2,-1.972462E-2,-9.32023E-2,7.841832E-3,3.1153893E-2,-1.3058758E-2,4.2000664E-3,2.6797506E-3,-2.282886E-2,-2.130456E-2,4.5053154E-2,3.6139076E-3,4.777467E-2,-6.4223394E-2,-1.6985292E-2],"split_indices":[13,10,25,11,11,11,24,11,20,11,11,13,20,12,10,0,0,0,0,0,0,0,0,0,0,0,0,0,0,0,0],"split_type":[0,0,0,0,0,0,0,0,0,0,0,0,0,0,0,0,0,0,0,0,0,0,0,0,0,0,0,0,0,0,0],"sum_hessian":[9.552155E3,5.289801E3,4.2623545E3,8.7609186E2,4.413709E3,2.4350933E3,1.8272616E3,7.8022626E2,9.5865585E1,7.518161E2,3.661893E3,1.4110197E3,1.0240735E3,1.7433513E3,8.391019E1,7.3392084E2,4.630541E1,6.904111E1,2.6824476E1,4.5407587E2,2.9774023E2,3.9385382E2,3.268039E3,1.0631223E3,3.4789725E2,9.765908E2,4.7482716E1,1.6828667E3,6.048462E1,2.1422861E1,6.2487324E1],"tree_param":{"num_deleted":"0","num_feature":"28","num_nodes":"31","size_leaf_vector":"1"}},{"base_weights":[-6.1313594E-3,2.603543E-2,-1.635823E-1,-5.8627623E-1,3.4872826E-2,-4.0147498E-1,1.2065002E-2,1.1048324E0,-9.770386E-1,1.0107171E-1,-4.1562848E-2,-4.679577E-1,3.876843E-1,6.7467995E-2,-7.508691E-1,6.932676E-2,2.5036082E-2,1.2061848E-2,-6.0535222E-2,-1.1073273E-3,8.401937E-3,-1.0526002E-3,-3.7558254E-2,-5.871613E-2,-1.9593515E-2,9.384376E-2,5.326914E-3,4.9568105E-2,5.7254534E-4,-7.386461E-2,-2.4591113E-2],"categories":[],"categories_nodes":[],"categories_segments":[],"categories_sizes":[],"default_left":[0,0,0,0,0,0,0,0,0,0,0,0,0,0,0,0,0,0,0,0,0,0,0,0,0,0,0,0,0,0,0],"id":40,"left_children":[1,3,5,7,9,11,13,15,17,19,21,23,25,27,29,-1,-1,-1,-1,-1,-1,-1,-1,-1,-1,-1,-1,-1,-1,-1,-1],"loss_changes":[4.8550613E1,4.3094307E1,6.7955185E1,7.595587E1,3.9713547E1,3.6421135E1,3.963318E1,3.004921E0,2.6644203E1,3.470802E1,5.3006042E1,3.380356E1,2.2499403E1,4.5219715E1,1.1219265E1,0E0,0E0,0E0,0E0,0E0,0E0,0E0,0E0,0E0,0E0,0E0,0E0,0E0,0E0,0E0,0E0],"parents":[2147483647,0,0,1,1,2,2,3,3,4,4,5,5,6,6,7,7,8,8,9,9,10,10,11,11,12,12,13,13,14,14],"right_children":[2,4,6,8,10,12,14,16,18,20,22,24,26,28,30,-1,-1,-1,-1,-1,-1,-1,-1,-1,-1,-1,-1,-1,-1,-1,-1],"split_conditions":[3.6129823E0,1.7975E0,6.1551483E1,1.337E0,2.8E0,2.5010874E0,1.5126555E0,3.6898E1,1.4252E0,1.2104E2,7.8384004E0,4.3572643E1,1.4761E0,2.1488E0,3.0577E0,6.932676E-2,2.5036082E-2,1.2061848E-2,-6.0535222E-2,-1.1073273E-3,8.401937E-3,-1.0526002E-3,-3.7558254E-2,-5.871613E-2,-1.9593515E-2,9.384376E-2,5.326914E-3,4.9568105E-2,5.7254534E-4,-7.386461E-2,-2.4591113E-2],"split_indices":[13,11,25,11,3,24,24,25,10,11,26,25,10,10,10,0,0,0,0,0,0,0,0,0,0,0,0,0,0,0,0],"split_type":[0,0,0,0,0,0,0,0,0,0,0,0,0,0,0,0,0,0,0,0,0,0,0,0,0,0,0,0,0,0,0],"sum_hessian":[9.584255E3,7.9590728E3,1.6251818E3,1.1230804E2,7.8467646E3,6.897349E2,9.354469E2,2.0736967E1,9.157107E1,4.204788E3,3.6419766E3,6.3651843E2,5.3216488E1,8.729652E2,6.2481697E1,1.3258998E1,7.477969E0,1.4731626E1,7.683945E1,1.4808031E3,2.723985E3,3.5406643E3,1.013122E2,6.04929E1,5.760256E2,7.549904E0,4.5666584E1,4.894895E1,8.2401624E2,1.51881275E1,4.729357E1],"tree_param":{"num_deleted":"0","num_feature":"28","num_nodes":"31","size_leaf_vector":"1"}},{"base_weights":[-1.456177E-3,2.6309306E-2,-1.5103757E-1,3.0805448E-2,-1.0495147E0,-3.4124643E-1,5.9260778E-2,-1.5367291E-2,1.12121895E-1,2.9612426E-2,-1.1258553E0,4.1623052E-2,-4.438477E-1,1.2968498E-1,-8.818594E-1,-2.9083893E-3,1.11591555E-2,2.69832E-3,1.7018978E-2,-6.429019E-2,-3.9423606E-3,-9.1086775E-3,8.829271E-2,-2.4667546E-2,1.5579767E-2,3.9730715E-3,5.8405668E-2,-5.9921082E-2,1.7746551E-2],"categories":[],"categories_nodes":[],"categories_segments":[],"categories_sizes":[],"default_left":[0,0,0,0,0,0,0,0,0,0,0,0,0,0,0,0,0,0,0,0,0,0,0,0,0,0,0,0,0],"id":41,"left_children":[1,3,5,7,9,11,13,15,17,-1,19,21,23,25,27,-1,-1,-1,-1,-1,-1,-1,-1,-1,-1,-1,-1,-1,-1],"loss_changes":[3.9699947E1,3.903054E1,5.9882736E1,3.015044E1,4.875862E0,3.0892921E1,4.7276783E1,5.231439E1,3.858731E1,0E0,5.3305054E0,6.477098E1,2.3337204E1,3.448079E1,1.9871952E1,0E0,0E0,0E0,0E0,0E0,0E0,0E0,0E0,0E0,0E0,0E0,0E0,0E0,0E0],"parents":[2147483647,0,0,1,1,2,2,3,3,4,4,5,5,6,6,7,7,8,8,10,10,11,11,12,12,13,13,14,14],"right_children":[2,4,6,8,10,12,14,16,18,-1,20,22,24,26,28,-1,-1,-1,-1,-1,-1,-1,-1,-1,-1,-1,-1,-1,-1],"split_conditions":[3.778193E0,1.2587921E1,6.45156E1,1E0,1.5416E0,2.9777E0,4.67023E3,3.356252E-1,3.1901364E0,2.9612426E-2,3.6240864E1,2.7086E0,2.5010874E0,4.06E3,1.1118321E0,-2.9083893E-3,1.11591555E-2,2.69832E-3,1.7018978E-2,-6.429019E-2,-3.9423606E-3,-9.1086775E-3,8.829271E-2,-2.4667546E-2,1.5579767E-2,3.9730715E-3,5.8405668E-2,-5.9921082E-2,1.7746551E-2],"split_indices":[13,26,25,27,10,10,10,21,26,0,25,11,24,11,12,0,0,0,0,0,0,0,0,0,0,0,0,0,0],"split_type":[0,0,0,0,0,0,0,0,0,0,0,0,0,0,0,0,0,0,0,0,0,0,0,0,0,0,0,0,0],"sum_hessian":[9.556925E3,8.0613853E3,1.49554E3,8.0288022E3,3.258303E1,7.8495135E2,7.105887E2,5.1215293E3,2.9072727E3,1.1474886E0,3.1435543E1,1.6602025E2,6.189311E2,6.619194E2,4.866935E1,4.343058E3,7.784713E2,2.3179434E3,5.893293E2,2.707179E1,4.363752E0,1.4773883E2,1.8281418E1,5.811932E2,3.7737923E1,6.324094E2,2.950994E1,3.8775585E1,9.893766E0],"tree_param":{"num_deleted":"0","num_feature":"28","num_nodes":"29","size_leaf_vector":"1"}},{"base_weights":[1.1446763E-2,5.970629E-2,-6.265072E-2,-2.930661E-1,7.435041E-2,2.0167733E-2,-1.7774658E-1,-4.768869E-1,9.550808E-1,1.2448804E0,6.815335E-2,-5.496363E-2,2.0784526E-1,-6.174017E-1,-2.8041795E-2,-3.980799E-2,-3.9967783E-3,6.458362E-2,3.0423447E-3,7.383059E-2,-3.6516983E-2,-4.1535E-2,3.7493499E-3,2.3687464E-4,-3.5973407E-2,2.3749633E-2,-3.390836E-3,-7.5832433E-3,-4.9131755E-2,2.663135E-2,-5.3026597E-3],"categories":[],"categories_nodes":[],"categories_segments":[],"categories_sizes":[],"default_left":[0,0,0,0,0,0,0,0,0,0,0,0,0,0,0,0,0,0,0,0,0,0,0,0,0,0,0,0,0,0,0],"id":42,"left_children":[1,3,5,7,9,11,13,15,17,19,21,23,25,27,29,-1,-1,-1,-1,-1,-1,-1,-1,-1,-1,-1,-1,-1,-1,-1,-1],"loss_changes":[3.416672E1,2.991277E1,3.5926075E1,5.3413044E1,4.021919E1,3.0926739E1,1.0378463E2,2.5518509E1,8.939976E0,1.4445293E1,3.4017883E1,6.214925E1,4.620584E1,6.798628E1,5.15604E1,0E0,0E0,0E0,0E0,0E0,0E0,0E0,0E0,0E0,0E0,0E0,0E0,0E0,0E0,0E0,0E0],"parents":[2147483647,0,0,1,1,2,2,3,3,4,4,5,5,6,6,7,7,8,8,9,9,10,10,11,11,12,12,13,13,14,14],"right_children":[2,4,6,8,10,12,14,16,18,20,22,24,26,28,30,-1,-1,-1,-1,-1,-1,-1,-1,-1,-1,-1,-1,-1,-1,-1,-1],"split_conditions":[9.454165E-1,2.1001E0,2.29E2,4.5255475E0,2.0458E0,1.5361E2,1.18276E3,1E0,2.0045E0,3.761212E-3,2.1007E0,1.4746E2,1.7818E2,4.409988E1,1.90122E3,-3.980799E-2,-3.9967783E-3,6.458362E-2,3.0423447E-3,7.383059E-2,-3.6516983E-2,-4.1535E-2,3.7493499E-3,2.3687464E-4,-3.5973407E-2,2.3749633E-2,-3.390836E-3,-7.5832433E-3,-4.9131755E-2,2.663135E-2,-5.3026597E-3],"split_indices":[24,10,10,26,11,11,10,27,10,2,11,10,11,25,11,0,0,0,0,0,0,0,0,0,0,0,0,0,0,0,0],"split_type":[0,0,0,0,0,0,0,0,0,0,0,0,0,0,0,0,0,0,0,0,0,0,0,0,0,0,0,0,0,0,0],"sum_hessian":[9.552648E3,5.7850513E3,3.767597E3,2.2981699E2,5.5552344E3,2.1915027E3,1.5760944E3,2.0085413E2,2.8962862E1,2.8203146E1,5.5270312E3,1.5655046E3,6.259981E2,3.9955408E2,1.1765403E3,1.1076155E2,9.0092575E1,2.0719538E1,8.243323E0,2.5467724E1,2.7354212E0,4.0793198E1,5.4862383E3,1.4373606E3,1.2814401E2,3.175416E2,3.084565E2,1.7623663E2,2.2331746E2,1.4299635E2,1.033544E3],"tree_param":{"num_deleted":"0","num_feature":"28","num_nodes":"31","size_leaf_vector":"1"}},{"base_weights":[-1.8370337E-3,6.4302996E-2,-5.897773E-2,-1.4789242E-1,1.0450412E-1,-1.7487088E-2,-3.3859435E-1,-5.5642024E-2,-1.2629946E0,1.642532E-1,-7.5346276E-2,8.656165E-2,-1.3233162E-1,-4.231257E-1,5.217768E-1,4.1085113E-2,-5.8147786E-3,-2.9279763E-2,-8.0782756E-2,5.81696E-3,3.1681832E-2,-4.037196E-2,1.0317372E-3,1.2581897E-3,3.8639583E-2,-2.837314E-2,-2.4068742E-3,-5.8528106E-3,-3.411838E-2,-3.3345696E-2,3.6167283E-2],"categories":[],"categories_nodes":[],"categories_segments":[],"categories_sizes":[],"default_left":[0,0,0,0,0,0,0,0,0,0,0,0,0,0,0,0,0,0,0,0,0,0,0,0,0,0,0,0,0,0,0],"id":43,"left_children":[1,3,5,7,9,11,13,15,17,19,21,23,25,27,29,-1,-1,-1,-1,-1,-1,-1,-1,-1,-1,-1,-1,-1,-1,-1,-1],"loss_changes":[3.6141277E1,3.782657E1,5.9515663E1,7.259679E1,4.006295E1,5.340932E1,4.842993E1,3.4869766E1,1.1936951E1,6.2852364E1,6.537232E1,9.878795E1,7.780573E1,4.7854492E1,1.47982235E1,0E0,0E0,0E0,0E0,0E0,0E0,0E0,0E0,0E0,0E0,0E0,0E0,0E0,0E0,0E0,0E0],"parents":[2147483647,0,0,1,1,2,2,3,3,4,4,5,5,6,6,7,7,8,8,9,9,10,10,11,11,12,12,13,13,14,14],"right_children":[2,4,6,8,10,12,14,16,18,20,22,24,26,28,30,-1,-1,-1,-1,-1,-1,-1,-1,-1,-1,-1,-1,-1,-1,-1,-1],"split_conditions":[1.4819804E0,3.162E0,3.3928034E0,2.9592E0,8.97119E4,8.475E2,2.5010874E0,4.3816444E-1,-5.7325136E7,7.9311E4,9.7959E4,7.0049E2,9.6306E2,2.189036E0,-4.7214127E-1,4.1085113E-2,-5.8147786E-3,-2.9279763E-2,-8.0782756E-2,5.81696E-3,3.1681832E-2,-4.037196E-2,1.0317372E-3,1.2581897E-3,3.8639583E-2,-2.837314E-2,-2.4068742E-3,-5.8528106E-3,-3.411838E-2,-3.3345696E-2,3.6167283E-2],"split_indices":[13,10,12,11,11,10,24,24,20,10,11,10,11,13,21,0,0,0,0,0,0,0,0,0,0,0,0,0,0,0,0],"split_type":[0,0,0,0,0,0,0,0,0,0,0,0,0,0,0,0,0,0,0,0,0,0,0,0,0,0,0,0,0,0,0],"sum_hessian":[9.560984E3,4.4314644E3,5.12952E3,7.054065E2,3.7260579E3,4.467654E3,6.61866E2,6.52478E2,5.2928432E1,2.7969534E3,9.291044E2,2.3441284E3,2.1235256E3,6.031179E2,5.8748066E1,4.1379692E1,6.110984E2,1.9031925E1,3.3896507E1,2.5390215E3,2.5793192E2,1.0683216E2,8.222722E2,2.1525718E3,1.9155664E2,3.4334E2,1.7801855E3,2.7724496E2,3.25873E2,8.182956E0,5.0565113E1],"tree_param":{"num_deleted":"0","num_feature":"28","num_nodes":"31","size_leaf_vector":"1"}},{"base_weights":[-5.222314E-3,2.1495942E-2,-1.3963744E-1,-5.559868E-1,2.993841E-2,-3.6946332E-1,9.396037E-3,3.9761233E-1,-1.1303616E0,1.175437E0,2.4456432E-2,-4.3792745E-1,5.1147234E-1,6.297437E-1,-3.4145866E-2,4.5606505E-2,-5.784387E-3,-6.3782774E-2,7.415539E-2,7.914244E-2,2.2511652E-2,-1.4871754E-3,5.9628575E-3,-3.833885E-2,-9.902121E-3,-2.2925662E-2,4.3637652E-2,-7.062789E-2,3.6265552E-2,-4.17034E-2,3.0049097E-3],"categories":[],"categories_nodes":[],"categories_segments":[],"categories_sizes":[],"default_left":[0,0,0,0,0,0,0,0,0,0,0,0,0,0,0,0,0,0,0,0,0,0,0,0,0,0,0,0,0,0,0],"id":44,"left_children":[1,3,5,7,9,11,13,15,17,19,21,23,25,27,29,-1,-1,-1,-1,-1,-1,-1,-1,-1,-1,-1,-1,-1,-1,-1,-1],"loss_changes":[3.4253063E1,3.880697E1,5.417201E1,6.3269295E1,4.922012E1,3.7746727E1,2.5961447E1,1.168731E1,2.9170822E1,1.0317471E1,4.0114056E1,4.542959E1,1.6283943E1,1.332785E1,6.777158E1,0E0,0E0,0E0,0E0,0E0,0E0,0E0,0E0,0E0,0E0,0E0,0E0,0E0,0E0,0E0,0E0],"parents":[2147483647,0,0,1,1,2,2,3,3,4,4,5,5,6,6,7,7,8,8,9,9,10,10,11,11,12,12,13,13,14,14],"right_children":[2,4,6,8,10,12,14,16,18,20,22,24,26,28,30,-1,-1,-1,-1,-1,-1,-1,-1,-1,-1,-1,-1,-1,-1,-1,-1],"split_conditions":[3.6492727E0,1.7975E0,5.162848E5,1.3721E0,1.8253E0,2.5010874E0,1.9442E0,1.337E0,1.9224E0,6.5157294E-1,1E0,5.938E1,5.7230303E-3,3.5335631E0,2.2263E0,4.5606505E-2,-5.784387E-3,-6.3782774E-2,7.415539E-2,7.914244E-2,2.2511652E-2,-1.4871754E-3,5.9628575E-3,-3.833885E-2,-9.902121E-3,-2.2925662E-2,4.3637652E-2,-7.062789E-2,3.6265552E-2,-4.17034E-2,3.0049097E-3],"split_indices":[13,11,20,11,11,24,10,11,10,24,27,25,2,26,11,0,0,0,0,0,0,0,0,0,0,0,0,0,0,0,0],"split_type":[0,0,0,0,0,0,0,0,0,0,0,0,0,0,0,0,0,0,0,0,0,0,0,0,0,0,0,0,0,0,0],"sum_hessian":[9.535853E3,7.9553706E3,1.5804822E3,1.1369269E2,7.841678E3,6.21139E2,9.593432E2,4.2853462E1,7.0839226E1,3.633246E1,7.8053457E3,5.768134E2,4.4325607E1,6.2036564E1,8.9730664E2,2.101331E1,2.1840153E1,6.7593315E1,3.2459106E0,2.250613E1,1.3826329E1,4.966538E3,2.8388076E3,2.4236615E2,3.3444724E2,1.1956101E1,3.2369507E1,2.1571388E0,5.9879425E1,9.3747665E1,8.0355896E2],"tree_param":{"num_deleted":"0","num_feature":"28","num_nodes":"31","size_leaf_vector":"1"}},{"base_weights":[1.1700446E-2,6.464379E-3,5.617585E-1,2.0920305E-2,-3.664403E-1,-2.8382713E-1,8.7952507E-1,1.5418366E-2,1.0695984E0,-1.1230288E0,-2.1064039E-1,-6.981971E-1,1.3436437E0,1.4414395E0,4.553883E-2,2.3659855E-2,2.542509E-4,-3.6994006E-2,6.549368E-2,-1.5967991E-2,-8.145023E-2,5.1069125E-3,-2.7209911E-2,2.3387939E-2,-6.812128E-2,1.9051732E-2,7.678997E-2,3.217616E-2,7.555544E-2,-4.6115387E-2,4.925446E-2],"categories":[],"categories_nodes":[],"categories_segments":[],"categories_sizes":[],"default_left":[0,0,0,0,0,0,0,0,0,0,0,0,0,0,0,0,0,0,0,0,0,0,0,0,0,0,0,0,0,0,0],"id":45,"left_children":[1,3,5,7,9,11,