{"learner":{"attributes":{"scikit_learn":"{\"_estimator_type\": \"classifier\"}"},"feature_names":["comp_score","is_bullish","atr_pct","rsi","macd_hist_norm","vol_ratio"],"feature_types":["float","int","float","float","float","float"],"gradient_booster":{"model":{"gbtree_model_param":{"num_parallel_tree":"1","num_trees":"100"},"iteration_indptr":[0,1,2,3,4,5,6,7,8,9,10,11,12,13,14,15,16,17,18,19,20,21,22,23,24,25,26,27,28,29,30,31,32,33,34,35,36,37,38,39,40,41,42,43,44,45,46,47,48,49,50,51,52,53,54,55,56,57,58,59,60,61,62,63,64,65,66,67,68,69,70,71,72,73,74,75,76,77,78,79,80,81,82,83,84,85,86,87,88,89,90,91,92,93,94,95,96,97,98,99,100],"tree_info":[0,0,0,0,0,0,0,0,0,0,0,0,0,0,0,0,0,0,0,0,0,0,0,0,0,0,0,0,0,0,0,0,0,0,0,0,0,0,0,0,0,0,0,0,0,0,0,0,0,0,0,0,0,0,0,0,0,0,0,0,0,0,0,0,0,0,0,0,0,0,0,0,0,0,0,0,0,0,0,0,0,0,0,0,0,0,0,0,0,0,0,0,0,0,0,0,0,0,0,0],"trees":[{"base_weights":[6.2890336E-2,-1.2415634E0,2.1617411E-1,-7.889363E-2,5.1827973E-4,1.4796697E-2,-5.6037266E-2],"categories":[],"categories_nodes":[],"categories_segments":[],"categories_sizes":[],"default_left":[0,0,0,0,0,0,0],"id":0,"left_children":[1,3,5,-1,-1,-1,-1],"loss_changes":[1.2090347E1,2.696371E0,6.0640965E0,0E0,0E0,0E0,0E0],"parents":[2147483647,0,0,1,1,2,2],"right_children":[2,4,6,-1,-1,-1,-1],"split_conditions":[7.636843E-1,6.303267E1,6.9247444E1,-7.889363E-2,5.1827973E-4,1.4796697E-2,-5.6037266E-2],"split_indices":[5,3,3,0,0,0,0],"split_type":[0,0,0,0,0,0,0],"sum_hessian":[5.812408E1,5.3652997E0,5.2758778E1,4.023975E0,1.3413249E0,5.052324E1,2.2355416E0],"tree_param":{"num_deleted":"0","num_feature":"6","num_nodes":"7","size_leaf_vector":"1"}},{"base_weights":[2.9569618E-2,-6.1012423E-1,2.0307757E-1,1.0132917E-2,-5.657325E-2,-1.24521665E-2,2.6231548E-2],"categories":[],"categories_nodes":[],"categories_segments":[],"categories_sizes":[],"default_left":[0,0,0,0,0,0,0],"id":1,"left_children":[1,3,5,-1,-1,-1,-1],"loss_changes":[6.474891E0,5.508409E0,6.783551E0,0E0,0E0,0E0,0E0],"parents":[2147483647,0,0,1,1,2,2],"right_children":[2,4,6,-1,-1,-1,-1],"split_conditions":[1.0337784E0,1.9305696E0,6.340288E0,1.0132917E-2,-5.657325E-2,-1.24521665E-2,2.6231548E-2],"split_indices":[5,2,0,0,0,0,0],"split_type":[0,0,0,0,0,0,0],"sum_hessian":[5.6220253E1,1.1458465E1,4.4761787E1,4.716541E0,6.741924E0,1.869755E1,2.6064236E1],"tree_param":{"num_deleted":"0","num_feature":"6","num_nodes":"7","size_leaf_vector":"1"}},{"base_weights":[1.0766973E-3,-3.9830193E-1,3.3942E-1,-8.060709E-2,-9.4150035E-3,-2.9463544E-2,3.2695137E-2],"categories":[],"categories_nodes":[],"categories_segments":[],"categories_sizes":[],"default_left":[0,0,0,0,0,0,0],"id":2,"left_children":[1,3,5,-1,-1,-1,-1],"loss_changes":[7.62627E0,6.2948537E0,9.308214E0,0E0,0E0,0E0,0E0],"parents":[2147483647,0,0,1,1,2,2],"right_children":[2,4,6,-1,-1,-1,-1],"split_conditions":[6.480686E0,8.6438006E-1,1.0337784E0,-8.060709E-2,-9.4150035E-3,-2.9463544E-2,3.2695137E-2],"split_indices":[0,2,5,0,0,0,0],"split_type":[0,0,0,0,0,0,0],"sum_hessian":[5.443728E1,2.4885433E1,2.9551846E1,2.685585E0,2.2199848E1,7.2546234E0,2.2297222E1],"tree_param":{"num_deleted":"0","num_feature":"6","num_nodes":"7","size_leaf_vector":"1"}},{"base_weights":[-1.1079372E-2,-4.8167962E-1,3.6704394E-1,-3.950451E-2,8.874175E-3,2.3791315E-2,-6.366507E-2],"categories":[],"categories_nodes":[],"categories_segments":[],"categories_sizes":[],"default_left":[0,0,0,0,0,0,0],"id":3,"left_children":[1,3,5,-1,-1,-1,-1],"loss_changes":[1.0666001E1,5.566977E0,6.5393953E0,0E0,0E0,0E0,0E0],"parents":[2147483647,0,0,1,1,2,2],"right_children":[2,4,6,-1,-1,-1,-1],"split_conditions":[6.340288E0,5.833452E1,6.936334E1,-3.950451E-2,8.874175E-3,2.3791315E-2,-6.366507E-2],"split_indices":[0,3,3,0,0,0,0],"split_type":[0,0,0,0,0,0,0],"sum_hessian":[5.7946346E1,2.569424E1,3.2252106E1,1.7368982E1,8.325258E0,3.0912043E1,1.3400625E0],"tree_param":{"num_deleted":"0","num_feature":"6","num_nodes":"7","size_leaf_vector":"1"}},{"base_weights":[-7.178568E-2,5.116816E-1,-2.516862E-1,3.7418004E-2,-3.2141905E-2,-2.3256704E-2,1.4477982E-2],"categories":[],"categories_nodes":[],"categories_segments":[],"categories_sizes":[],"default_left":[0,0,0,0,0,0,0],"id":4,"left_children":[1,3,5,-1,-1,-1,-1],"loss_changes":[6.475574E0,4.464878E0,5.551299E0,0E0,0E0,0E0,0E0],"parents":[2147483647,0,0,1,1,2,2],"right_children":[2,4,6,-1,-1,-1,-1],"split_conditions":[-1.0876809E0,6.523483E1,7.7048063E0,3.7418004E-2,-3.2141905E-2,-2.3256704E-2,1.4477982E-2],"split_indices":[4,3,0,0,0,0,0],"split_type":[0,0,0,0,0,0,0],"sum_hessian":[5.9465168E1,1.3579343E1,4.5885826E1,1.1561098E1,2.0182443E0,3.300892E1,1.2876907E1],"tree_param":{"num_deleted":"0","num_feature":"6","num_nodes":"7","size_leaf_vector":"1"}},{"base_weights":[1.00628875E-1,-5.636591E-1,3.0196795E-1,-6.608092E-2,-1.5552324E-2,-3.908689E-3,3.523153E-2],"categories":[],"categories_nodes":[],"categories_segments":[],"categories_sizes":[],"default_left":[0,0,0,0,0,0,0],"id":5,"left_children":[1,3,5,-1,-1,-1,-1],"loss_changes":[8.288529E0,2.3589196E0,7.2848353E0,0E0,0E0,0E0,0E0],"parents":[2147483647,0,0,1,1,2,2],"right_children":[2,4,6,-1,-1,-1,-1],"split_conditions":[1.0337784E0,5.3253202E0,6.8324833E0,-6.608092E-2,-1.5552324E-2,-3.908689E-3,3.523153E-2],"split_indices":[5,0,0,0,0,0,0],"split_type":[0,0,0,0,0,0,0],"sum_hessian":[5.9699047E1,1.3467036E1,4.623201E1,2.308532E0,1.11585045E1,2.4195566E1,2.2036446E1],"tree_param":{"num_deleted":"0","num_feature":"6","num_nodes":"7","size_leaf_vector":"1"}},{"base_weights":[5.6235816E-2,-9.6896917E-1,2.0279303E-1,3.5816696E-3,-6.1287213E-2,1.3804525E-2,-5.6766417E-2],"categories":[],"categories_nodes":[],"categories_segments":[],"categories_sizes":[],"default_left":[0,0,0,0,0,0,0],"id":6,"left_children":[1,3,5,-1,-1,-1,-1],"loss_changes":[8.729821E0,2.0320897E0,5.2682276E0,0E0,0E0,0E0,0E0],"parents":[2147483647,0,0,1,1,2,2],"right_children":[2,4,6,-1,-1,-1,-1],"split_conditions":[7.636843E-1,-1.4413949E0,6.9247444E1,3.5816696E-3,-6.1287213E-2,1.3804525E-2,-5.6766417E-2],"split_indices":[5,4,3,0,0,0,0],"split_type":[0,0,0,0,0,0,0],"sum_hessian":[5.5793705E1,6.2764935E0,4.9517212E1,1.3849391E0,4.8915544E0,4.769815E1,1.81906E0],"tree_param":{"num_deleted":"0","num_feature":"6","num_nodes":"7","size_leaf_vector":"1"}},{"base_weights":[3.172795E-2,6.431411E-1,-1.6783726E-1,4.38861E-2,-1.9415807E-2,-1.9366454E-2,1.5194939E-2],"categories":[],"categories_nodes":[],"categories_segments":[],"categories_sizes":[],"default_left":[0,0,0,0,0,0,0],"id":7,"left_children":[1,3,5,-1,-1,-1,-1],"loss_changes":[7.345405E0,3.9226274E0,4.8301272E0,0E0,0E0,0E0,0E0],"parents":[2147483647,0,0,1,1,2,2],"right_children":[2,4,6,-1,-1,-1,-1],"split_conditions":[-1.0876809E0,3.2979364E0,7.632134E0,4.38861E-2,-1.9415807E-2,-1.9366454E-2,1.5194939E-2],"split_indices":[4,2,0,0,0,0,0],"split_type":[0,0,0,0,0,0,0],"sum_hessian":[5.8315296E1,1.3803239E1,4.451206E1,1.1367104E1,2.4361355E0,3.0499853E1,1.4012203E1],"tree_param":{"num_deleted":"0","num_feature":"6","num_nodes":"7","size_leaf_vector":"1"}},{"base_weights":[6.358351E-2,-2.972292E-1,3.5208473E-1,-4.1590508E-2,3.1546445E-3,3.7438657E-2,-1.4311029E-3],"categories":[],"categories_nodes":[],"categories_segments":[],"categories_sizes":[],"default_left":[0,0,0,0,0,0,0],"id":8,"left_children":[1,3,5,-1,-1,-1,-1],"loss_changes":[6.1424108E0,5.1210656E0,4.9581494E0,0E0,0E0,0E0,0E0],"parents":[2147483647,0,0,1,1,2,2],"right_children":[2,4,6,-1,-1,-1,-1],"split_conditions":[6.26894E0,4.391237E1,5.0708466E1,-4.1590508E-2,3.1546445E-3,3.7438657E-2,-1.4311029E-3],"split_indices":[0,3,3,0,0,0,0],"split_type":[0,0,0,0,0,0,0],"sum_hessian":[5.7002464E1,2.5313725E1,3.1688742E1,9.665411E0,1.5648313E1,1.5045183E1,1.6643559E1],"tree_param":{"num_deleted":"0","num_feature":"6","num_nodes":"7","size_leaf_vector":"1"}},{"base_weights":[3.3609822E-2,-8.1148046E-1,1.5291695E-1,-5.302893E-2,5.046966E-3,-1.908307E-2,1.6964853E-2],"categories":[],"categories_nodes":[],"categories_segments":[],"categories_sizes":[],"default_left":[0,0,0,0,0,0,0],"id":9,"left_children":[1,3,5,-1,-1,-1,-1],"loss_changes":[6.1005826E0,1.8097734E0,5.388626E0,0E0,0E0,0E0,0E0],"parents":[2147483647,0,0,1,1,2,2],"right_children":[2,4,6,-1,-1,-1,-1],"split_conditions":[1.0203196E0,2.4967854E0,1.0142182E0,-5.302893E-2,5.046966E-3,-1.908307E-2,1.6964853E-2],"split_indices":[2,5,5,0,0,0,0],"split_type":[0,0,0,0,0,0,0],"sum_hessian":[5.8275738E1,6.4916573E0,5.178408E1,4.9719057E0,1.5197515E0,1.3116208E1,3.866787E1],"tree_param":{"num_deleted":"0","num_feature":"6","num_nodes":"7","size_leaf_vector":"1"}},{"base_weights":[-6.9645345E-2,-7.9832953E-1,4.8785612E-2,1.9379027E-2,-5.1888645E-2,5.9055756E-3,-6.6863276E-2],"categories":[],"categories_nodes":[],"categories_segments":[],"categories_sizes":[],"default_left":[0,0,0,0,0,0,0],"id":10,"left_children":[1,3,5,-1,-1,-1,-1],"loss_changes":[5.2696037E0,2.824757E0,5.258334E0,0E0,0E0,0E0,0E0],"parents":[2147483647,0,0,1,1,2,2],"right_children":[2,4,6,-1,-1,-1,-1],"split_conditions":[8.293219E-1,3.934431E1,6.936334E1,1.9379027E-2,-5.1888645E-2,5.9055756E-3,-6.6863276E-2],"split_indices":[5,3,3,0,0,0,0],"split_type":[0,0,0,0,0,0,0],"sum_hessian":[5.961102E1,7.5313153E0,5.2079704E1,1.161246E0,6.3700695E0,5.0470135E1,1.609571E0],"tree_param":{"num_deleted":"0","num_feature":"6","num_nodes":"7","size_leaf_vector":"1"}},{"base_weights":[2.193934E-2,-7.147964E-1,1.5332927E-1,-6.848372E-2,-3.3279092E-3,-1.9365111E-2,1.747625E-2],"categories":[],"categories_nodes":[],"categories_segments":[],"categories_sizes":[],"default_left":[0,0,0,0,0,0,0],"id":11,"left_children":[1,3,5,-1,-1,-1,-1],"loss_changes":[5.5350733E0,3.5849428E0,5.2679706E0,0E0,0E0,0E0,0E0],"parents":[2147483647,0,0,1,1,2,2],"right_children":[2,4,6,-1,-1,-1,-1],"split_conditions":[1.0203196E0,6.0347986E0,1.0337784E0,-6.848372E-2,-3.3279092E-3,-1.9365111E-2,1.747625E-2],"split_indices":[2,0,5,0,0,0,0],"split_type":[0,0,0,0,0,0,0],"sum_hessian":[5.5048485E1,7.659502E0,4.7388985E1,3.2566135E0,4.4028883E0,1.2358947E1,3.5030037E1],"tree_param":{"num_deleted":"0","num_feature":"6","num_nodes":"7","size_leaf_vector":"1"}},{"base_weights":[-4.3704998E-2,-3.683882E-1,2.1952148E-1,-1.1622147E-2,-8.180055E-2,2.9595086E-2,-1.126069E-2],"categories":[],"categories_nodes":[],"categories_segments":[],"categories_sizes":[],"default_left":[0,0,0,0,0,0,0],"id":12,"left_children":[1,3,5,-1,-1,-1,-1],"loss_changes":[5.0056605E0,4.130088E0,5.507384E0,0E0,0E0,0E0,0E0],"parents":[2147483647,0,0,1,1,2,2],"right_children":[2,4,6,-1,-1,-1,-1],"split_conditions":[6.26894E0,6.1657143E0,5.5035656E1,-1.1622147E-2,-8.180055E-2,2.9595086E-2,-1.126069E-2],"split_indices":[0,0,3,0,0,0,0],"split_type":[0,0,0,0,0,0,0],"sum_hessian":[5.6623344E1,2.5173256E1,3.1450087E1,2.3803804E1,1.3694524E0,1.693738E1,1.4512707E1],"tree_param":{"num_deleted":"0","num_feature":"6","num_nodes":"7","size_leaf_vector":"1"}},{"base_weights":[-9.5313616E-2,-4.220156E-1,1.9108836E-1,-1.2098323E-2,-7.2763644E-2,3.254978E-2,-1.0172672E-2],"categories":[],"categories_nodes":[],"categories_segments":[],"categories_sizes":[],"default_left":[0,0,0,0,0,0,0],"id":13,"left_children":[1,3,5,-1,-1,-1,-1],"loss_changes":[5.4107018E0,4.656317E0,5.765234E0,0E0,0E0,0E0,0E0],"parents":[2147483647,0,0,1,1,2,2],"right_children":[2,4,6,-1,-1,-1,-1],"split_conditions":[6.26894E0,6.019268E0,5.0708466E1,-1.2098323E-2,-7.2763644E-2,3.254978E-2,-1.0172672E-2],"split_indices":[0,0,3,0,0,0,0],"split_type":[0,0,0,0,0,0,0],"sum_hessian":[5.5964493E1,2.592175E1,3.0042742E1,2.3126112E1,2.7956376E0,1.3572096E1,1.6470646E1],"tree_param":{"num_deleted":"0","num_feature":"6","num_nodes":"7","size_leaf_vector":"1"}},{"base_weights":[2.0365978E-2,-4.6698856E-1,1.8028018E-1,6.676166E-3,-4.3198373E-2,1.3473007E-2,-4.8451874E-2],"categories":[],"categories_nodes":[],"categories_segments":[],"categories_sizes":[],"default_left":[0,0,0,0,0,0,0],"id":14,"left_children":[1,3,5,-1,-1,-1,-1],"loss_changes":[4.49994E0,3.518817E0,4.7076716E0,0E0,0E0,0E0,0E0],"parents":[2147483647,0,0,1,1,2,2],"right_children":[2,4,6,-1,-1,-1,-1],"split_conditions":[1.0337784E0,4.8968567E1,6.9247444E1,6.676166E-3,-4.3198373E-2,1.3473007E-2,-4.8451874E-2],"split_indices":[5,3,3,0,0,0,0],"split_type":[0,0,0,0,0,0,0],"sum_hessian":[5.5659477E1,1.32768135E1,4.2382664E1,5.5479913E0,7.728822E0,4.0041256E1,2.341407E0],"tree_param":{"num_deleted":"0","num_feature":"6","num_nodes":"7","size_leaf_vector":"1"}},{"base_weights":[7.407698E-4,-5.215163E-1,1.7229569E-1,-3.7580844E-2,1.8007625E-2,-4.7290046E-2,1.4245805E-2],"categories":[],"categories_nodes":[],"categories_segments":[],"categories_sizes":[],"default_left":[0,0,0,0,0,0,0],"id":15,"left_children":[1,3,5,-1,-1,-1,-1],"loss_changes":[5.1460032E0,3.151926E0,5.7131085E0,0E0,0E0,0E0,0E0],"parents":[2147483647,0,0,1,1,2,2],"right_children":[2,4,6,-1,-1,-1,-1],"split_conditions":[1.0337784E0,6.402327E1,7.347677E-1,-3.7580844E-2,1.8007625E-2,-4.7290046E-2,1.4245805E-2],"split_indices":[5,3,2,0,0,0,0],"split_type":[0,0,0,0,0,0,0],"sum_hessian":[5.5432888E1,1.3202168E1,4.223072E1,1.058672E1,2.6154482E0,3.1874597E0,3.904326E1],"tree_param":{"num_deleted":"0","num_feature":"6","num_nodes":"7","size_leaf_vector":"1"}},{"base_weights":[1.19146526E-1,-3.631543E-1,5.4589665E-1,-4.8609663E-2,4.614063E-4,-3.9789014E-2,3.2871757E-2],"categories":[],"categories_nodes":[],"categories_segments":[],"categories_sizes":[],"default_left":[0,0,0,0,0,0,0],"id":16,"left_children":[1,3,5,-1,-1,-1,-1],"loss_changes":[1.1354868E1,5.9162936E0,4.886671E0,0E0,0E0,0E0,0E0],"parents":[2147483647,0,0,1,1,2,2],"right_children":[2,4,6,-1,-1,-1,-1],"split_conditions":[6.340288E0,4.391237E1,6.56633E-1,-4.8609663E-2,4.614063E-4,-3.9789014E-2,3.2871757E-2],"split_indices":[0,3,5,0,0,0,0],"split_type":[0,0,0,0,0,0,0],"sum_hessian":[5.320521E1,2.504692E1,2.815829E1,8.892431E0,1.615449E1,1.690383E0,2.6467907E1],"tree_param":{"num_deleted":"0","num_feature":"6","num_nodes":"7","size_leaf_vector":"1"}},{"base_weights":[3.443867E-2,-4.284654E-1,1.5509276E-1,2.7301613E-2,-4.3862287E-2,-2.1640139E-2,1.3702111E-2],"categories":[],"categories_nodes":[],"categories_segments":[],"categories_sizes":[],"default_left":[0,0,0,0,0,0,0],"id":17,"left_children":[1,3,5,-1,-1,-1,-1],"loss_changes":[3.138652E0,5.5690427E0,3.2212582E0,0E0,0E0,0E0,0E0],"parents":[2147483647,0,0,1,1,2,2],"right_children":[2,4,6,-1,-1,-1,-1],"split_conditions":[5.2273293E0,1.217445E0,1.0203196E0,2.7301613E-2,-4.3862287E-2,-2.1640139E-2,1.3702111E-2],"split_indices":[0,2,2,0,0,0,0],"split_type":[0,0,0,0,0,0,0],"sum_hessian":[5.4006805E1,1.0638753E1,4.3368053E1,3.2862244E0,7.3525286E0,6.854054E0,3.6514E1],"tree_param":{"num_deleted":"0","num_feature":"6","num_nodes":"7","size_leaf_vector":"1"}},{"base_weights":[-4.9592115E-2,1.5286023E-2,-7.656287E-2,1.9679494E-2,-1.0765908E-2],"categories":[],"categories_nodes":[],"categories_segments":[],"categories_sizes":[],"default_left":[0,0,0,0,0],"id":18,"left_children":[1,3,-1,-1,-1],"loss_changes":[5.5388913E0,4.9665923E0,0E0,0E0,0E0],"parents":[2147483647,0,0,1,1],"right_children":[2,4,-1,-1,-1],"split_conditions":[6.9247444E1,-4.4576758E-1,-7.656287E-2,1.9679494E-2,-1.0765908E-2],"split_indices":[3,4,0,0,0],"split_type":[0,0,0,0,0],"sum_hessian":[5.6376648E1,5.495979E1,1.4168586E0,2.054657E1,3.441322E1],"tree_param":{"num_deleted":"0","num_feature":"6","num_nodes":"5","size_leaf_vector":"1"}},{"base_weights":[4.8643917E-2,-2.3379001E-1,2.783744E-1,-4.865372E-3,-7.636174E-2,1.8937409E-2,-5.4421134E-2],"categories":[],"categories_nodes":[],"categories_segments":[],"categories_sizes":[],"default_left":[0,0,0,0,0,0,0],"id":19,"left_children":[1,3,5,-1,-1,-1,-1],"loss_changes":[3.7457688E0,4.4392147E0,4.7665215E0,0E0,0E0,0E0,0E0],"parents":[2147483647,0,0,1,1,2,2],"right_children":[2,4,6,-1,-1,-1,-1],"split_conditions":[6.340288E0,6.1657143E0,6.9247444E1,-4.865372E-3,-7.636174E-2,1.8937409E-2,-5.4421134E-2],"split_indices":[0,0,3,0,0,0,0],"split_type":[0,0,0,0,0,0,0],"sum_hessian":[5.5727478E1,2.498854E1,3.0738937E1,2.3576057E1,1.412483E0,2.9309427E1,1.4295093E0],"tree_param":{"num_deleted":"0","num_feature":"6","num_nodes":"7","size_leaf_vector":"1"}},{"base_weights":[-7.71338E-2,2.9522896E-1,-2.6789236E-1,2.7639493E-2,-2.8815383E-2,-3.674951E-2,9.822267E-3],"categories":[],"categories_nodes":[],"categories_segments":[],"categories_sizes":[],"default_left":[0,0,0,0,0,0,0],"id":20,"left_children":[1,3,5,-1,-1,-1,-1],"loss_changes":[4.1192517E0,4.750465E0,8.415546E0,0E0,0E0,0E0,0E0],"parents":[2147483647,0,0,1,1,2,2],"right_children":[2,4,6,-1,-1,-1,-1],"split_conditions":[-4.8085687E-1,3.109038E0,6.701996E-1,2.7639493E-2,-2.8815383E-2,-3.674951E-2,9.822267E-3],"split_indices":[4,2,4,0,0,0,0],"split_type":[0,0,0,0,0,0,0],"sum_hessian":[5.587855E1,1.8743458E1,3.713509E1,1.475015E1,3.9933088E0,1.822195E1,1.8913141E1],"tree_param":{"num_deleted":"0","num_feature":"6","num_nodes":"7","size_leaf_vector":"1"}},{"base_weights":[4.946831E-3,-2.162544E-1,4.531006E-1,2.5427734E-2,-1.8135048E-2,-2.1474514E-2,3.702658E-2],"categories":[],"categories_nodes":[],"categories_segments":[],"categories_sizes":[],"default_left":[0,0,0,0,0,0,0],"id":21,"left_children":[1,3,5,-1,-1,-1,-1],"loss_changes":[5.557016E0,4.1698866E0,5.0166416E0,0E0,0E0,0E0,0E0],"parents":[2147483647,0,0,1,1,2,2],"right_children":[2,4,6,-1,-1,-1,-1],"split_conditions":[7.3690085E0,-1.3318324E0,1.0142182E0,2.5427734E-2,-1.8135048E-2,-2.1474514E-2,3.702658E-2],"split_indices":[0,4,5,0,0,0,0],"split_type":[0,0,0,0,0,0,0],"sum_hessian":[5.406821E1,3.6546783E1,1.752143E1,5.7274146E0,3.0819368E1,4.1829505E0,1.3338478E1],"tree_param":{"num_deleted":"0","num_feature":"6","num_nodes":"7","size_leaf_vector":"1"}},{"base_weights":[1.5200827E-1,2.0201164E-1,-5.1297646E-2,3.403009E-2,2.8568436E-3],"categories":[],"categories_nodes":[],"categories_segments":[],"categories_sizes":[],"default_left":[0,0,0,0,0],"id":22,"left_children":[1,3,-1,-1,-1],"loss_changes":[3.5149093E0,3.7540507E0,0E0,0E0,0E0],"parents":[2147483647,0,0,1,1],"right_children":[2,4,-1,-1,-1],"split_conditions":[6.9247444E1,-1.0722116E0,-5.1297646E-2,3.403009E-2,2.8568436E-3],"split_indices":[3,4,0,0,0],"split_type":[0,0,0,0,0],"sum_hessian":[5.515519E1,5.370401E1,1.451179E0,1.16199465E1,4.2084064E1],"tree_param":{"num_deleted":"0","num_feature":"6","num_nodes":"5","size_leaf_vector":"1"}},{"base_weights":[-3.8332768E-2,-4.834329E-1,1.687157E-1,2.16586E-3,-4.355219E-2,3.463687E-2,-8.001514E-4],"categories":[],"categories_nodes":[],"categories_segments":[],"categories_sizes":[],"default_left":[0,0,0,0,0,0,0],"id":23,"left_children":[1,3,5,-1,-1,-1,-1],"loss_changes":[5.3904395E0,3.8247647E0,3.888626E0,0E0,0E0,0E0,0E0],"parents":[2147483647,0,0,1,1,2,2],"right_children":[2,4,6,-1,-1,-1,-1],"split_conditions":[5.8038816E0,5.0106306E0,-9.728937E-1,2.16586E-3,-4.355219E-2,3.463687E-2,-8.001514E-4],"split_indices":[0,0,4,0,0,0,0],"split_type":[0,0,0,0,0,0,0],"sum_hessian":[5.660669E1,1.7548061E1,3.9058628E1,7.8154187E0,9.732643E0,9.463042E0,2.9595585E1],"tree_param":{"num_deleted":"0","num_feature":"6","num_nodes":"7","size_leaf_vector":"1"}},{"base_weights":[8.903165E-2,-6.9266385E-1,2.0624807E-1,-5.3074043E-2,2.7748143E-2,-5.2003115E-2,1.4281124E-2],"categories":[],"categories_nodes":[],"categories_segments":[],"categories_sizes":[],"default_left":[0,0,0,0,0,0,0],"id":24,"left_children":[1,3,5,-1,-1,-1,-1],"loss_changes":[5.4261103E0,4.1543884E0,5.3335266E0,0E0,0E0,0E0,0E0],"parents":[2147483647,0,0,1,1,2,2],"right_children":[2,4,6,-1,-1,-1,-1],"split_conditions":[7.636843E-1,6.303267E1,7.2998023E-1,-5.3074043E-2,2.7748143E-2,-5.2003115E-2,1.4281124E-2],"split_indices":[5,3,2,0,0,0,0],"split_type":[0,0,0,0,0,0,0],"sum_hessian":[5.6660053E1,6.7482047E0,4.991185E1,5.323653E0,1.4245514E0,2.263762E0,4.7648087E1],"tree_param":{"num_deleted":"0","num_feature":"6","num_nodes":"7","size_leaf_vector":"1"}},{"base_weights":[-5.0517265E-2,3.950681E-1,-1.7931105E-1,3.5534937E-2,-3.5371307E-2,-1.3057585E-2,2.7332222E-2],"categories":[],"categories_nodes":[],"categories_segments":[],"categories_sizes":[],"default_left":[0,0,0,0,0,0,0],"id":25,"left_children":[1,3,5,-1,-1,-1,-1],"loss_changes":[3.3085682E0,5.013565E0,2.7839367E0,0E0,0E0,0E0,0E0],"parents":[2147483647,0,0,1,1,2,2],"right_children":[2,4,6,-1,-1,-1,-1],"split_conditions":[-1.0876809E0,3.2979364E0,2.7154894E0,3.5534937E-2,-3.5371307E-2,-1.3057585E-2,2.7332222E-2],"split_indices":[4,2,5,0,0,0,0],"split_type":[0,0,0,0,0,0,0],"sum_hessian":[5.5417595E1,1.1962773E1,4.3454823E1,9.576508E0,2.386265E0,3.962766E1,3.8271618E0],"tree_param":{"num_deleted":"0","num_feature":"6","num_nodes":"7","size_leaf_vector":"1"}},{"base_weights":[-3.914831E-2,-7.35424E-1,5.145945E-2,-7.2080367E-3,-6.334014E-2,-1.1015518E-2,1.452262E-2],"categories":[],"categories_nodes":[],"categories_segments":[],"categories_sizes":[],"default_left":[0,0,0,0,0,0,0],"id":26,"left_children":[1,3,5,-1,-1,-1,-1],"loss_changes":[3.4686825E0,1.8053277E0,3.2501297E0,0E0,0E0,0E0,0E0],"parents":[2147483647,0,0,1,1,2,2],"right_children":[2,4,6,-1,-1,-1,-1],"split_conditions":[7.636843E-1,2.6202118E0,6.340288E0,-7.2080367E-3,-6.334014E-2,-1.1015518E-2,1.452262E-2],"split_indices":[5,2,0,0,0,0,0],"split_type":[0,0,0,0,0,0,0],"sum_hessian":[5.33818E1,5.3273315E0,4.805447E1,3.12332E0,2.2040114E0,2.2521927E1,2.5532541E1],"tree_param":{"num_deleted":"0","num_feature":"6","num_nodes":"7","size_leaf_vector":"1"}},{"base_weights":[3.6197424E-2,4.8270625E-1,-1.8007044E-1,-1.1647514E-2,3.5287272E-2,-2.3906974E-2,5.068358E-3],"categories":[],"categories_nodes":[],"categories_segments":[],"categories_sizes":[],"default_left":[0,0,0,0,0,0,0],"id":27,"left_children":[1,3,5,-1,-1,-1,-1],"loss_changes":[5.655715E0,3.2114239E0,3.368688E0,0E0,0E0,0E0,0E0],"parents":[2147483647,0,0,1,1,2,2],"right_children":[2,4,6,-1,-1,-1,-1],"split_conditions":[-4.4576758E-1,5.6330204E0,6.6745704E-1,-1.1647514E-2,3.5287272E-2,-2.3906974E-2,5.068358E-3],"split_indices":[4,0,4,0,0,0,0],"split_type":[0,0,0,0,0,0,0],"sum_hessian":[5.6668556E1,1.8089275E1,3.857928E1,4.2875514E0,1.38017235E1,1.8396612E1,2.018267E1],"tree_param":{"num_deleted":"0","num_feature":"6","num_nodes":"7","size_leaf_vector":"1"}},{"base_weights":[-8.4868886E-2,4.0495098E-1,-2.0454423E-1,2.9846681E-2,-1.6649261E-2,2.6582282E-3,-2.2405319E-2],"categories":[],"categories_nodes":[],"categories_segments":[],"categories_sizes":[],"default_left":[0,0,0,0,0,0,0],"id":28,"left_children":[1,3,5,-1,-1,-1,-1],"loss_changes":[3.3590553E0,1.8010184E0,2.8848035E0,0E0,0E0,0E0,0E0],"parents":[2147483647,0,0,1,1,2,2],"right_children":[2,4,6,-1,-1,-1,-1],"split_conditions":[-1.2168881E0,6.554993E1,5.029871E1,2.9846681E-2,-1.6649261E-2,2.6582282E-3,-2.2405319E-2],"split_indices":[4,3,3,0,0,0,0],"split_type":[0,0,0,0,0,0,0],"sum_hessian":[5.488981E1,1.03096485E1,4.4580162E1,8.332841E0,1.9768076E0,2.204085E1,2.2539312E1],"tree_param":{"num_deleted":"0","num_feature":"6","num_nodes":"7","size_leaf_vector":"1"}},{"base_weights":[5.6991797E-2,1.11019045E-1,-8.208203E-1,2.0965723E-2,-2.8791227E-3,2.903048E-3,-6.635534E-2],"categories":[],"categories_nodes":[],"categories_segments":[],"categories_sizes":[],"default_left":[0,0,0,0,0,0,0],"id":29,"left_children":[1,3,5,-1,-1,-1,-1],"loss_changes":[2.7848747E0,2.851127E0,1.5954149E0,0E0,0E0,0E0,0E0],"parents":[2147483647,0,0,1,1,2,2],"right_children":[2,4,6,-1,-1,-1,-1],"split_conditions":[6.9247444E1,-4.4576758E-1,2.3198483E0,2.0965723E-2,-2.8791227E-3,2.903048E-3,-6.635534E-2],"split_indices":[3,4,5,0,0,0,0],"split_type":[0,0,0,0,0,0,0],"sum_hessian":[5.579924E1,5.338693E1,2.4123116E0,1.8348627E1,3.5038303E1,1.2053026E0,1.2070088E0],"tree_param":{"num_deleted":"0","num_feature":"6","num_nodes":"7","size_leaf_vector":"1"}},{"base_weights":[-5.6977715E-2,-9.8183286E-1,2.3644673E-2,-6.7788094E-2,-9.134893E-3,3.9796503E-3,-6.299599E-2],"categories":[],"categories_nodes":[],"categories_segments":[],"categories_sizes":[],"default_left":[0,0,0,0,0,0,0],"id":30,"left_children":[1,3,5,-1,-1,-1,-1],"loss_changes":[4.152528E0,1.0862408E0,3.828497E0,0E0,0E0,0E0,0E0],"parents":[2147483647,0,0,1,1,2,2],"right_children":[2,4,6,-1,-1,-1,-1],"split_conditions":[4.833201E0,1E0,6.936334E1,-6.7788094E-2,-9.134893E-3,3.9796503E-3,-6.299599E-2],"split_indices":[0,1,3,0,0,0,0],"split_type":[0,0,0,0,0,0,0],"sum_hessian":[5.4379417E1,3.4640138E0,5.09154E1,1.8853087E0,1.578705E0,4.96876E1,1.2278047E0],"tree_param":{"num_deleted":"0","num_feature":"6","num_nodes":"7","size_leaf_vector":"1"}},{"base_weights":[1.9137741E-3,-3.2077676E-1,1.5060484E-1,4.240413E-2,-2.2489076E-2,1.0340995E-2,-4.2573687E-2],"categories":[],"categories_nodes":[],"categories_segments":[],"categories_sizes":[],"default_left":[0,0,0,0,0,0,0],"id":31,"left_children":[1,3,5,-1,-1,-1,-1],"loss_changes":[2.768436E0,3.1261148E0,2.400616E0,0E0,0E0,0E0,0E0],"parents":[2147483647,0,0,1,1,2,2],"right_children":[2,4,6,-1,-1,-1,-1],"split_conditions":[5.753909E0,3.1169891E1,3.7702847E0,4.240413E-2,-2.2489076E-2,1.0340995E-2,-4.2573687E-2],"split_indices":[0,3,2,0,0,0,0],"split_type":[0,0,0,0,0,0,0],"sum_hessian":[5.5691486E1,1.7202074E1,3.8489414E1,1.1558005E0,1.6046272E1,3.719636E1,1.2930499E0],"tree_param":{"num_deleted":"0","num_feature":"6","num_nodes":"7","size_leaf_vector":"1"}},{"base_weights":[-9.121921E-4,-4.617063E-1,1.5135941E-1,-3.550853E-2,2.051747E-2,-4.2014923E-3,3.3535726E-2],"categories":[],"categories_nodes":[],"categories_segments":[],"categories_sizes":[],"default_left":[0,0,0,0,0,0,0],"id":32,"left_children":[1,3,5,-1,-1,-1,-1],"loss_changes":[4.0491967E0,3.397038E0,5.3595734E0,0E0,0E0,0E0,0E0],"parents":[2147483647,0,0,1,1,2,2],"right_children":[2,4,6,-1,-1,-1,-1],"split_conditions":[1.0337784E0,6.402327E1,7.54904E0,-3.550853E-2,2.051747E-2,-4.2014923E-3,3.3535726E-2],"split_indices":[5,3,0,0,0,0,0],"split_type":[0,0,0,0,0,0,0],"sum_hessian":[5.571295E1,1.3333099E1,4.2379852E1,1.0521089E1,2.81201E0,2.9739233E1,1.264062E1],"tree_param":{"num_deleted":"0","num_feature":"6","num_nodes":"7","size_leaf_vector":"1"}},{"base_weights":[3.5706325E-3,-4.9185374E-1,1.7109329E-1,1.7973423E-2,-3.998813E-2,-3.7265774E-2,1.4227375E-2],"categories":[],"categories_nodes":[],"categories_segments":[],"categories_sizes":[],"default_left":[0,0,0,0,0,0,0],"id":33,"left_children":[1,3,5,-1,-1,-1,-1],"loss_changes":[4.6297674E0,3.9830167E0,4.5447116E0,0E0,0E0,0E0,0E0],"parents":[2147483647,0,0,1,1,2,2],"right_children":[2,4,6,-1,-1,-1,-1],"split_conditions":[1.0632924E0,4.0392143E1,7.347677E-1,1.7973423E-2,-3.998813E-2,-3.7265774E-2,1.4227375E-2],"split_indices":[5,3,2,0,0,0,0],"split_type":[0,0,0,0,0,0,0],"sum_hessian":[5.376987E1,1.309809E1,4.067178E1,3.434569E0,9.663522E0,3.867043E0,3.6804737E1],"tree_param":{"num_deleted":"0","num_feature":"6","num_nodes":"7","size_leaf_vector":"1"}},{"base_weights":[-5.698419E-2,6.382265E-3,-5.863424E-2,-5.3484086E-3,3.1188611E-2],"categories":[],"categories_nodes":[],"categories_segments":[],"categories_sizes":[],"default_left":[0,0,0,0,0],"id":34,"left_children":[1,3,-1,-1,-1],"loss_changes":[3.8957136E0,3.778299E0,0E0,0E0,0E0],"parents":[2147483647,0,0,1,1],"right_children":[2,4,-1,-1,-1],"split_conditions":[6.9247444E1,6.457433E1,-5.863424E-2,-5.3484086E-3,3.1188611E-2],"split_indices":[3,3,0,0,0],"split_type":[0,0,0,0,0],"sum_hessian":[5.399773E1,5.2036583E1,1.9611493E0,4.466331E1,7.3732715E0],"tree_param":{"num_deleted":"0","num_feature":"6","num_nodes":"5","size_leaf_vector":"1"}},{"base_weights":[3.4097105E-2,-6.1298794E-1,1.2145234E-1,-6.504825E-2,-6.3373554E-3,-2.3695626E-3,2.2292545E-2],"categories":[],"categories_nodes":[],"categories_segments":[],"categories_sizes":[],"default_left":[0,0,0,0,0,0,0],"id":35,"left_children":[1,3,5,-1,-1,-1,-1],"loss_changes":[3.2533643E0,2.1280468E0,2.7807646E0,0E0,0E0,0E0,0E0],"parents":[2147483647,0,0,1,1,2,2],"right_children":[2,4,6,-1,-1,-1,-1],"split_conditions":[7.636843E-1,6.4239345E0,6.6745704E-1,-6.504825E-2,-6.3373554E-3,-2.3695626E-3,2.2292545E-2],"split_indices":[5,0,4,0,0,0,0],"split_type":[0,0,0,0,0,0,0],"sum_hessian":[5.5237854E1,5.8543673E0,4.9383488E1,1.7304354E0,4.123932E0,3.3040443E1,1.6343044E1],"tree_param":{"num_deleted":"0","num_feature":"6","num_nodes":"7","size_leaf_vector":"1"}},{"base_weights":[-5.8434404E-2,-1.1770122E-1,4.8356194E-2,1.1739627E-2,-1.5222633E-2],"categories":[],"categories_nodes":[],"categories_segments":[],"categories_sizes":[],"default_left":[0,0,0,0,0],"id":36,"left_children":[1,3,-1,-1,-1],"loss_changes":[3.5443347E0,3.642553E0,0E0,0E0,0E0],"parents":[2147483647,0,0,1,1],"right_children":[2,4,-1,-1,-1],"split_conditions":[2.8915365E0,-4.7921753E-1,4.8356194E-2,1.1739627E-2,-1.5222633E-2],"split_indices":[5,4,0,0,0],"split_type":[0,0,0,0,0],"sum_hessian":[5.5439857E1,5.3247902E1,2.1919537E0,1.8351728E1,3.4896175E1],"tree_param":{"num_deleted":"0","num_feature":"6","num_nodes":"5","size_leaf_vector":"1"}},{"base_weights":[4.18202E-2,-5.487094E-1,1.5591305E-1,2.4684828E-2,-3.8655166E-2,2.3797797E-2,-2.80169E-3],"categories":[],"categories_nodes":[],"categories_segments":[],"categories_sizes":[],"default_left":[0,0,0,0,0,0,0],"id":37,"left_children":[1,3,5,-1,-1,-1,-1],"loss_changes":[3.7567465E0,2.4971867E0,3.1771092E0,0E0,0E0,0E0,0E0],"parents":[2147483647,0,0,1,1,2,2],"right_children":[2,4,6,-1,-1,-1,-1],"split_conditions":[1.0203196E0,4.956622E0,2.0264428E0,2.4684828E-2,-3.8655166E-2,2.3797797E-2,-2.80169E-3],"split_indices":[2,0,2,0,0,0,0],"split_type":[0,0,0,0,0,0,0],"sum_hessian":[5.348882E1,8.044131E0,4.5444687E1,1.2123077E0,6.831824E0,1.760908E1,2.7835608E1],"tree_param":{"num_deleted":"0","num_feature":"6","num_nodes":"7","size_leaf_vector":"1"}},{"base_weights":[5.0056953E-2,4.7748035E-1,-7.5354286E-2,3.628074E-2,-1.9050041E-2,-1.4759051E-2,1.0128628E-2],"categories":[],"categories_nodes":[],"categories_segments":[],"categories_sizes":[],"default_left":[0,0,0,0,0,0,0],"id":38,"left_children":[1,3,5,-1,-1,-1,-1],"loss_changes":[2.990399E0,2.9688954E0,2.7160258E0,0E0,0E0,0E0,0E0],"parents":[2147483647,0,0,1,1,2,2],"right_children":[2,4,6,-1,-1,-1,-1],"split_conditions":[-1.0933744E0,3.2979364E0,6.701996E-1,3.628074E-2,-1.9050041E-2,-1.4759051E-2,1.0128628E-2],"split_indices":[4,2,4,0,0,0,0],"split_type":[0,0,0,0,0,0,0],"sum_hessian":[5.4115948E1,1.1639428E1,4.247652E1,9.149605E0,2.4898229E0,2.3682625E1,1.8793894E1],"tree_param":{"num_deleted":"0","num_feature":"6","num_nodes":"7","size_leaf_vector":"1"}},{"base_weights":[-9.928528E-2,-5.638899E-1,-1.1305823E-2,-5.0110533E-3,-5.237632E-2,-1.0015181E-2,1.8196663E-2],"categories":[],"categories_nodes":[],"categories_segments":[],"categories_sizes":[],"default_left":[0,0,0,0,0,0,0],"id":39,"left_children":[1,3,5,-1,-1,-1,-1],"loss_changes":[2.1334386E0,1.7594788E0,3.2667518E0,0E0,0E0,0E0,0E0],"parents":[2147483647,0,0,1,1,2,2],"right_children":[2,4,6,-1,-1,-1,-1],"split_conditions":[1.0203196E0,5.638883E-1,6.701996E-1,-5.0110533E-3,-5.237632E-2,-1.0015181E-2,1.8196663E-2],"split_indices":[2,4,4,0,0,0,0],"split_type":[0,0,0,0,0,0,0],"sum_hessian":[5.134934E1,7.3143196E0,4.403502E1,4.3505816E0,2.963738E0,2.9595009E1,1.444001E1],"tree_param":{"num_deleted":"0","num_feature":"6","num_nodes":"7","size_leaf_vector":"1"}},{"base_weights":[-9.547068E-2,2.2049831E-1,-2.59117E-1,-2.7554113E-2,2.2046467E-2,-2.025476E-2,1.017123E-2],"categories":[],"categories_nodes":[],"categories_segments":[],"categories_sizes":[],"default_left":[0,0,0,0,0,0,0],"id":40,"left_children":[1,3,5,-1,-1,-1,-1],"loss_changes":[2.875217E0,3.4976645E0,2.5377843E0,0E0,0E0,0E0,0E0],"parents":[2147483647,0,0,1,1,2,2],"right_children":[2,4,6,-1,-1,-1,-1],"split_conditions":[-4.7921753E-1,3.8952705E1,3.1161482E0,-2.7554113E-2,2.2046467E-2,-2.025476E-2,1.017123E-2],"split_indices":[4,3,2,0,0,0,0],"split_type":[0,0,0,0,0,0,0],"sum_hessian":[5.3500797E1,1.8136112E1,3.5364685E1,3.6966414E0,1.4439471E1,2.6975435E1,8.38925E0],"tree_param":{"num_deleted":"0","num_feature":"6","num_nodes":"7","size_leaf_vector":"1"}},{"base_weights":[-2.3606235E-2,-6.059552E-1,8.12981E-2,-5.6730743E-2,1.196141E-2,1.8634995E-2,-4.94589E-3],"categories":[],"categories_nodes":[],"categories_segments":[],"categories_sizes":[],"default_left":[0,0,0,0,0,0,0],"id":41,"left_children":[1,3,5,-1,-1,-1,-1],"loss_changes":[3.4628432E0,4.135271E0,2.5696507E0,0E0,0E0,0E0,0E0],"parents":[2147483647,0,0,1,1,2,2],"right_children":[2,4,6,-1,-1,-1,-1],"split_conditions":[1.0203196E0,7.1022606E0,1.9890275E0,-5.6730743E-2,1.196141E-2,1.8634995E-2,-4.94589E-3],"split_indices":[2,0,2,0,0,0,0],"split_type":[0,0,0,0,0,0,0],"sum_hessian":[5.4877037E1,7.647527E0,4.722951E1,4.4940586E0,3.1534686E0,1.763934E1,2.959017E1],"tree_param":{"num_deleted":"0","num_feature":"6","num_nodes":"7","size_leaf_vector":"1"}},{"base_weights":[8.270932E-2,-9.0081334E-2,4.228959E-1,2.4308078E-2,-1.2155403E-2,2.7508086E-2,-4.1848272E-2],"categories":[],"categories_nodes":[],"categories_segments":[],"categories_sizes":[],"default_left":[0,0,0,0,0,0,0],"id":42,"left_children":[1,3,5,-1,-1,-1,-1],"loss_changes":[3.4419277E0,3.5771646E0,3.6160512E0,0E0,0E0,0E0,0E0],"parents":[2147483647,0,0,1,1,2,2],"right_children":[2,4,6,-1,-1,-1,-1],"split_conditions":[7.345376E0,5.0106306E0,6.9247444E1,2.4308078E-2,-1.2155403E-2,2.7508086E-2,-4.1848272E-2],"split_indices":[0,0,3,0,0,0,0],"split_type":[0,0,0,0,0,0,0],"sum_hessian":[5.6906963E1,3.8226044E1,1.868092E1,7.5643787E0,3.0661665E1,1.7478619E1,1.2022996E0],"tree_param":{"num_deleted":"0","num_feature":"6","num_nodes":"7","size_leaf_vector":"1"}},{"base_weights":[4.063954E-3,-8.560738E-1,6.70882E-2,-9.555963E-3,-6.002286E-2,-1.1065401E-2,1.6259506E-2],"categories":[],"categories_nodes":[],"categories_segments":[],"categories_sizes":[],"default_left":[0,0,0,0,0,0,0],"id":43,"left_children":[1,3,5,-1,-1,-1,-1],"loss_changes":[2.9198694E0,6.1272526E-1,3.803102E0,0E0,0E0,0E0,0E0],"parents":[2147483647,0,0,1,1,2,2],"right_children":[2,4,6,-1,-1,-1,-1],"split_conditions":[6.56633E-1,2.1193793E0,6.340288E0,-9.555963E-3,-6.002286E-2,-1.1065401E-2,1.6259506E-2],"split_indices":[5,2,0,0,0,0,0],"split_type":[0,0,0,0,0,0,0],"sum_hessian":[5.1803204E1,2.6775458E0,4.912566E1,1.44412E0,1.2334256E0,2.3268553E1,2.5857105E1],"tree_param":{"num_deleted":"0","num_feature":"6","num_nodes":"7","size_leaf_vector":"1"}},{"base_weights":[-1.1751175E-2,-3.9528635E-1,8.5753575E-2,2.1754846E-3,-5.8910366E-2,-7.382004E-4,2.5801891E-2],"categories":[],"categories_nodes":[],"categories_segments":[],"categories_sizes":[],"default_left":[0,0,0,0,0,0,0],"id":44,"left_children":[1,3,5,-1,-1,-1,-1],"loss_changes":[2.0016356E0,3.7765577E0,1.8576636E0,0E0,0E0,0E0,0E0],"parents":[2147483647,0,0,1,1,2,2],"right_children":[2,4,6,-1,-1,-1,-1],"split_conditions":[5.223636E0,5.0106306E0,6.457433E1,2.1754846E-3,-5.8910366E-2,-7.382004E-4,2.5801891E-2],"split_indices":[0,0,3,0,0,0,0],"split_type":[0,0,0,0,0,0,0],"sum_hessian":[5.1618248E1,9.843762E0,4.1774483E1,6.9134665E0,2.9302962E0,3.4646492E1,7.12799E0],"tree_param":{"num_deleted":"0","num_feature":"6","num_nodes":"7","size_leaf_vector":"1"}},{"base_weights":[4.016678E-2,2.5561118E-1,-2.5808835E-1,-3.1842273E-3,2.4261205E-2,-2.8179353E-2,1.7028838E-2],"categories":[],"categories_nodes":[],"categories_segments":[],"categories_sizes":[],"default_left":[0,0,0,0,0,0,0],"id":45,"left_children":[1,3,5,-1,-1,-1,-1],"loss_changes":[3.451602E0,2.3105047E0,4.324387E0,0E0,0E0,0E0,0E0],"parents":[2147483647,0,0,1,1,2,2],"right_children":[2,4,6,-1,-1,-1,-1],"split_conditions":[1.9560566E0,1.0632924E0,6.701996E-1,-3.1842273E-3,2.4261205E-2,-2.8179353E-2,1.7028838E-2],"split_indices":[5,5,4,0,0,0,0],"split_type":[0,0,0,0,0,0,0],"sum_hessian":[5.168859E1,3.009353E1,2.1595062E1,1.2890654E1,1.7202877E1,1.4337323E1,7.2577395E0],"tree_param":{"num_deleted":"0","num_feature":"6","num_nodes":"7","size_leaf_vector":"1"}},{"base_weights":[3.8220484E-3,6.053541E-2,-4.641293E-2,-1.6565517E-2,9.983159E-3],"categories":[],"categories_nodes":[],"categories_segments":[],"categories_sizes":[],"default_left":[0,0,0,0,0],"id":46,"left_children":[1,3,-1,-1,-1],"loss_changes":[3.0310652E0,3.0093818E0,0E0,0E0,0E0],"parents":[2147483647,0,0,1,1],"right_children":[2,4,-1,-1,-1],"split_conditions":[3.7702847E0,1.0337784E0,-4.641293E-2,-1.6565517E-2,9.983159E-3],"split_indices":[2,5,0,0,0],"split_type":[0,0,0,0,0],"sum_hessian":[5.5276817E1,5.2987778E1,2.2890399E0,1.352212E1,3.9465656E1],"tree_param":{"num_deleted":"0","num_feature":"6","num_nodes":"5","size_leaf_vector":"1"}},{"base_weights":[-6.762733E-2,-9.809495E-3,-5.351888E-2,1.8762978E-2,-1.0451379E-2],"categories":[],"categories_nodes":[],"categories_segments":[],"categories_sizes":[],"default_left":[0,0,0,0,0],"id":47,"left_children":[1,3,-1,-1,-1],"loss_changes":[3.1571238E0,4.118647E0,0E0,0E0,0E0],"parents":[2147483647,0,0,1,1],"right_children":[2,4,-1,-1,-1],"split_conditions":[6.9247444E1,-4.4576758E-1,-5.351888E-2,1.8762978E-2,-1.0451379E-2],"split_indices":[3,4,0,0,0],"split_type":[0,0,0,0,0],"sum_hessian":[5.3636005E1,5.166672E1,1.9692822E0,1.7314953E1,3.435177E1],"tree_param":{"num_deleted":"0","num_feature":"6","num_nodes":"5","size_leaf_vector":"1"}},{"base_weights":[7.331174E-2,-2.1417314E-2,5.021098E-1,2.4997306E-3,-5.820006E-2,-1.0002676E-2,4.9662318E-2],"categories":[],"categories_nodes":[],"categories_segments":[],"categories_sizes":[],"default_left":[0,0,0,0,0,0,0],"id":48,"left_children":[1,3,5,-1,-1,-1,-1],"loss_changes":[2.2366445E0,3.7986352E0,3.632229E0,0E0,0E0,0E0,0E0],"parents":[2147483647,0,0,1,1,2,2],"right_children":[2,4,6,-1,-1,-1,-1],"split_conditions":[6.457433E1,6.3480534E1,-6.350087E-1,2.4997306E-3,-5.820006E-2,-1.0002676E-2,4.9662318E-2],"split_indices":[3,3,4,0,0,0,0],"split_type":[0,0,0,0,0,0,0],"sum_hessian":[5.3798393E1,4.484205E1,8.9563465E0,4.310426E1,1.7377882E0,3.9301705E0,5.026176E0],"tree_param":{"num_deleted":"0","num_feature":"6","num_nodes":"7","size_leaf_vector":"1"}},{"base_weights":[-3.5703845E-2,-2.732116E-1,1.9755374E-1,-3.3519554E-3,-5.4585677E-2,-3.2928504E-2,1.5014246E-2],"categories":[],"categories_nodes":[],"categories_segments":[],"categories_sizes":[],"default_left":[0,0,0,0,0,0,0],"id":49,"left_children":[1,3,5,-1,-1,-1,-1],"loss_changes":[3.2091773E0,4.759695E0,2.7759218E0,0E0,0E0,0E0,0E0],"parents":[2147483647,0,0,1,1,2,2],"right_children":[2,4,6,-1,-1,-1,-1],"split_conditions":[6.480686E0,6.019268E0,6.56633E-1,-3.3519554E-3,-5.4585677E-2,-3.2928504E-2,1.5014246E-2],"split_indices":[0,0,5,0,0,0,0],"split_type":[0,0,0,0,0,0,0],"sum_hessian":[5.5952625E1,2.7638866E1,2.8313759E1,2.2941927E1,4.6969385E0,2.4538302E0,2.5859928E1],"tree_param":{"num_deleted":"0","num_feature":"6","num_nodes":"7","size_leaf_vector":"1"}},{"base_weights":[-2.3374923E-2,-6.437655E-1,6.1437532E-2,-1.1895398E-3,-5.277697E-2,-4.3349876E-3,1.6756533E-2],"categories":[],"categories_nodes":[],"categories_segments":[],"categories_sizes":[],"default_left":[0,0,0,0,0,0,0],"id":50,"left_children":[1,3,5,-1,-1,-1,-1],"loss_changes":[2.8898454E0,1.6603234E0,1.9982322E0,0E0,0E0,0E0,0E0],"parents":[2147483647,0,0,1,1,2,2],"right_children":[2,4,6,-1,-1,-1,-1],"split_conditions":[7.636843E-1,2.4918726E-1,6.701996E-1,-1.1895398E-3,-5.277697E-2,-4.3349876E-3,1.6756533E-2],"split_indices":[5,4,4,0,0,0,0],"split_type":[0,0,0,0,0,0,0],"sum_hessian":[5.3170746E1,5.602058E0,4.7568687E1,2.6579595E0,2.9440987E0,3.1306932E1,1.6261755E1],"tree_param":{"num_deleted":"0","num_feature":"6","num_nodes":"7","size_leaf_vector":"1"}},{"base_weights":[7.925394E-3,-5.527619E-1,9.4502136E-2,3.0521068E-3,-5.327462E-2,1.1509546E-2,-2.0332685E-2],"categories":[],"categories_nodes":[],"categories_segments":[],"categories_sizes":[],"default_left":[0,0,0,0,0,0,0],"id":51,"left_children":[1,3,5,-1,-1,-1,-1],"loss_changes":[2.7534087E0,2.4534314E0,3.4295087E0,0E0,0E0,0E0,0E0],"parents":[2147483647,0,0,1,1,2,2],"right_children":[2,4,6,-1,-1,-1,-1],"split_conditions":[7.636843E-1,2.1193793E0,6.3480534E1,3.0521068E-3,-5.327462E-2,1.1509546E-2,-2.0332685E-2],"split_indices":[5,2,3,0,0,0,0],"split_type":[0,0,0,0,0,0,0],"sum_hessian":[5.4645515E1,6.589035E0,4.805648E1,3.399885E0,3.1891503E0,3.8242844E1,9.813634E0],"tree_param":{"num_deleted":"0","num_feature":"6","num_nodes":"7","size_leaf_vector":"1"}},{"base_weights":[-3.6446713E-2,6.185469E-1,-1.19021125E-1,-1.2199565E-2,4.5887247E-2,1.6258685E-2,-1.406496E-2],"categories":[],"categories_nodes":[],"categories_segments":[],"categories_sizes":[],"default_left":[0,0,0,0,0,0,0],"id":52,"left_children":[1,3,5,-1,-1,-1,-1],"loss_changes":[2.9660988E0,1.8107069E0,3.575308E0,0E0,0E0,0E0,0E0],"parents":[2147483647,0,0,1,1,2,2],"right_children":[2,4,6,-1,-1,-1,-1],"split_conditions":[3.3204594E1,9.9299955E-1,-8.605084E-1,-1.2199565E-2,4.5887247E-2,1.6258685E-2,-1.406496E-2],"split_indices":[3,2,4,0,0,0,0],"split_type":[0,0,0,0,0,0,0],"sum_hessian":[5.2479527E1,5.148669E0,4.7330856E1,1.3735291E0,3.7751398E0,1.2396044E1,3.4934814E1],"tree_param":{"num_deleted":"0","num_feature":"6","num_nodes":"7","size_leaf_vector":"1"}},{"base_weights":[-4.72044E-2,1.9261694E-2,-7.733274E-1,-6.81521E-3,1.6737333E-2,-5.8457192E-2,7.5492645E-3],"categories":[],"categories_nodes":[],"categories_segments":[],"categories_sizes":[],"default_left":[0,0,0,0,0,0,0],"id":53,"left_children":[1,3,5,-1,-1,-1,-1],"loss_changes":[2.6526423E0,2.5509243E0,1.8622379E0,0E0,0E0,0E0,0E0],"parents":[2147483647,0,0,1,1,2,2],"right_children":[2,4,6,-1,-1,-1,-1],"split_conditions":[1.7377441E0,6.701996E-1,1.369712E0,-6.81521E-3,1.6737333E-2,-5.8457192E-2,7.5492645E-3],"split_indices":[4,4,2,0,0,0,0],"split_type":[0,0,0,0,0,0,0],"sum_hessian":[5.3654087E1,5.0046524E1,3.6075647E0,3.38989E1,1.6147621E1,2.340443E0,1.2671217E0],"tree_param":{"num_deleted":"0","num_feature":"6","num_nodes":"7","size_leaf_vector":"1"}},{"base_weights":[4.722665E-3,-4.0343207E-1,1.3820072E-1,-1.656073E-4,-7.226541E-2,3.544931E-2,-5.374798E-3],"categories":[],"categories_nodes":[],"categories_segments":[],"categories_sizes":[],"default_left":[0,0,0,0,0,0,0],"id":54,"left_children":[1,3,5,-1,-1,-1,-1],"loss_changes":[3.0797067E0,5.803898E0,6.046539E0,0E0,0E0,0E0,0E0],"parents":[2147483647,0,0,1,1,2,2],"right_children":[2,4,6,-1,-1,-1,-1],"split_conditions":[1.0337784E0,9.117659E-1,1.6598284E0,-1.656073E-4,-7.226541E-2,3.544931E-2,-5.374798E-3],"split_indices":[5,5,5,0,0,0,0],"split_type":[0,0,0,0,0,0,0],"sum_hessian":[5.4506035E1,1.2933865E1,4.157217E1,1.0069842E1,2.8640223E0,1.1942519E1,2.962965E1],"tree_param":{"num_deleted":"0","num_feature":"6","num_nodes":"7","size_leaf_vector":"1"}},{"base_weights":[-7.266694E-2,-4.6319604E-1,6.370554E-2,-2.7365058E-3,-4.7871538E-2,2.4653718E-2,-5.6312066E-3],"categories":[],"categories_nodes":[],"categories_segments":[],"categories_sizes":[],"default_left":[0,0,0,0,0,0,0],"id":55,"left_children":[1,3,5,-1,-1,-1,-1],"loss_changes":[2.8704526E0,2.7592127E0,3.1154723E0,0E0,0E0,0E0,0E0],"parents":[2147483647,0,0,1,1,2,2],"right_children":[2,4,6,-1,-1,-1,-1],"split_conditions":[1.0337784E0,2.6202118E0,1.6215266E0,-2.7365058E-3,-4.7871538E-2,2.4653718E-2,-5.6312066E-3],"split_indices":[5,2,5,0,0,0,0],"split_type":[0,0,0,0,0,0,0],"sum_hessian":[5.234363E1,1.2927286E1,3.9416348E1,7.6859126E0,5.241374E0,1.0951862E1,2.8464483E1],"tree_param":{"num_deleted":"0","num_feature":"6","num_nodes":"7","size_leaf_vector":"1"}},{"base_weights":[-5.7304025E-2,4.8771463E-2,-1.2094402E-1,8.6548785E-3,-1.5529257E-2],"categories":[],"categories_nodes":[],"categories_segments":[],"categories_sizes":[],"default_left":[0,0,0,0,0],"id":56,"left_children":[1,-1,3,-1,-1],"loss_changes":[3.4364169E0,0E0,2.7554562E0,0E0,0E0],"parents":[2147483647,0,0,2,2],"right_children":[2,-1,4,-1,-1],"split_conditions":[3.1328125E1,4.8771463E-2,-2.2499913E-1,8.6548785E-3,-1.5529257E-2],"split_indices":[3,0,4,0,0],"split_type":[0,0,0,0,0],"sum_hessian":[4.9491264E1,2.0411248E0,4.7450138E1,1.8638338E1,2.8811802E1],"tree_param":{"num_deleted":"0","num_feature":"6","num_nodes":"5","size_leaf_vector":"1"}},{"base_weights":[-1.671681E-2,-2.895679E-1,2.1829087E-1,-8.420762E-3,-7.095816E-2,1.5322189E-2,-4.553714E-2],"categories":[],"categories_nodes":[],"categories_segments":[],"categories_sizes":[],"default_left":[0,0,0,0,0,0,0],"id":57,"left_children":[1,3,5,-1,-1,-1,-1],"loss_changes":[3.6651149E0,3.3771057E0,3.3395E0,0E0,0E0,0E0,0E0],"parents":[2147483647,0,0,1,1,2,2],"right_children":[2,4,6,-1,-1,-1,-1],"split_conditions":[6.340288E0,6.1657143E0,6.936334E1,-8.420762E-3,-7.095816E-2,1.5322189E-2,-4.553714E-2],"split_indices":[0,0,3,0,0,0,0],"split_type":[0,0,0,0,0,0,0],"sum_hessian":[5.51726E1,2.5423258E1,2.974934E1,2.3998444E1,1.4248149E0,2.8270601E1,1.4787389E0],"tree_param":{"num_deleted":"0","num_feature":"6","num_nodes":"7","size_leaf_vector":"1"}},{"base_weights":[-7.455515E-2,-3.393403E-1,1.6074184E-1,-4.3088146E-2,-3.6558488E-3,2.8982857E-2,-8.098981E-3],"categories":[],"categories_nodes":[],"categories_segments":[],"categories_sizes":[],"default_left":[0,0,0,0,0,0,0],"id":58,"left_children":[1,3,5,-1,-1,-1,-1],"loss_changes":[3.3128858E0,3.404085E0,3.9292588E0,0E0,0E0,0E0,0E0],"parents":[2147483647,0,0,1,1,2,2],"right_children":[2,4,6,-1,-1,-1,-1],"split_conditions":[6.340288E0,4.1481525E1,5.1478977E1,-4.3088146E-2,-3.6558488E-3,2.8982857E-2,-8.098981E-3],"split_indices":[0,3,3,0,0,0,0],"split_type":[0,0,0,0,0,0,0],"sum_hessian":[5.129815E1,2.3928581E1,2.7369566E1,7.322434E0,1.6606148E1,1.1563357E1,1.580621E1],"tree_param":{"num_deleted":"0","num_feature":"6","num_nodes":"7","size_leaf_vector":"1"}},{"base_weights":[2.0754611E-2,-2.0530832E-1,2.2216894E-1,1.2682609E-3,-4.422789E-2,3.0443221E-2,-5.368497E-3],"categories":[],"categories_nodes":[],"categories_segments":[],"categories_sizes":[],"default_left":[0,0,0,0,0,0,0],"id":59,"left_children":[1,3,5,-1,-1,-1,-1],"loss_changes":[2.64961E0,4.325937E0,3.980586E0,0E0,0E0,0E0,0E0],"parents":[2147483647,0,0,1,1,2,2],"right_children":[2,4,6,-1,-1,-1,-1],"split_conditions":[6.340288E0,2.4366338E0,5.157965E1,1.2682609E-3,-4.422789E-2,3.0443221E-2,-5.368497E-3],"split_indices":[0,5,3,0,0,0,0],"split_type":[0,0,0,0,0,0,0],"sum_hessian":[5.6190086E1,2.6465958E1,2.972413E1,2.0475218E1,5.99074E0,1.3286058E1,1.6438072E1],"tree_param":{"num_deleted":"0","num_feature":"6","num_nodes":"7","size_leaf_vector":"1"}},{"base_weights":[9.4452664E-2,3.3700567E-1,-9.244461E-2,3.755081E-2,-6.9357897E-3,-2.7074916E-2,5.539868E-3],"categories":[],"categories_nodes":[],"categories_segments":[],"categories_sizes":[],"default_left":[0,0,0,0,0,0,0],"id":60,"left_children":[1,3,5,-1,-1,-1,-1],"loss_changes":[2.5082247E0,4.830209E0,2.9482749E0,0E0,0E0,0E0,0E0],"parents":[2147483647,0,0,1,1,2,2],"right_children":[2,4,6,-1,-1,-1,-1],"split_conditions":[4.9260895E1,1.9296807E0,1.0632924E0,3.755081E-2,-6.9357897E-3,-2.7074916E-2,5.539868E-3],"split_indices":[3,5,5,0,0,0,0],"split_type":[0,0,0,0,0,0,0],"sum_hessian":[5.364227E1,2.2995644E1,3.0646626E1,1.1985886E1,1.1009758E1,9.030298E0,2.1616327E1],"tree_param":{"num_deleted":"0","num_feature":"6","num_nodes":"7","size_leaf_vector":"1"}},{"base_weights":[2.5868742E-2,-3.872773E-1,1.06184326E-1,1.4924317E-3,-6.451268E-2,3.1874735E-2,2.615003E-4],"categories":[],"categories_nodes":[],"categories_segments":[],"categories_sizes":[],"default_left":[0,0,0,0,0,0,0],"id":61,"left_children":[1,3,5,-1,-1,-1,-1],"loss_changes":[1.8876939E0,3.5311177E0,2.5378757E0,0E0,0E0,0E0,0E0],"parents":[2147483647,0,0,1,1,2,2],"right_children":[2,4,6,-1,-1,-1,-1],"split_conditions":[1.0203196E0,9.0914315E-1,1.3127444E0,1.4924317E-3,-6.451268E-2,3.1874735E-2,2.615003E-4],"split_indices":[2,2,2,0,0,0,0],"split_type":[0,0,0,0,0,0,0],"sum_hessian":[5.464967E1,8.2726965E0,4.6376972E1,6.320099E0,1.9525981E0,6.5564556E0,3.9820515E1],"tree_param":{"num_deleted":"0","num_feature":"6","num_nodes":"7","size_leaf_vector":"1"}},{"base_weights":[-3.8217347E-2,-2.432944E-1,1.6173239E-1,-2.8744487E-3,-5.341754E-2,2.7809734E-2,-6.430754E-3],"categories":[],"categories_nodes":[],"categories_segments":[],"categories_sizes":[],"default_left":[0,0,0,0,0,0,0],"id":62,"left_children":[1,3,5,-1,-1,-1,-1],"loss_changes":[2.1925843E0,3.9738412E0,3.185495E0,0E0,0E0,0E0,0E0],"parents":[2147483647,0,0,1,1,2,2],"right_children":[2,4,6,-1,-1,-1,-1],"split_conditions":[6.340288E0,6.019268E0,4.9577E1,-2.8744487E-3,-5.341754E-2,2.7809734E-2,-6.430754E-3],"split_indices":[0,0,3,0,0,0,0],"split_type":[0,0,0,0,0,0,0],"sum_hessian":[5.1511406E1,2.532264E1,2.6188766E1,2.1541176E1,3.7814653E0,1.0715378E1,1.5473389E1],"tree_param":{"num_deleted":"0","num_feature":"6","num_nodes":"7","size_leaf_vector":"1"}},{"base_weights":[-3.2431535E-2,-4.9865708E-1,6.950993E-2,-4.8677217E-2,1.0848634E-2,2.1081358E-2,-6.815497E-3],"categories":[],"categories_nodes":[],"categories_segments":[],"categories_sizes":[],"default_left":[0,0,0,0,0,0,0],"id":63,"left_children":[1,3,5,-1,-1,-1,-1],"loss_changes":[2.5646248E0,3.4986043E0,3.2867212E0,0E0,0E0,0E0,0E0],"parents":[2147483647,0,0,1,1,2,2],"right_children":[2,4,6,-1,-1,-1,-1],"split_conditions":[1.0203196E0,7.1022606E0,1.9890275E0,-4.8677217E-2,1.0848634E-2,2.1081358E-2,-6.815497E-3],"split_indices":[2,0,2,0,0,0,0],"split_type":[0,0,0,0,0,0,0],"sum_hessian":[5.2231327E1,8.673194E0,4.3558132E1,4.9968886E0,3.676305E0,1.5681556E1,2.7876577E1],"tree_param":{"num_deleted":"0","num_feature":"6","num_nodes":"7","size_leaf_vector":"1"}},{"base_weights":[-1.3133277E-1,-7.9809755E-2,-5.206671E-2,-3.6416773E-2,-1.4441431E-3],"categories":[],"categories_nodes":[],"categories_segments":[],"categories_sizes":[],"default_left":[0,0,0,0,0],"id":64,"left_children":[1,3,-1,-1,-1],"loss_changes":[2.43535E0,1.6937206E0,0E0,0E0,0E0],"parents":[2147483647,0,0,1,1],"right_children":[2,4,-1,-1,-1],"split_conditions":[3.7841916E0,7.2998023E-1,-5.206671E-2,-3.6416773E-2,-1.4441431E-3],"split_indices":[2,2,0,0,0],"split_type":[0,0,0,0,0],"sum_hessian":[5.2714508E1,5.0919235E1,1.7952733E0,2.7389276E0,4.8180305E1],"tree_param":{"num_deleted":"0","num_feature":"6","num_nodes":"5","size_leaf_vector":"1"}},{"base_weights":[3.0595465E-2,2.5537926E-1,-1.5271008E-1,-2.481938E-2,2.4935653E-2,-3.3335123E-2,6.102377E-3],"categories":[],"categories_nodes":[],"categories_segments":[],"categories_sizes":[],"default_left":[0,0,0,0,0,0,0],"id":65,"left_children":[1,3,5,-1,-1,-1,-1],"loss_changes":[2.238116E0,4.701454E0,4.3214273E0,0E0,0E0,0E0,0E0],"parents":[2147483647,0,0,1,1,2,2],"right_children":[2,4,6,-1,-1,-1,-1],"split_conditions":[4.9260895E1,1.0981065E0,5.721997E1,-2.481938E-2,2.4935653E-2,-3.3335123E-2,6.102377E-3],"split_indices":[3,2,3,0,0,0,0],"split_type":[0,0,0,0,0,0,0],"sum_hessian":[5.23713E1,2.3347527E1,2.9023775E1,5.454914E0,1.7892612E1,9.613386E0,1.9410389E1],"tree_param":{"num_deleted":"0","num_feature":"6","num_nodes":"7","size_leaf_vector":"1"}},{"base_weights":[3.5324894E-2,-4.0125725E-1,1.4749734E-1,-3.9402675E-3,-4.81044E-2,1.2043849E-2,-2.195387E-2],"categories":[],"categories_nodes":[],"categories_segments":[],"categories_sizes":[],"default_left":[0,0,0,0,0,0,0],"id":66,"left_children":[1,3,5,-1,-1,-1,-1],"loss_changes":[2.7966945E0,2.0391607E0,2.581756E0,0E0,0E0,0E0,0E0],"parents":[2147483647,0,0,1,1,2,2],"right_children":[2,4,6,-1,-1,-1,-1],"split_conditions":[5.2039666E0,5.0106306E0,1.4533346E0,-3.9402675E-3,-4.81044E-2,1.2043849E-2,-2.195387E-2],"split_indices":[0,0,4,0,0,0,0],"split_type":[0,0,0,0,0,0,0],"sum_hessian":[5.4898937E1,1.0695242E1,4.4203693E1,7.514986E0,3.1802564E0,3.8641518E1,5.5621767E0],"tree_param":{"num_deleted":"0","num_feature":"6","num_nodes":"7","size_leaf_vector":"1"}},{"base_weights":[-2.25518E-2,2.5633803E-1,-1.5665735E-1,1.9785697E-2,-1.7823813E-2,-2.0054642E-2,4.805331E-3],"categories":[],"categories_nodes":[],"categories_segments":[],"categories_sizes":[],"default_left":[0,0,0,0,0,0,0],"id":67,"left_children":[1,3,5,-1,-1,-1,-1],"loss_changes":[2.0689454E0,1.6779022E0,2.3401027E0,0E0,0E0,0E0,0E0],"parents":[2147483647,0,0,1,1,2,2],"right_children":[2,4,6,-1,-1,-1,-1],"split_conditions":[-4.7921753E-1,6.554993E1,6.9040847E-1,1.9785697E-2,-1.7823813E-2,-2.0054642E-2,4.805331E-3],"split_indices":[4,3,4,0,0,0,0],"split_type":[0,0,0,0,0,0,0],"sum_hessian":[5.3244694E1,1.6993353E1,3.6251343E1,1.4133222E1,2.8601317E0,1.813096E1,1.812038E1],"tree_param":{"num_deleted":"0","num_feature":"6","num_nodes":"7","size_leaf_vector":"1"}},{"base_weights":[-6.785408E-2,-1.5377687E-2,-6.969649E-1,-7.87244E-3,1.3546591E-2,-6.420138E-2,9.585294E-3],"categories":[],"categories_nodes":[],"categories_segments":[],"categories_sizes":[],"default_left":[0,0,0,0,0,0,0],"id":68,"left_children":[1,3,5,-1,-1,-1,-1],"loss_changes":[1.8068075E0,2.1512337E0,2.4457343E0,0E0,0E0,0E0,0E0],"parents":[2147483647,0,0,1,1,2,2],"right_children":[2,4,6,-1,-1,-1,-1],"split_conditions":[1.8517075E0,6.701996E-1,1E0,-7.87244E-3,1.3546591E-2,-6.420138E-2,9.585294E-3],"split_indices":[4,4,1,0,0,0,0],"split_type":[0,0,0,0,0,0,0],"sum_hessian":[5.4054066E1,5.0837936E1,3.2161307E0,3.42785E1,1.6559437E1,1.668814E0,1.5473167E0],"tree_param":{"num_deleted":"0","num_feature":"6","num_nodes":"7","size_leaf_vector":"1"}},{"base_weights":[1.7454429E-2,-7.68182E-1,7.832943E-2,-3.4111447E-3,-6.281352E-2,6.1042565E-3,-3.833846E-2],"categories":[],"categories_nodes":[],"categories_segments":[],"categories_sizes":[],"default_left":[0,0,0,0,0,0,0],"id":69,"left_children":[1,3,5,-1,-1,-1,-1],"loss_changes":[2.5555847E0,1.2278216E0,1.9178256E0,0E0,0E0,0E0,0E0],"parents":[2147483647,0,0,1,1,2,2],"right_children":[2,4,6,-1,-1,-1,-1],"split_conditions":[4.668067E0,4.8968567E1,3.7841916E0,-3.4111447E-3,-6.281352E-2,6.1042565E-3,-3.833846E-2],"split_indices":[0,3,2,0,0,0,0],"split_type":[0,0,0,0,0,0,0],"sum_hessian":[5.117734E1,2.8447504E0,4.833259E1,1.6369724E0,1.207778E0,4.676674E1,1.5658501E0],"tree_param":{"num_deleted":"0","num_feature":"6","num_nodes":"7","size_leaf_vector":"1"}},{"base_weights":[-1.0748367E-1,-4.8191926E-1,-1.1418218E-2,7.1397694E-3,-4.220248E-2,1.933332E-3,-4.3386526E-2],"categories":[],"categories_nodes":[],"categories_segments":[],"categories_sizes":[],"default_left":[0,0,0,0,0,0,0],"id":70,"left_children":[1,3,5,-1,-1,-1,-1],"loss_changes":[1.9456534E0,2.6205733E0,1.9288921E0,0E0,0E0,0E0,0E0],"parents":[2147483647,0,0,1,1,2,2],"right_children":[2,4,6,-1,-1,-1,-1],"split_conditions":[5.2273293E0,1.3912423E0,6.936334E1,7.1397694E-3,-4.220248E-2,1.933332E-3,-4.3386526E-2],"split_indices":[0,2,3,0,0,0,0],"split_type":[0,0,0,0,0,0,0],"sum_hessian":[5.3243496E1,1.0051002E1,4.3192493E1,3.9105508E0,6.140451E0,4.1707886E1,1.4846079E0],"tree_param":{"num_deleted":"0","num_feature":"6","num_nodes":"7","size_leaf_vector":"1"}},{"base_weights":[2.8968312E-2,-3.2763567E-2,6.641576E-2,-1.7915256E-2,6.487603E-3],"categories":[],"categories_nodes":[],"categories_segments":[],"categories_sizes":[],"default_left":[0,0,0,0,0],"id":71,"left_children":[1,-1,3,-1,-1],"loss_changes":[1.3848734E0,0E0,1.4060601E0,0E0,0E0],"parents":[2147483647,0,0,2,2],"right_children":[2,-1,4,-1,-1],"split_conditions":[6.8138236E-1,-3.2763567E-2,-1.5191637E0,-1.7915256E-2,6.487603E-3],"split_indices":[2,0,4,0,0],"split_type":[0,0,0,0,0],"sum_hessian":[5.134952E1,1.8083804E0,4.954114E1,5.8246937E0,4.3716446E1],"tree_param":{"num_deleted":"0","num_feature":"6","num_nodes":"5","size_leaf_vector":"1"}},{"base_weights":[-7.5841226E-2,1.3533948E-1,-3.258118E-1,2.0625105E-2,-1.8929664E-2,-4.8056677E-2,-8.157023E-3],"categories":[],"categories_nodes":[],"categories_segments":[],"categories_sizes":[],"default_left":[0,0,0,0,0,0,0],"id":72,"left_children":[1,3,5,-1,-1,-1,-1],"loss_changes":[2.9385302E0,4.490383E0,2.4685252E0,0E0,0E0,0E0,0E0],"parents":[2147483647,0,0,1,1,2,2],"right_children":[2,4,6,-1,-1,-1,-1],"split_conditions":[1.9296807E0,2.7440166E0,2.1097605E0,2.0625105E-2,-1.8929664E-2,-4.8056677E-2,-8.157023E-3],"split_indices":[5,2,5,0,0,0,0],"split_type":[0,0,0,0,0,0,0],"sum_hessian":[5.3830307E1,2.9427704E1,2.4402601E1,1.9245834E1,1.01818695E1,3.973896E0,2.0428705E1],"tree_param":{"num_deleted":"0","num_feature":"6","num_nodes":"7","size_leaf_vector":"1"}},{"base_weights":[5.5989656E-3,2.6665306E-1,-2.0799492E-1,-2.352437E-2,1.9776952E-2,-3.9441973E-2,-5.6706974E-4],"categories":[],"categories_nodes":[],"categories_segments":[],"categories_sizes":[],"default_left":[0,0,0,0,0,0,0],"id":73,"left_children":[1,3,5,-1,-1,-1,-1],"loss_changes":[3.0429466E0,2.518382E0,3.4211667E0,0E0,0E0,0E0,0E0],"parents":[2147483647,0,0,1,1,2,2],"right_children":[2,4,6,-1,-1,-1,-1],"split_conditions":[5.029871E1,8.293219E-1,5.618045E1,-2.352437E-2,1.9776952E-2,-3.9441973E-2,-5.6706974E-4],"split_indices":[3,5,3,0,0,0,0],"split_type":[0,0,0,0,0,0,0],"sum_hessian":[5.2577972E1,2.3548555E1,2.9029415E1,3.1101556E0,2.04384E1,6.5807896E0,2.2448626E1],"tree_param":{"num_deleted":"0","num_feature":"6","num_nodes":"7","size_leaf_vector":"1"}},{"base_weights":[-1.2950067E-1,-6.513802E-1,-9.38795E-3,-1.1572579E-2,-6.993312E-2,1.0593493E-2,-1.4697353E-2],"categories":[],"categories_nodes":[],"categories_segments":[],"categories_sizes":[],"default_left":[0,0,0,0,0,0,0],"id":74,"left_children":[1,3,5,-1,-1,-1,-1],"loss_changes":[3.3940067E0,2.856286E0,2.902335E0,0E0,0E0,0E0,0E0],"parents":[2147483647,0,0,1,1,2,2],"right_children":[2,4,6,-1,-1,-1,-1],"split_conditions":[5.223636E0,4.9952335E0,3.4643385E-1,-1.1572579E-2,-6.993312E-2,1.0593493E-2,-1.4697353E-2],"split_indices":[0,0,4,0,0,0,0],"split_type":[0,0,0,0,0,0,0],"sum_hessian":[5.3241943E1,9.133704E0,4.410824E1,6.6861854E0,2.4475188E0,2.4957827E1,1.9150412E1],"tree_param":{"num_deleted":"0","num_feature":"6","num_nodes":"7","size_leaf_vector":"1"}},{"base_weights":[-5.6336023E-2,3.8905267E-2,-9.06924E-2,-4.7245126E-2,-2.3592298E-3],"categories":[],"categories_nodes":[],"categories_segments":[],"categories_sizes":[],"default_left":[0,0,0,0,0],"id":75,"left_children":[1,-1,3,-1,-1],"loss_changes":[1.7242877E0,0E0,2.0477543E0,0E0,0E0],"parents":[2147483647,0,0,2,2],"right_children":[2,-1,4,-1,-1],"split_conditions":[-1.8533143E0,3.8905267E-2,-1.7273108E0,-4.7245126E-2,-2.3592298E-3],"split_indices":[4,0,4,0,0],"split_type":[0,0,0,0,0],"sum_hessian":[5.6684444E1,1.3855042E0,5.529894E1,1.6759614E0,5.362298E1],"tree_param":{"num_deleted":"0","num_feature":"6","num_nodes":"5","size_leaf_vector":"1"}},{"base_weights":[7.207813E-2,-6.1007047E-1,1.3489886E-1,-5.609054E-2,1.3574186E-2,4.320621E-2,3.0188493E-3],"categories":[],"categories_nodes":[],"categories_segments":[],"categories_sizes":[],"default_left":[0,0,0,0,0,0,0],"id":76,"left_children":[1,3,5,-1,-1,-1,-1],"loss_changes":[2.3728287E0,2.4196181E0,2.6520765E0,0E0,0E0,0E0,0E0],"parents":[2147483647,0,0,1,1,2,2],"right_children":[2,4,6,-1,-1,-1,-1],"split_conditions":[7.347677E-1,6.910986E0,3.3265198E1,-5.609054E-2,1.3574186E-2,4.320621E-2,3.0188493E-3],"split_indices":[2,0,3,0,0,0,0],"split_type":[0,0,0,0,0,0,0],"sum_hessian":[5.2450806E1,3.6884038E0,4.87624E1,2.1612597E0,1.5271442E0,3.5387533E0,4.5223648E1],"tree_param":{"num_deleted":"0","num_feature":"6","num_nodes":"7","size_leaf_vector":"1"}},{"base_weights":[-1.1340839E-1,-6.970284E-1,-5.982607E-2,-6.46045E-2,1.2608501E-2,-2.814655E-2,6.868272E-4],"categories":[],"categories_nodes":[],"categories_segments":[],"categories_sizes":[],"default_left":[0,0,0,0,0,0,0],"id":77,"left_children":[1,3,5,-1,-1,-1,-1],"loss_changes":[1.6673179E0,2.8685167E0,1.9007399E0,0E0,0E0,0E0,0E0],"parents":[2147483647,0,0,1,1,2,2],"right_children":[2,4,6,-1,-1,-1,-1],"split_conditions":[7.347677E-1,6.910986E0,7.636843E-1,-6.46045E-2,1.2608501E-2,-2.814655E-2,6.868272E-4],"split_indices":[2,0,5,0,0,0,0],"split_type":[0,0,0,0,0,0,0],"sum_hessian":[5.365061E1,3.5016792E0,5.0148933E1,1.9303076E0,1.5713717E0,5.548636E0,4.4600296E1],"tree_param":{"num_deleted":"0","num_feature":"6","num_nodes":"7","size_leaf_vector":"1"}},{"base_weights":[-2.8626464E-2,-5.5152785E-2,1.8348178E-2,3.353292E-3,-2.989297E-2],"categories":[],"categories_nodes":[],"categories_segments":[],"categories_sizes":[],"default_left":[0,0,0,0,0],"id":78,"left_children":[1,-1,3,-1,-1],"loss_changes":[2.6888344E0,0E0,1.5904198E0,0E0,0E0],"parents":[2147483647,0,0,2,2],"right_children":[2,-1,4,-1,-1],"split_conditions":[5.882784E-1,-5.5152785E-2,1.8517075E0,3.353292E-3,-2.989297E-2],"split_indices":[5,0,4,0,0],"split_type":[0,0,0,0,0],"sum_hessian":[5.187391E1,1.2312043E0,5.0642708E1,4.7758095E1,2.8846138E0],"tree_param":{"num_deleted":"0","num_feature":"6","num_nodes":"5","size_leaf_vector":"1"}},{"base_weights":[9.6652195E-2,-3.245344E-1,2.058911E-1,2.351531E-3,-5.6564122E-2,-1.1212088E-2,1.6271226E-2],"categories":[],"categories_nodes":[],"categories_segments":[],"categories_sizes":[],"default_left":[0,0,0,0,0,0,0],"id":79,"left_children":[1,3,5,-1,-1,-1,-1],"loss_changes":[2.551289E0,3.503115E0,2.309002E0,0E0,0E0,0E0,0E0],"parents":[2147483647,0,0,1,1,2,2],"right_children":[2,4,6,-1,-1,-1,-1],"split_conditions":[5.223636E0,5.0106306E0,3.8952705E1,2.351531E-3,-5.6564122E-2,-1.1212088E-2,1.6271226E-2],"split_indices":[0,0,3,0,0,0,0],"split_type":[0,0,0,0,0,0,0],"sum_hessian":[5.2998528E1,1.0508932E1,4.2489594E1,7.8398337E0,2.6690989E0,9.049523E0,3.344007E1],"tree_param":{"num_deleted":"0","num_feature":"6","num_nodes":"7","size_leaf_vector":"1"}},{"base_weights":[3.9876778E-2,-1.6840318E-2,6.5268296E-1,-1.2025798E-2,6.617342E-3,4.67224E-2,1.2439112E-3],"categories":[],"categories_nodes":[],"categories_segments":[],"categories_sizes":[],"default_left":[0,0,0,0,0,0,0],"id":80,"left_children":[1,3,5,-1,-1,-1,-1],"loss_changes":[1.8668983E0,1.695259E0,7.813661E-1,0E0,0E0,0E0,0E0],"parents":[2147483647,0,0,1,1,2,2],"right_children":[2,4,6,-1,-1,-1,-1],"split_conditions":[8.61689E0,1.7559067E0,1.9662391E0,-1.2025798E-2,6.617342E-3,4.67224E-2,1.2439112E-3],"split_indices":[0,2,2,0,0,0,0],"split_type":[0,0,0,0,0,0,0],"sum_hessian":[5.239727E1,4.8848694E1,3.548577E0,1.9300045E1,2.9548647E1,2.1121745E0,1.4364024E0],"tree_param":{"num_deleted":"0","num_feature":"6","num_nodes":"7","size_leaf_vector":"1"}},{"base_weights":[6.761021E-2,5.8437824E-1,1.6305499E-2,-1.8683119E-2,4.8955318E-2,-4.9109768E-2,4.7203563E-3],"categories":[],"categories_nodes":[],"categories_segments":[],"categories_sizes":[],"default_left":[0,0,0,0,0,0,0],"id":81,"left_children":[1,3,5,-1,-1,-1,-1],"loss_changes":[1.3955406E0,2.1650066E0,3.932578E0,0E0,0E0,0E0,0E0],"parents":[2147483647,0,0,1,1,2,2],"right_children":[2,4,6,-1,-1,-1,-1],"split_conditions":[3.3204594E1,9.9299955E-1,3.500743E1,-1.8683119E-2,4.8955318E-2,-4.9109768E-2,4.7203563E-3],"split_indices":[3,2,3,0,0,0,0],"split_type":[0,0,0,0,0,0,0],"sum_hessian":[5.19962E1,3.7575762E0,4.8238625E1,1.1120058E0,2.6455703E0,2.659683E0,4.557894E1],"tree_param":{"num_deleted":"0","num_feature":"6","num_nodes":"7","size_leaf_vector":"1"}},{"base_weights":[5.6357857E-2,-3.235192E-2,5.171838E-1,3.0694776E-3,-5.424751E-2,5.191365E-2,2.450418E-3],"categories":[],"categories_nodes":[],"categories_segments":[],"categories_sizes":[],"default_left":[0,0,0,0,0,0,0],"id":82,"left_children":[1,3,5,-1,-1,-1,-1],"loss_changes":[2.2255378E0,4.63026E0,2.0913494E0,0E0,0E0,0E0,0E0],"parents":[2147483647,0,0,1,1,2,2],"right_children":[2,4,6,-1,-1,-1,-1],"split_conditions":[8.245992E0,7.9751015E0,5.483662E1,3.0694776E-3,-5.424751E-2,5.191365E-2,2.450418E-3],"split_indices":[0,0,3,0,0,0,0],"split_type":[0,0,0,0,0,0,0],"sum_hessian":[5.303176E1,4.5250717E1,7.781044E0,4.241503E1,2.8356862E0,3.1061416E0,4.6749024E0],"tree_param":{"num_deleted":"0","num_feature":"6","num_nodes":"7","size_leaf_vector":"1"}},{"base_weights":[-3.125511E-2,-1.0840469E-1,4.6713465E-1,3.892399E-2,-7.631171E-3,1.9916287E-3,4.9817957E-2],"categories":[],"categories_nodes":[],"categories_segments":[],"categories_sizes":[],"default_left":[0,0,0,0,0,0,0],"id":83,"left_children":[1,3,5,-1,-1,-1,-1],"loss_changes":[2.17026E0,2.022718E0,1.6739542E0,0E0,0E0,0E0,0E0],"parents":[2147483647,0,0,1,1,2,2],"right_children":[2,4,6,-1,-1,-1,-1],"split_conditions":[2.6503491E0,-1.8533143E0,2.0264428E0,3.892399E-2,-7.631171E-3,1.9916287E-3,4.9817957E-2],"split_indices":[5,4,2,0,0,0,0],"split_type":[0,0,0,0,0,0,0],"sum_hessian":[5.412587E1,4.7548035E1,6.577835E0,1.469496E0,4.6078537E1,4.2342873E0,2.3435476E0],"tree_param":{"num_deleted":"0","num_feature":"6","num_nodes":"7","size_leaf_vector":"1"}},{"base_weights":[-2.327319E-2,2.3811134E-2,-5.645407E-2,-1.9885637E-3,2.882193E-2],"categories":[],"categories_nodes":[],"categories_segments":[],"categories_sizes":[],"default_left":[0,0,0,0,0],"id":84,"left_children":[1,3,-1,-1,-1],"loss_changes":[2.8444655E0,1.881152E0,0E0,0E0,0E0],"parents":[2147483647,0,0,1,1],"right_children":[2,4,-1,-1,-1],"split_conditions":[6.9247444E1,6.6975845E1,-5.645407E-2,-1.9885637E-3,2.882193E-2],"split_indices":[3,3,0,0,0],"split_type":[0,0,0,0,0],"sum_hessian":[5.311532E1,5.1884586E1,1.2307321E0,4.736325E1,4.5213337E0],"tree_param":{"num_deleted":"0","num_feature":"6","num_nodes":"5","size_leaf_vector":"1"}},{"base_weights":[-8.317285E-3,4.68784E-1,-1.0992235E-1,-1.0597913E-2,4.0578563E-2,-1.7526105E-2,9.294213E-3],"categories":[],"categories_nodes":[],"categories_segments":[],"categories_sizes":[],"default_left":[0,0,0,0,0,0,0],"id":85,"left_children":[1,3,5,-1,-1,-1,-1],"loss_changes":[2.5482597E0,2.3264763E0,3.1448545E0,0E0,0E0,0E0,0E0],"parents":[2147483647,0,0,1,1,2,2],"right_children":[2,4,6,-1,-1,-1,-1],"split_conditions":[-1.2168881E0,1.3355958E0,2.3671138E0,-1.0597913E-2,4.0578563E-2,-1.7526105E-2,9.294213E-3],"split_indices":[4,5,2,0,0,0,0],"split_type":[0,0,0,0,0,0,0],"sum_hessian":[5.050455E1,8.232739E0,4.227181E1,2.885024E0,5.347716E0,2.3209204E1,1.9062607E1],"tree_param":{"num_deleted":"0","num_feature":"6","num_nodes":"7","size_leaf_vector":"1"}},{"base_weights":[3.8182817E-2,7.369432E-2,-3.7550878E-2,-1.3968236E-3,2.9361745E-2],"categories":[],"categories_nodes":[],"categories_segments":[],"categories_sizes":[],"default_left":[0,0,0,0,0],"id":86,"left_children":[1,3,-1,-1,-1],"loss_changes":[1.6028901E0,2.8217914E0,0E0,0E0,0E0],"parents":[2147483647,0,0,1,1],"right_children":[2,4,-1,-1,-1],"split_conditions":[6.936334E1,6.457433E1,-3.7550878E-2,-1.3968236E-3,2.9361745E-2],"split_indices":[3,3,0,0,0],"split_type":[0,0,0,0,0],"sum_hessian":[5.421878E1,5.275174E1,1.467039E0,4.482615E1,7.925592E0],"tree_param":{"num_deleted":"0","num_feature":"6","num_nodes":"5","size_leaf_vector":"1"}},{"base_weights":[-3.721346E-2,1.4946307E-2,-4.6494972E-2,-1.3491748E-3,4.3857038E-2],"categories":[],"categories_nodes":[],"categories_segments":[],"categories_sizes":[],"default_left":[0,0,0,0,0],"id":87,"left_children":[1,3,-1,-1,-1],"loss_changes":[2.6247976E0,1.9744807E0,0E0,0E0,0E0],"parents":[2147483647,0,0,1,1],"right_children":[2,4,-1,-1,-1],"split_conditions":[3.7841916E0,3.7229466E0,-4.6494972E-2,-1.3491748E-3,4.3857038E-2],"split_indices":[2,2,0,0,0],"split_type":[0,0,0,0,0],"sum_hessian":[5.5073246E1,5.2961933E1,2.1113162E0,5.142954E1,1.5323914E0],"tree_param":{"num_deleted":"0","num_feature":"6","num_nodes":"5","size_leaf_vector":"1"}},{"base_weights":[-7.661994E-2,-5.2831954E-1,1.42698465E-2,-4.120968E-2,1.0078118E-2,4.319934E-2,-1.86105E-3],"categories":[],"categories_nodes":[],"categories_segments":[],"categories_sizes":[],"default_left":[0,0,0,0,0,0,0],"id":88,"left_children":[1,3,5,-1,-1,-1,-1],"loss_changes":[2.1380777E0,2.0490813E0,1.9649587E0,0E0,0E0,0E0,0E0],"parents":[2147483647,0,0,1,1,2,2],"right_children":[2,4,6,-1,-1,-1,-1],"split_conditions":[1.0203196E0,7.3048415E0,1.0465341E0,-4.120968E-2,1.0078118E-2,4.319934E-2,-1.86105E-3],"split_indices":[2,0,2,0,0,0,0],"split_type":[0,0,0,0,0,0,0],"sum_hessian":[5.0894897E1,7.7192755E0,4.3175625E1,5.400746E0,2.3185294E0,1.5652921E0,4.1610332E1],"tree_param":{"num_deleted":"0","num_feature":"6","num_nodes":"7","size_leaf_vector":"1"}},{"base_weights":[5.7363935E-2,1.11208834E-1,-6.3639295E-1,-4.1752122E-4,1.9565089E-2,-5.2631166E-2,5.8245547E-3],"categories":[],"categories_nodes":[],"categories_segments":[],"categories_sizes":[],"default_left":[0,0,0,0,0,0,0],"id":89,"left_children":[1,3,5,-1,-1,-1,-1],"loss_changes":[2.1347697E0,1.7488105E0,1.4163139E0,0E0,0E0,0E0,0E0],"parents":[2147483647,0,0,1,1,2,2],"right_children":[2,4,6,-1,-1,-1,-1],"split_conditions":[1.8517075E0,6.701996E-1,1.9465204E0,-4.1752122E-4,1.9565089E-2,-5.2631166E-2,5.8245547E-3],"split_indices":[4,4,4,0,0,0,0],"split_type":[0,0,0,0,0,0,0],"sum_hessian":[5.4253174E1,5.1124893E1,3.1282814E0,3.6510406E1,1.4614486E1,1.7581633E0,1.3701181E0],"tree_param":{"num_deleted":"0","num_feature":"6","num_nodes":"7","size_leaf_vector":"1"}},{"base_weights":[-4.5838617E-2,1.5576503E-1,-3.2217488E-1,-3.019607E-2,1.1910325E-2,2.4064591E-2,-2.4287326E-2],"categories":[],"categories_nodes":[],"categories_segments":[],"categories_sizes":[],"default_left":[0,0,0,0,0,0,0],"id":90,"left_children":[1,3,5,-1,-1,-1,-1],"loss_changes":[2.9755816E0,2.0875635E0,3.1876686E0,0E0,0E0,0E0,0E0],"parents":[2147483647,0,0,1,1,2,2],"right_children":[2,4,6,-1,-1,-1,-1],"split_conditions":[2.0087192E0,4.833201E0,3.4100388E1,-3.019607E-2,1.1910325E-2,2.4064591E-2,-2.4287326E-2],"split_indices":[5,0,3,0,0,0,0],"split_type":[0,0,0,0,0,0,0],"sum_hessian":[5.151081E1,3.0034899E1,2.1475912E1,2.3210738E0,2.7713823E1,3.3040366E0,1.8171875E1],"tree_param":{"num_deleted":"0","num_feature":"6","num_nodes":"7","size_leaf_vector":"1"}},{"base_weights":[-1.8877946E-2,1.993602E-1,-1.720078E-1,1.4631609E-2,-2.9667739E-2,-6.049644E-2,-3.3143288E-4],"categories":[],"categories_nodes":[],"categories_segments":[],"categories_sizes":[],"default_left":[0,0,0,0,0,0,0],"id":91,"left_children":[1,3,5,-1,-1,-1,-1],"loss_changes":[1.8183068E0,1.8354211E0,5.4690466E0,0E0,0E0,0E0,0E0],"parents":[2147483647,0,0,1,1,2,2],"right_children":[2,4,6,-1,-1,-1,-1],"split_conditions":[-2.7000847E-1,6.9247444E1,8.383191E-2,1.4631609E-2,-2.9667739E-2,-6.049644E-2,-3.3143288E-4],"split_indices":[4,3,4,0,0,0,0],"split_type":[0,0,0,0,0,0,0],"sum_hessian":[5.238363E1,2.1475374E1,3.0908255E1,1.9778997E1,1.6963772E0,3.379897E0,2.7528357E1],"tree_param":{"num_deleted":"0","num_feature":"6","num_nodes":"7","size_leaf_vector":"1"}},{"base_weights":[3.3620313E-2,4.5502737E-2,-1.484369E-2,1.4014354E-3,-3.8073305E-2],"categories":[],"categories_nodes":[],"categories_segments":[],"categories_sizes":[],"default_left":[0,0,0,0,0],"id":92,"left_children":[1,-1,3,-1,-1],"loss_changes":[2.3233254E0,0E0,1.702303E0,0E0,0E0],"parents":[2147483647,0,0,2,2],"right_children":[2,-1,4,-1,-1],"split_conditions":[3.1328125E1,4.5502737E-2,3.7841916E0,1.4014354E-3,-3.8073305E-2],"split_indices":[3,0,2,0,0],"split_type":[0,0,0,0,0],"sum_hessian":[5.337995E1,1.8655188E0,5.151443E1,4.962721E1,1.887224E0],"tree_param":{"num_deleted":"0","num_feature":"6","num_nodes":"5","size_leaf_vector":"1"}},{"base_weights":[-1.2148828E-2,2.827231E-1,-2.6028377E-1,-9.3342824E-4,5.1927477E-2,-1.9599004E-2,4.632364E-2],"categories":[],"categories_nodes":[],"categories_segments":[],"categories_sizes":[],"default_left":[0,0,0,0,0,0,0],"id":93,"left_children":[1,3,5,-1,-1,-1,-1],"loss_changes":[3.6800134E0,5.2594576E0,4.6278334E0,0E0,0E0,0E0,0E0],"parents":[2147483647,0,0,1,1,2,2],"right_children":[2,4,6,-1,-1,-1,-1],"split_conditions":[5.029871E1,4.391237E1,8.677434E0,-9.3342824E-4,5.1927477E-2,-1.9599004E-2,4.632364E-2],"split_indices":[3,3,0,0,0,0,0],"split_type":[0,0,0,0,0,0,0],"sum_hessian":[4.8289635E1,2.2002958E1,2.6286678E1,1.6427618E1,5.57534E0,2.426379E1,2.0228882E0],"tree_param":{"num_deleted":"0","num_feature":"6","num_nodes":"7","size_leaf_vector":"1"}},{"base_weights":[-1.662464E-2,-1.7171863E-1,1.1358305E-1,-2.662489E-3,-6.302449E-2,-3.8167262E-3,3.2916255E-2],"categories":[],"categories_nodes":[],"categories_segments":[],"categories_sizes":[],"default_left":[0,0,0,0,0,0,0],"id":94,"left_children":[1,3,5,-1,-1,-1,-1],"loss_changes":[1.0992873E0,3.1318188E0,3.119647E0,0E0,0E0,0E0,0E0],"parents":[2147483647,0,0,1,1,2,2],"right_children":[2,4,6,-1,-1,-1,-1],"split_conditions":[6.340288E0,6.1547213E0,2.4230578E0,-2.662489E-3,-6.302449E-2,-3.8167262E-3,3.2916255E-2],"split_indices":[0,0,5,0,0,0,0],"split_type":[0,0,0,0,0,0,0],"sum_hessian":[5.2469345E1,2.3800777E1,2.866857E1,2.2411137E1,1.3896406E0,2.1895014E1,6.7735558E0],"tree_param":{"num_deleted":"0","num_feature":"6","num_nodes":"7","size_leaf_vector":"1"}},{"base_weights":[9.327559E-3,-1.06512785E-1,2.5294068E-1,-1.2730904E-2,8.809991E-3,3.8956016E-2,-7.5260303E-3],"categories":[],"categories_nodes":[],"categories_segments":[],"categories_sizes":[],"default_left":[0,0,0,0,0,0,0],"id":95,"left_children":[1,3,5,-1,-1,-1,-1],"loss_changes":[1.5322993E0,1.5880737E0,3.829672E0,0E0,0E0,0E0,0E0],"parents":[2147483647,0,0,1,1,2,2],"right_children":[2,4,6,-1,-1,-1,-1],"split_conditions":[6.701996E-1,7.3690085E0,1.2767555E0,-1.2730904E-2,8.809991E-3,3.8956016E-2,-7.5260303E-3],"split_indices":[4,0,4,0,0,0,0],"split_type":[0,0,0,0,0,0,0],"sum_hessian":[5.2343227E1,3.5856094E1,1.6487135E1,2.3594807E1,1.2261289E1,6.7512746E0,9.73586E0],"tree_param":{"num_deleted":"0","num_feature":"6","num_nodes":"7","size_leaf_vector":"1"}},{"base_weights":[3.2728598E-2,8.264851E-2,-5.8732533E-1,9.2192146E-4,4.2907182E-2,-5.7886224E-2,1.0797011E-2],"categories":[],"categories_nodes":[],"categories_segments":[],"categories_sizes":[],"default_left":[0,0,0,0,0,0,0],"id":96,"left_children":[1,3,5,-1,-1,-1,-1],"loss_changes":[1.7268833E0,2.5266263E0,2.1576262E0,0E0,0E0,0E0,0E0],"parents":[2147483647,0,0,1,1,2,2],"right_children":[2,4,6,-1,-1,-1,-1],"split_conditions":[1.8517075E0,1.5767635E0,1.9465204E0,9.2192146E-4,4.2907182E-2,-5.7886224E-2,1.0797011E-2],"split_indices":[4,4,4,0,0,0,0],"split_type":[0,0,0,0,0,0,0],"sum_hessian":[5.3222202E1,5.005873E1,3.1634698E0,4.717636E1,2.8823705E0,1.5918348E0,1.5716351E0],"tree_param":{"num_deleted":"0","num_feature":"6","num_nodes":"7","size_leaf_vector":"1"}},{"base_weights":[-2.9899854E-2,4.1392058E-1,-1.547923E-1,3.2957602E-2,-3.326098E-2,-1.3395435E-2,1.7238883E-2],"categories":[],"categories_nodes":[],"categories_segments":[],"categories_sizes":[],"default_left":[0,0,0,0,0,0,0],"id":97,"left_children":[1,3,5,-1,-1,-1,-1],"loss_changes":[3.1523175E0,3.7484255E0,2.5904946E0,0E0,0E0,0E0,0E0],"parents":[2147483647,0,0,1,1,2,2],"right_children":[2,4,6,-1,-1,-1,-1],"split_conditions":[-1.0722116E0,6.554993E1,6.457433E1,3.2957602E-2,-3.326098E-2,-1.3395435E-2,1.7238883E-2],"split_indices":[4,3,3,0,0,0,0],"split_type":[0,0,0,0,0,0,0],"sum_hessian":[5.4714527E1,1.1507393E1,4.3207134E1,9.693713E0,1.8136803E0,3.560818E1,7.598952E0],"tree_param":{"num_deleted":"0","num_feature":"6","num_nodes":"7","size_leaf_vector":"1"}},{"base_weights":[-4.605582E-2,-5.438719E-1,3.3816453E-2,-9.66227E-3,-4.6717014E-2,1.5108541E-2,-6.1014653E-3],"categories":[],"categories_nodes":[],"categories_segments":[],"categories_sizes":[],"default_left":[0,0,0,0,0,0,0],"id":98,"left_children":[1,3,5,-1,-1,-1,-1],"loss_changes":[2.058036E0,7.984643E-1,1.9249556E0,0E0,0E0,0E0,0E0],"parents":[2147483647,0,0,1,1,2,2],"right_children":[2,4,6,-1,-1,-1,-1],"split_conditions":[7.636843E-1,2.6202118E0,1.6215266E0,-9.66227E-3,-4.6717014E-2,1.5108541E-2,-6.1014653E-3],"split_indices":[5,2,5,0,0,0,0],"split_type":[0,0,0,0,0,0,0],"sum_hessian":[5.02967E1,6.150915E0,4.4145782E1,4.028434E0,2.1224816E0,1.5873658E1,2.8272123E1],"tree_param":{"num_deleted":"0","num_feature":"6","num_nodes":"7","size_leaf_vector":"1"}},{"base_weights":[-8.887251E-3,3.8047358E-1,-1.11001946E-1,3.3211626E-2,-3.2791603E-2,-4.505919E-2,-6.8414275E-4],"categories":[],"categories_nodes":[],"categories_segments":[],"categories_sizes":[],"default_left":[0,0,0,0,0,0,0],"id":99,"left_children":[1,3,5,-1,-1,-1,-1],"loss_changes":[2.1290827E0,3.7088578E0,3.2448149E0,0E0,0E0,0E0,0E0],"parents":[2147483647,0,0,1,1,2,2],"right_children":[2,4,6,-1,-1,-1,-1],"split_conditions":[-1.0909215E0,3.309987E0,-7.547692E-1,3.3211626E-2,-3.2791603E-2,-4.505919E-2,-6.8414275E-4],"split_indices":[4,2,4,0,0,0,0],"split_type":[0,0,0,0,0,0,0],"sum_hessian":[5.1486862E1,1.0131138E1,4.1355724E1,8.235225E0,1.895913E0,3.629108E0,3.7726616E1],"tree_param":{"num_deleted":"0","num_feature":"6","num_nodes":"7","size_leaf_vector":"1"}}]},"name":"gbtree"},"learner_model_param":{"base_score":"6.626218E-1","boost_from_average":"1","num_class":"0","num_feature":"6","num_target":"1"},"objective":{"name":"binary:logistic","reg_loss_param":{"scale_pos_weight":"1"}}},"version":[2,1,4]}